Unnamed: 0,chin_x0,chin_y0,chin_x1,chin_y1,chin_x2,chin_y2,chin_x3,chin_y3,chin_x4,chin_y4,chin_x5,chin_y5,chin_x6,chin_y6,chin_x7,chin_y7,chin_x8,chin_y8,chin_x9,chin_y9,chin_x10,chin_y10,chin_x11,chin_y11,chin_x12,chin_y12,chin_x13,chin_y13,chin_x14,chin_y14,chin_x15,chin_y15,chin_x16,chin_y16,right_eyebrow_x0,right_eyebrow_y0,right_eyebrow_x1,right_eyebrow_y1,right_eyebrow_x2,right_eyebrow_y2,right_eyebrow_x3,right_eyebrow_y3,right_eyebrow_x4,right_eyebrow_y4,left_eyebrow_x0,left_eyebrow_y0,left_eyebrow_x1,left_eyebrow_y1,left_eyebrow_x2,left_eyebrow_y2,left_eyebrow_x3,left_eyebrow_y3,left_eyebrow_x4,left_eyebrow_y4,nose_x0,nose_y0,nose_x1,nose_y1,nose_x2,nose_y2,nose_x3,nose_y3,nose_x4,nose_y4,nose_x5,nose_y5,nose_x6,nose_y6,nose_x7,nose_y7,nose_x8,nose_y8,right_eye_x0,right_eye_y0,right_eye_x1,right_eye_y1,right_eye_x2,right_eye_y2,right_eye_x3,right_eye_y3,right_eye_x4,right_eye_y4,right_eye_x5,right_eye_y5,left_eye_x0,left_eye_y0,left_eye_x1,left_eye_y1,left_eye_x2,left_eye_y2,left_eye_x3,left_eye_y3,left_eye_x4,left_eye_y4,left_eye_x5,left_eye_y5,mouth_x0,mouth_y0,mouth_x1,mouth_y1,mouth_x2,mouth_y2,mouth_x3,mouth_y3,mouth_x4,mouth_y4,mouth_x5,mouth_y5,mouth_x6,mouth_y6,mouth_x7,mouth_y7,mouth_x8,mouth_y8,mouth_x9,mouth_y9,mouth_x10,mouth_y10,mouth_x11,mouth_y11,mouth_x12,mouth_y12,mouth_x13,mouth_y13,mouth_x14,mouth_y14,mouth_x15,mouth_y15,mouth_x16,mouth_y16,mouth_x17,mouth_y17,mouth_x18,mouth_y18,mouth_x19,mouth_y19,target
00q0.jpg,-0.4591194968553459,-0.0440251572327044,-0.4528301886792453,0.08176100628930817,-0.4339622641509434,0.2138364779874214,-0.4088050314465409,0.33962264150943394,-0.36477987421383645,0.4528301886792453,-0.2893081761006289,0.5534591194968553,-0.20125786163522014,0.6352201257861635,-0.10062893081761007,0.7044025157232704,0.018867924528301886,0.7232704402515723,0.14465408805031446,0.7044025157232704,0.25157232704402516,0.6352201257861635,0.3584905660377358,0.559748427672956,0.4339622641509434,0.4716981132075472,0.4779874213836478,0.3522012578616352,0.5031446540880503,0.22012578616352202,0.5283018867924528,0.09433962264150944,0.5408805031446541,-0.03773584905660377,-0.41509433962264153,-0.20754716981132076,-0.36477987421383645,-0.29559748427672955,-0.2641509433962264,-0.33962264150943394,-0.15723270440251572,-0.3333333333333333,-0.050314465408805034,-0.29559748427672955,0.0880503144654088,-0.2893081761006289,0.20125786163522014,-0.32075471698113206,0.31446540880503143,-0.3270440251572327,0.42138364779874216,-0.2893081761006289,0.48427672955974843,-0.1949685534591195,0.012578616352201259,-0.1949685534591195,0.006289308176100629,-0.13836477987421383,0.006289308176100629,-0.08176100628930817,0.0,-0.018867924528301886,-0.10062893081761007,0.08176100628930817,-0.050314465408805034,0.10062893081761007,0.006289308176100629,0.11320754716981132,0.05660377358490566,0.10062893081761007,0.11320754716981132,0.0880503144654088,-0.3081761006289308,-0.14465408805031446,-0.25157232704402516,-0.18238993710691823,-0.18867924528301888,-0.1949685534591195,-0.12578616352201258,-0.15723270440251572,-0.18867924528301888,-0.14465408805031446,-0.25157232704402516,-0.13836477987421383,0.16981132075471697,-0.1509433962264151,0.2389937106918239,-0.18867924528301888,0.3018867924528302,-0.1761006289308176,0.3584905660377358,-0.13836477987421383,0.3018867924528302,-0.1320754716981132,0.2389937106918239,-0.13836477987421383,-0.18867924528301888,0.3333333333333333,-0.12578616352201258,0.2641509433962264,-0.050314465408805034,0.2389937106918239,0.012578616352201259,0.2578616352201258,0.07547169811320754,0.24528301886792453,0.15723270440251572,0.27672955974842767,0.23270440251572327,0.33962264150943394,0.15723270440251572,0.4025157232704403,0.07547169811320754,0.4339622641509434,0.006289308176100629,0.44025157232704404,-0.05660377358490566,0.4276729559748428,-0.1320754716981132,0.389937106918239,-0.1509433962264151,0.3270440251572327,-0.050314465408805034,0.29559748427672955,0.006289308176100629,0.3018867924528302,0.07547169811320754,0.3018867924528302,0.1949685534591195,0.33962264150943394,0.07547169811320754,0.3710691823899371,0.006289308176100629,0.3710691823899371,-0.05660377358490566,0.36477987421383645,1
00q1.jpg,-0.4236111111111111,-0.16666666666666666,-0.4166666666666667,-0.04861111111111111,-0.3958333333333333,0.0625,-0.3680555555555556,0.18055555555555555,-0.3402777777777778,0.2916666666666667,-0.2777777777777778,0.3888888888888889,-0.19444444444444445,0.4791666666666667,-0.09722222222222222,0.5486111111111112,0.006944444444444444,0.5625,0.11805555555555555,0.5416666666666666,0.2152777777777778,0.4722222222222222,0.3055555555555556,0.3819444444444444,0.3611111111111111,0.2847222222222222,0.3958333333333333,0.16666666666666666,0.4097222222222222,0.05555555555555555,0.4305555555555556,-0.0625,0.4444444444444444,-0.1736111111111111,-0.3958333333333333,-0.24305555555555555,-0.3472222222222222,-0.3263888888888889,-0.2569444444444444,-0.3402777777777778,-0.16666666666666666,-0.3263888888888889,-0.06944444444444445,-0.2916666666666667,0.05555555555555555,-0.2916666666666667,0.1527777777777778,-0.3263888888888889,0.25,-0.3402777777777778,0.3472222222222222,-0.3263888888888889,0.3958333333333333,-0.25,0.006944444444444444,-0.2152777777777778,0.0,-0.14583333333333334,0.0,-0.06944444444444445,0.0,0.006944444444444444,-0.09027777777777778,0.08333333333333333,-0.041666666666666664,0.09027777777777778,0.0,0.09722222222222222,0.04861111111111111,0.09027777777777778,0.09027777777777778,0.0763888888888889,-0.2916666666666667,-0.1736111111111111,-0.24305555555555555,-0.19444444444444445,-0.18055555555555555,-0.2013888888888889,-0.125,-0.1736111111111111,-0.18055555555555555,-0.1527777777777778,-0.24305555555555555,-0.14583333333333334,0.125,-0.18055555555555555,0.1875,-0.20833333333333334,0.25,-0.2013888888888889,0.2986111111111111,-0.18055555555555555,0.25,-0.1597222222222222,0.1875,-0.1597222222222222,-0.1597222222222222,0.25,-0.10416666666666667,0.2361111111111111,-0.04861111111111111,0.2222222222222222,0.0,0.2361111111111111,0.04861111111111111,0.2152777777777778,0.1111111111111111,0.22916666666666666,0.1736111111111111,0.24305555555555555,0.1111111111111111,0.2916666666666667,0.05555555555555555,0.3125,0.0,0.3194444444444444,-0.041666666666666664,0.3125,-0.10416666666666667,0.2916666666666667,-0.13194444444444445,0.25,-0.04861111111111111,0.25,0.0,0.2569444444444444,0.04861111111111111,0.25,0.14583333333333334,0.25,0.04861111111111111,0.25,0.0,0.2569444444444444,-0.041666666666666664,0.25,1
00q2.jpg,-0.3224489795918367,-0.1673469387755102,-0.3183673469387755,-0.07346938775510205,-0.2979591836734694,0.024489795918367346,-0.27755102040816326,0.11020408163265306,-0.2530612244897959,0.2,-0.20408163265306123,0.27346938775510204,-0.1469387755102041,0.33877551020408164,-0.08571428571428572,0.39183673469387753,-0.00816326530612245,0.40408163265306124,0.06938775510204082,0.39183673469387753,0.13877551020408163,0.33877551020408164,0.20816326530612245,0.2816326530612245,0.2612244897959184,0.21224489795918366,0.3020408163265306,0.1346938775510204,0.3224489795918367,0.044897959183673466,0.34285714285714286,-0.053061224489795916,0.3510204081632653,-0.14285714285714285,-0.3020408163265306,-0.23673469387755103,-0.2612244897959184,-0.2816326530612245,-0.18775510204081633,-0.2897959183673469,-0.12244897959183673,-0.27755102040816326,-0.05714285714285714,-0.24897959183673468,0.07346938775510205,-0.24081632653061225,0.14285714285714285,-0.2571428571428571,0.20816326530612245,-0.2653061224489796,0.27346938775510204,-0.2571428571428571,0.3224489795918367,-0.2163265306122449,0.004081632653061225,-0.17142857142857143,0.004081632653061225,-0.11020408163265306,0.004081632653061225,-0.053061224489795916,0.0,0.012244897959183673,-0.06938775510204082,0.05714285714285714,-0.036734693877551024,0.0653061224489796,0.0,0.07755102040816327,0.0326530612244898,0.06938775510204082,0.06938775510204082,0.061224489795918366,-0.23265306122448978,-0.17551020408163265,-0.19183673469387755,-0.2,-0.13877551020408163,-0.2,-0.09387755102040816,-0.15918367346938775,-0.14285714285714285,-0.1510204081632653,-0.19591836734693877,-0.1510204081632653,0.11020408163265306,-0.15510204081632653,0.15510204081632653,-0.18775510204081633,0.20816326530612245,-0.18775510204081633,0.24897959183673468,-0.15918367346938775,0.21224489795918366,-0.13877551020408163,0.15510204081632653,-0.14285714285714285,-0.1306122448979592,0.19591836734693877,-0.08571428571428572,0.1836734693877551,-0.04081632653061224,0.17142857142857143,-0.004081632653061225,0.1836734693877551,0.02857142857142857,0.17142857142857143,0.07346938775510205,0.18775510204081633,0.11020408163265306,0.20408163265306123,0.07346938775510205,0.23673469387755103,0.02857142857142857,0.2612244897959184,-0.012244897959183673,0.2653061224489796,-0.04897959183673469,0.2612244897959184,-0.09387755102040816,0.24081632653061225,-0.11428571428571428,0.20408163265306123,-0.04081632653061224,0.20408163265306123,-0.00816326530612245,0.21224489795918366,0.0326530612244898,0.20408163265306123,0.08979591836734693,0.20816326530612245,0.02857142857142857,0.20816326530612245,-0.00816326530612245,0.2163265306122449,-0.044897959183673466,0.20816326530612245,1
00q3.jpg,-0.4662576687116564,-0.1656441717791411,-0.4601226993865031,-0.03680981595092025,-0.43558282208588955,0.09815950920245399,-0.4110429447852761,0.22699386503067484,-0.3619631901840491,0.34355828220858897,-0.294478527607362,0.44785276073619634,-0.2085889570552147,0.5460122699386503,-0.1165644171779141,0.6257668711656442,0.0,0.6503067484662577,0.12269938650306748,0.6196319018404908,0.22699386503067484,0.5398773006134969,0.3312883435582822,0.4539877300613497,0.4171779141104294,0.3496932515337423,0.4785276073619632,0.22699386503067484,0.50920245398773,0.09815950920245399,0.5276073619631901,-0.03680981595092025,0.5337423312883436,-0.17177914110429449,-0.43558282208588955,-0.3128834355828221,-0.37423312883435583,-0.38650306748466257,-0.27607361963190186,-0.4110429447852761,-0.17177914110429449,-0.3987730061349693,-0.07975460122699386,-0.3619631901840491,0.10429447852760736,-0.3496932515337423,0.20245398773006135,-0.3803680981595092,0.3067484662576687,-0.39263803680981596,0.4049079754601227,-0.37423312883435583,0.4785276073619632,-0.3006134969325153,0.006134969325153374,-0.24539877300613497,0.0,-0.1656441717791411,-0.006134969325153374,-0.08588957055214724,-0.006134969325153374,0.0,-0.09815950920245399,0.09202453987730061,-0.049079754601226995,0.10429447852760736,0.0,0.1165644171779141,0.049079754601226995,0.10429447852760736,0.10429447852760736,0.09202453987730061,-0.3312883435582822,-0.22699386503067484,-0.26993865030674846,-0.25766871165644173,-0.19631901840490798,-0.26380368098159507,-0.12883435582822086,-0.2147239263803681,-0.20245398773006135,-0.19631901840490798,-0.27607361963190186,-0.19631901840490798,0.1656441717791411,-0.2085889570552147,0.2331288343558282,-0.25153374233128833,0.3067484662576687,-0.25153374233128833,0.3619631901840491,-0.2147239263803681,0.3067484662576687,-0.1901840490797546,0.2331288343558282,-0.1901840490797546,-0.18404907975460122,0.31901840490797545,-0.12269938650306748,0.27607361963190186,-0.049079754601226995,0.24539877300613497,0.0,0.26380368098159507,0.049079754601226995,0.24539877300613497,0.1165644171779141,0.26993865030674846,0.18404907975460122,0.3067484662576687,0.1165644171779141,0.37423312883435583,0.049079754601226995,0.4110429447852761,-0.006134969325153374,0.4171779141104294,-0.05521472392638037,0.4171779141104294,-0.12269938650306748,0.38650306748466257,-0.15337423312883436,0.31901840490797545,-0.05521472392638037,0.3067484662576687,0.0,0.3128834355828221,0.049079754601226995,0.3067484662576687,0.1411042944785276,0.3128834355828221,0.049079754601226995,0.32515337423312884,-0.006134969325153374,0.3374233128834356,-0.05521472392638037,0.3312883435582822,1
00q4.jpg,-0.34299516908212563,-0.21256038647342995,-0.33816425120772947,-0.11594202898550725,-0.3188405797101449,-0.014492753623188406,-0.2995169082125604,0.0821256038647343,-0.2753623188405797,0.17391304347826086,-0.22705314009661837,0.2560386473429952,-0.16908212560386474,0.32367149758454106,-0.10144927536231885,0.391304347826087,-0.024154589371980676,0.4106280193236715,0.05314009661835749,0.3961352657004831,0.13043478260869565,0.34299516908212563,0.2028985507246377,0.28019323671497587,0.26570048309178745,0.20772946859903382,0.30434782608695654,0.12077294685990338,0.3333333333333333,0.028985507246376812,0.357487922705314,-0.06763285024154589,0.37681159420289856,-0.1642512077294686,-0.30917874396135264,-0.27053140096618356,-0.2608695652173913,-0.3140096618357488,-0.18840579710144928,-0.30917874396135264,-0.11594202898550725,-0.2898550724637681,-0.04830917874396135,-0.2608695652173913,0.08695652173913043,-0.24154589371980675,0.15942028985507245,-0.2560386473429952,0.22705314009661837,-0.27053140096618356,0.2995169082125604,-0.26570048309178745,0.34782608695652173,-0.2222222222222222,0.00966183574879227,-0.18357487922705315,0.00966183574879227,-0.11594202898550725,0.004830917874396135,-0.04830917874396135,0.0,0.01932367149758454,-0.07246376811594203,0.05314009661835749,-0.03864734299516908,0.06763285024154589,-0.004830917874396135,0.0821256038647343,0.033816425120772944,0.07246376811594203,0.06763285024154589,0.06280193236714976,-0.2318840579710145,-0.2028985507246377,-0.18840579710144928,-0.22705314009661837,-0.13526570048309178,-0.2222222222222222,-0.0966183574879227,-0.178743961352657,-0.14492753623188406,-0.17391304347826086,-0.19806763285024154,-0.178743961352657,0.12560386473429952,-0.1642512077294686,0.16908212560386474,-0.19806763285024154,0.2222222222222222,-0.1932367149758454,0.26570048309178745,-0.1642512077294686,0.2222222222222222,-0.14492753623188406,0.16908212560386474,-0.1497584541062802,-0.13043478260869565,0.18357487922705315,-0.0821256038647343,0.17391304347826086,-0.043478260869565216,0.1642512077294686,-0.00966183574879227,0.178743961352657,0.024154589371980676,0.16908212560386474,0.06763285024154589,0.18357487922705315,0.10628019323671498,0.20772946859903382,0.06280193236714976,0.23671497584541062,0.01932367149758454,0.25120772946859904,-0.01932367149758454,0.25120772946859904,-0.05314009661835749,0.2463768115942029,-0.09178743961352658,0.22705314009661837,-0.1111111111111111,0.18840579710144928,-0.043478260869565216,0.1932367149758454,-0.00966183574879227,0.2028985507246377,0.024154589371980676,0.19806763285024154,0.0821256038647343,0.20772946859903382,0.01932367149758454,0.2028985507246377,-0.014492753623188406,0.2028985507246377,-0.04830917874396135,0.1932367149758454,1
00q5.jpg,-0.46060606060606063,-0.18787878787878787,-0.46060606060606063,-0.05454545454545454,-0.44242424242424244,0.08484848484848485,-0.41818181818181815,0.21818181818181817,-0.38181818181818183,0.34545454545454546,-0.3151515151515151,0.46060606060606063,-0.23030303030303031,0.5575757575757576,-0.13333333333333333,0.6363636363636364,-0.012121212121212121,0.6606060606060606,0.11515151515151516,0.6424242424242425,0.23030303030303031,0.5696969696969697,0.3333333333333333,0.48484848484848486,0.4121212121212121,0.37575757575757573,0.4666666666666667,0.2545454545454545,0.49696969696969695,0.12121212121212122,0.5272727272727272,-0.012121212121212121,0.5393939393939394,-0.15151515151515152,-0.4303030303030303,-0.3393939393939394,-0.3696969696969697,-0.41818181818181815,-0.26666666666666666,-0.4303030303030303,-0.1696969696969697,-0.4121212121212121,-0.07272727272727272,-0.3696969696969697,0.10303030303030303,-0.36363636363636365,0.21212121212121213,-0.3939393939393939,0.3212121212121212,-0.40606060606060607,0.42424242424242425,-0.38181818181818183,0.48484848484848486,-0.30303030303030304,0.012121212121212121,-0.2545454545454545,0.006060606060606061,-0.1696969696969697,0.006060606060606061,-0.08484848484848485,-0.006060606060606061,0.006060606060606061,-0.10303030303030303,0.08484848484848485,-0.05454545454545454,0.10303030303030303,0.0,0.12121212121212122,0.05454545454545454,0.10909090909090909,0.10909090909090909,0.09090909090909091,-0.3333333333333333,-0.24242424242424243,-0.2727272727272727,-0.2727272727272727,-0.2,-0.26666666666666666,-0.1393939393939394,-0.23030303030303031,-0.20606060606060606,-0.21818181818181817,-0.2727272727272727,-0.21818181818181817,0.17575757575757575,-0.21818181818181817,0.24242424242424243,-0.2545454545454545,0.3090909090909091,-0.24848484848484848,0.36363636363636365,-0.21818181818181817,0.3090909090909091,-0.2,0.24242424242424243,-0.20606060606060606,-0.19393939393939394,0.3090909090909091,-0.12727272727272726,0.2545454545454545,-0.06060606060606061,0.23030303030303031,-0.012121212121212121,0.24848484848484848,0.048484848484848485,0.23030303030303031,0.12121212121212122,0.26666666666666666,0.18787878787878787,0.3212121212121212,0.12121212121212122,0.3939393939393939,0.048484848484848485,0.4303030303030303,-0.012121212121212121,0.43636363636363634,-0.06666666666666667,0.4303030303030303,-0.13333333333333333,0.3878787878787879,-0.15757575757575756,0.3090909090909091,-0.06060606060606061,0.2787878787878788,-0.012121212121212121,0.28484848484848485,0.048484848484848485,0.28484848484848485,0.15151515151515152,0.3212121212121212,0.048484848484848485,0.3515151515151515,-0.012121212121212121,0.3575757575757576,-0.06666666666666667,0.3515151515151515,1
00q6.jpg,-0.39814814814814814,-0.1388888888888889,-0.38425925925925924,-0.023148148148148147,-0.36574074074074076,0.09259259259259259,-0.3425925925925926,0.19907407407407407,-0.3055555555555556,0.3055555555555556,-0.25,0.3888888888888889,-0.1712962962962963,0.44907407407407407,-0.08796296296296297,0.49537037037037035,0.013888888888888888,0.5,0.125,0.48148148148148145,0.2175925925925926,0.4351851851851852,0.2962962962962963,0.375,0.3611111111111111,0.2916666666666667,0.39814814814814814,0.19444444444444445,0.4212962962962963,0.08796296296296297,0.4351851851851852,-0.018518518518518517,0.4444444444444444,-0.12962962962962962,-0.35648148148148145,-0.24074074074074073,-0.3055555555555556,-0.3055555555555556,-0.2175925925925926,-0.32407407407407407,-0.13425925925925927,-0.3055555555555556,-0.05092592592592592,-0.27314814814814814,0.07407407407407407,-0.26851851851851855,0.1574074074074074,-0.2962962962962963,0.2361111111111111,-0.3101851851851852,0.3194444444444444,-0.30092592592592593,0.375,-0.24537037037037038,0.0,-0.19444444444444445,-0.004629629629629629,-0.12962962962962962,-0.004629629629629629,-0.06481481481481481,-0.004629629629629629,0.004629629629629629,-0.0787037037037037,0.0787037037037037,-0.037037037037037035,0.08333333333333333,0.004629629629629629,0.09259259259259259,0.05092592592592592,0.0787037037037037,0.09722222222222222,0.06944444444444445,-0.26851851851851855,-0.1712962962962963,-0.2222222222222222,-0.19907407407407407,-0.16203703703703703,-0.2037037037037037,-0.1111111111111111,-0.16666666666666666,-0.16666666666666666,-0.14814814814814814,-0.2222222222222222,-0.14814814814814814,0.13425925925925927,-0.1712962962962963,0.18055555555555555,-0.20833333333333334,0.24074074074074073,-0.2037037037037037,0.28703703703703703,-0.17592592592592593,0.24537037037037038,-0.1527777777777778,0.18518518518518517,-0.1574074074074074,-0.1388888888888889,0.25,-0.08333333333333333,0.2175925925925926,-0.027777777777777776,0.19907407407407407,0.013888888888888888,0.20833333333333334,0.05555555555555555,0.19444444444444445,0.1111111111111111,0.21296296296296297,0.16666666666666666,0.24074074074074073,0.1111111111111111,0.26851851851851855,0.06018518518518518,0.28703703703703703,0.013888888888888888,0.28703703703703703,-0.027777777777777776,0.28703703703703703,-0.08333333333333333,0.2777777777777778,-0.1111111111111111,0.24537037037037038,-0.027777777777777776,0.2361111111111111,0.013888888888888888,0.24074074074074073,0.06018518518518518,0.2361111111111111,0.1388888888888889,0.24074074074074073,0.06018518518518518,0.22685185185185186,0.013888888888888888,0.23148148148148148,-0.027777777777777776,0.23148148148148148,1
00q7.jpg,-0.5212765957446809,-0.2393617021276596,-0.5053191489361702,-0.09574468085106383,-0.4787234042553192,0.0425531914893617,-0.4308510638297872,0.17553191489361702,-0.3776595744680851,0.30319148936170215,-0.3191489361702128,0.425531914893617,-0.23404255319148937,0.5212765957446809,-0.1276595744680851,0.5797872340425532,-0.005319148936170213,0.5904255319148937,0.11170212765957446,0.5691489361702128,0.2074468085106383,0.4946808510638298,0.2872340425531915,0.39893617021276595,0.35106382978723405,0.28191489361702127,0.39893617021276595,0.1595744680851064,0.4308510638297872,0.03723404255319149,0.4574468085106383,-0.09042553191489362,0.4787234042553192,-0.23404255319148937,-0.46808510638297873,-0.30319148936170215,-0.39893617021276595,-0.39361702127659576,-0.28191489361702127,-0.4148936170212766,-0.16489361702127658,-0.39361702127659576,-0.05851063829787234,-0.34574468085106386,0.026595744680851064,-0.3404255319148936,0.13829787234042554,-0.3776595744680851,0.25,-0.39893617021276595,0.3670212765957447,-0.39361702127659576,0.44148936170212766,-0.31382978723404253,0.0,-0.26595744680851063,0.0,-0.1702127659574468,0.005319148936170213,-0.07446808510638298,0.005319148936170213,0.026595744680851064,-0.11170212765957446,0.0851063829787234,-0.05851063829787234,0.11170212765957446,0.0,0.1276595744680851,0.05851063829787234,0.11170212765957446,0.10638297872340426,0.0851063829787234,-0.3404255319148936,-0.23404255319148937,-0.2872340425531915,-0.25,-0.22340425531914893,-0.26063829787234044,-0.15425531914893617,-0.23404255319148937,-0.22340425531914893,-0.2127659574468085,-0.2872340425531915,-0.2074468085106383,0.14893617021276595,-0.23404255319148937,0.2127659574468085,-0.2553191489361702,0.2765957446808511,-0.2553191489361702,0.32978723404255317,-0.2393617021276596,0.2765957446808511,-0.2127659574468085,0.2127659574468085,-0.2127659574468085,-0.17553191489361702,0.2978723404255319,-0.12234042553191489,0.26063829787234044,-0.05319148936170213,0.2393617021276596,0.005319148936170213,0.2553191489361702,0.05319148936170213,0.2393617021276596,0.11170212765957446,0.26063829787234044,0.15425531914893617,0.2978723404255319,0.11170212765957446,0.35106382978723405,0.05319148936170213,0.3829787234042553,0.0,0.3882978723404255,-0.06382978723404255,0.3829787234042553,-0.12234042553191489,0.35638297872340424,-0.14361702127659576,0.2978723404255319,-0.05851063829787234,0.2765957446808511,0.005319148936170213,0.28191489361702127,0.05319148936170213,0.2765957446808511,0.12234042553191489,0.30319148936170215,0.05319148936170213,0.30851063829787234,0.0,0.31382978723404253,-0.05851063829787234,0.30851063829787234,1
01q0.jpg,-0.46825396825396826,-0.023809523809523808,-0.4523809523809524,0.10317460317460317,-0.4365079365079365,0.2222222222222222,-0.42063492063492064,0.3412698412698413,-0.3888888888888889,0.4603174603174603,-0.3333333333333333,0.5555555555555556,-0.23809523809523808,0.626984126984127,-0.11904761904761904,0.6666666666666666,0.023809523809523808,0.6666666666666666,0.16666666666666666,0.6587301587301587,0.29365079365079366,0.6190476190476191,0.3968253968253968,0.5476190476190477,0.4603174603174603,0.4444444444444444,0.5,0.3253968253968254,0.5079365079365079,0.20634920634920634,0.5158730158730159,0.07936507936507936,0.5238095238095238,-0.05555555555555555,-0.4126984126984127,-0.1984126984126984,-0.36507936507936506,-0.2777777777777778,-0.2698412698412698,-0.3253968253968254,-0.16666666666666666,-0.3412698412698413,-0.07142857142857142,-0.3253968253968254,0.05555555555555555,-0.3333333333333333,0.15873015873015872,-0.35714285714285715,0.2619047619047619,-0.3492063492063492,0.35714285714285715,-0.30952380952380953,0.42063492063492064,-0.2222222222222222,0.0,-0.2222222222222222,0.0,-0.15873015873015872,0.0,-0.09523809523809523,0.0,-0.023809523809523808,-0.07936507936507936,0.10317460317460317,-0.03968253968253968,0.10317460317460317,0.007936507936507936,0.10317460317460317,0.05555555555555555,0.10317460317460317,0.09523809523809523,0.09523809523809523,-0.30952380952380953,-0.14285714285714285,-0.25396825396825395,-0.18253968253968253,-0.18253968253968253,-0.19047619047619047,-0.11904761904761904,-0.15079365079365079,-0.18253968253968253,-0.1349206349206349,-0.25396825396825395,-0.12698412698412698,0.12698412698412698,-0.15873015873015872,0.19047619047619047,-0.20634920634920634,0.2619047619047619,-0.20634920634920634,0.31746031746031744,-0.16666666666666666,0.2619047619047619,-0.15079365079365079,0.19047619047619047,-0.15079365079365079,-0.19047619047619047,0.3253968253968254,-0.11904761904761904,0.2619047619047619,-0.047619047619047616,0.23015873015873015,0.007936507936507936,0.23809523809523808,0.06349206349206349,0.2222222222222222,0.1349206349206349,0.25396825396825395,0.2222222222222222,0.31746031746031744,0.14285714285714285,0.3333333333333333,0.07142857142857142,0.3412698412698413,0.015873015873015872,0.3412698412698413,-0.047619047619047616,0.3412698412698413,-0.1111111111111111,0.3412698412698413,-0.15873015873015872,0.31746031746031744,-0.047619047619047616,0.2777777777777778,0.007936507936507936,0.2857142857142857,0.06349206349206349,0.2777777777777778,0.18253968253968253,0.30952380952380953,0.06349206349206349,0.2777777777777778,0.007936507936507936,0.2857142857142857,-0.047619047619047616,0.2857142857142857,2
01q1.jpg,-0.4069767441860465,-0.18023255813953487,-0.3953488372093023,-0.06395348837209303,-0.38372093023255816,0.05232558139534884,-0.37209302325581395,0.1686046511627907,-0.3372093023255814,0.27325581395348836,-0.27906976744186046,0.37209302325581395,-0.19767441860465115,0.45348837209302323,-0.10465116279069768,0.5232558139534884,0.011627906976744186,0.5406976744186046,0.12790697674418605,0.5232558139534884,0.21511627906976744,0.45348837209302323,0.28488372093023256,0.36046511627906974,0.3372093023255814,0.26744186046511625,0.36627906976744184,0.1569767441860465,0.38372093023255816,0.046511627906976744,0.4011627906976744,-0.06976744186046512,0.4011627906976744,-0.19186046511627908,-0.36046511627906974,-0.23837209302325582,-0.3081395348837209,-0.29651162790697677,-0.23255813953488372,-0.31976744186046513,-0.14534883720930233,-0.31976744186046513,-0.05813953488372093,-0.29651162790697677,0.05813953488372093,-0.3023255813953488,0.14534883720930233,-0.32558139534883723,0.23255813953488372,-0.3313953488372093,0.313953488372093,-0.3081395348837209,0.36627906976744184,-0.25,0.0,-0.20930232558139536,0.0,-0.13372093023255813,0.0,-0.06395348837209303,0.0,0.011627906976744186,-0.0755813953488372,0.0755813953488372,-0.040697674418604654,0.0872093023255814,0.005813953488372093,0.09302325581395349,0.046511627906976744,0.0872093023255814,0.08139534883720931,0.0755813953488372,-0.26744186046511625,-0.18604651162790697,-0.22093023255813954,-0.21511627906976744,-0.1569767441860465,-0.22093023255813954,-0.11046511627906977,-0.18604651162790697,-0.16279069767441862,-0.1744186046511628,-0.22093023255813954,-0.1686046511627907,0.11627906976744186,-0.18604651162790697,0.1686046511627907,-0.22674418604651161,0.22674418604651161,-0.22674418604651161,0.27325581395348836,-0.19767441860465115,0.22674418604651161,-0.18023255813953487,0.1686046511627907,-0.18023255813953487,-0.16279069767441862,0.2441860465116279,-0.10465116279069768,0.22674418604651161,-0.040697674418604654,0.20930232558139536,0.005813953488372093,0.22093023255813954,0.046511627906976744,0.20930232558139536,0.11046511627906977,0.22674418604651161,0.1744186046511628,0.25,0.11046511627906977,0.29069767441860467,0.05232558139534884,0.313953488372093,0.005813953488372093,0.31976744186046513,-0.046511627906976744,0.313953488372093,-0.10465116279069768,0.29651162790697677,-0.13953488372093023,0.25,-0.040697674418604654,0.2558139534883721,0.005813953488372093,0.2616279069767442,0.046511627906976744,0.2558139534883721,0.14534883720930233,0.25,0.046511627906976744,0.2558139534883721,0.005813953488372093,0.2616279069767442,-0.046511627906976744,0.2558139534883721,2
01q2.jpg,-0.39849624060150374,-0.10526315789473684,-0.39849624060150374,0.007518796992481203,-0.37593984962406013,0.12030075187969924,-0.3609022556390977,0.23308270676691728,-0.3233082706766917,0.3383458646616541,-0.2631578947368421,0.42105263157894735,-0.18796992481203006,0.48120300751879697,-0.09774436090225563,0.5263157894736842,0.007518796992481203,0.5413533834586466,0.11278195488721804,0.5263157894736842,0.21052631578947367,0.48120300751879697,0.2857142857142857,0.40601503759398494,0.3458646616541353,0.3157894736842105,0.37593984962406013,0.21052631578947367,0.40601503759398494,0.10526315789473684,0.42857142857142855,0.0,0.43609022556390975,-0.12030075187969924,-0.3383458646616541,-0.21052631578947367,-0.3007518796992481,-0.2857142857142857,-0.21804511278195488,-0.3233082706766917,-0.13533834586466165,-0.3233082706766917,-0.05263157894736842,-0.3007518796992481,0.06766917293233082,-0.2857142857142857,0.14285714285714285,-0.3157894736842105,0.23308270676691728,-0.3233082706766917,0.3157894736842105,-0.2932330827067669,0.37593984962406013,-0.21804511278195488,0.007518796992481203,-0.20300751879699247,0.007518796992481203,-0.13533834586466165,0.007518796992481203,-0.07518796992481203,0.0,-0.015037593984962405,-0.07518796992481203,0.08270676691729323,-0.03759398496240601,0.09022556390977443,0.007518796992481203,0.09774436090225563,0.045112781954887216,0.09022556390977443,0.09022556390977443,0.07518796992481203,-0.24812030075187969,-0.16541353383458646,-0.20300751879699247,-0.21052631578947367,-0.14285714285714285,-0.21052631578947367,-0.09774436090225563,-0.15789473684210525,-0.14285714285714285,-0.15037593984962405,-0.20300751879699247,-0.15037593984962405,0.12781954887218044,-0.15789473684210525,0.18045112781954886,-0.20300751879699247,0.24060150375939848,-0.21052631578947367,0.2857142857142857,-0.16541353383458646,0.24060150375939848,-0.14285714285714285,0.18045112781954886,-0.15037593984962405,-0.15037593984962405,0.2556390977443609,-0.09022556390977443,0.21052631578947367,-0.03007518796992481,0.18045112781954886,0.007518796992481203,0.19548872180451127,0.045112781954887216,0.18045112781954886,0.10526315789473684,0.21804511278195488,0.16541353383458646,0.2631578947368421,0.10526315789473684,0.3007518796992481,0.045112781954887216,0.3157894736842105,0.007518796992481203,0.3157894736842105,-0.03759398496240601,0.3082706766917293,-0.09022556390977443,0.3007518796992481,-0.12030075187969924,0.2556390977443609,-0.03007518796992481,0.23308270676691728,0.007518796992481203,0.23308270676691728,0.045112781954887216,0.23308270676691728,0.13533834586466165,0.2631578947368421,0.045112781954887216,0.24812030075187969,0.007518796992481203,0.24812030075187969,-0.03759398496240601,0.24812030075187969,2
02q0.jpg,-0.45982142857142855,-0.10267857142857142,-0.45535714285714285,0.022321428571428572,-0.4419642857142857,0.14285714285714285,-0.42410714285714285,0.26339285714285715,-0.39285714285714285,0.3794642857142857,-0.33482142857142855,0.47767857142857145,-0.25,0.5535714285714286,-0.15178571428571427,0.5982142857142857,-0.022321428571428572,0.6116071428571429,0.10267857142857142,0.6026785714285714,0.21428571428571427,0.5625,0.3080357142857143,0.49107142857142855,0.36607142857142855,0.38839285714285715,0.4017857142857143,0.27232142857142855,0.42857142857142855,0.15625,0.44642857142857145,0.044642857142857144,0.45535714285714285,-0.07589285714285714,-0.36160714285714285,-0.26339285714285715,-0.30357142857142855,-0.3169642857142857,-0.22321428571428573,-0.34375,-0.13839285714285715,-0.33482142857142855,-0.0625,-0.29910714285714285,0.08482142857142858,-0.29910714285714285,0.16517857142857142,-0.32142857142857145,0.25,-0.32589285714285715,0.32142857142857145,-0.29464285714285715,0.3705357142857143,-0.23214285714285715,0.013392857142857142,-0.20089285714285715,0.008928571428571428,-0.13839285714285715,0.008928571428571428,-0.08035714285714286,0.004464285714285714,-0.013392857142857142,-0.08928571428571429,0.07142857142857142,-0.049107142857142856,0.08928571428571429,-0.004464285714285714,0.10267857142857142,0.04017857142857143,0.09375,0.07589285714285714,0.08482142857142858,-0.27232142857142855,-0.15178571428571427,-0.21875,-0.17410714285714285,-0.16517857142857142,-0.17410714285714285,-0.10714285714285714,-0.14732142857142858,-0.16517857142857142,-0.13392857142857142,-0.22321428571428573,-0.12946428571428573,0.12053571428571429,-0.13839285714285715,0.17857142857142858,-0.16517857142857142,0.23660714285714285,-0.15625,0.2857142857142857,-0.12946428571428573,0.23660714285714285,-0.11607142857142858,0.17857142857142858,-0.12053571428571429,-0.21428571428571427,0.26785714285714285,-0.13392857142857142,0.20982142857142858,-0.05803571428571429,0.18303571428571427,-0.008928571428571428,0.19196428571428573,0.04017857142857143,0.18303571428571427,0.11160714285714286,0.21428571428571427,0.18303571428571427,0.2767857142857143,0.11160714285714286,0.34375,0.04017857142857143,0.36160714285714285,-0.013392857142857142,0.36607142857142855,-0.0625,0.36160714285714285,-0.13839285714285715,0.33482142857142855,-0.18303571428571427,0.26785714285714285,-0.05803571428571429,0.23214285714285715,-0.013392857142857142,0.23660714285714285,0.04017857142857143,0.23214285714285715,0.15178571428571427,0.28125,0.04017857142857143,0.3080357142857143,-0.013392857142857142,0.3080357142857143,-0.0625,0.30357142857142855,3
02q1.jpg,-0.496551724137931,-0.21379310344827587,-0.4896551724137931,-0.07586206896551724,-0.4689655172413793,0.05517241379310345,-0.43448275862068964,0.18620689655172415,-0.4,0.3103448275862069,-0.33793103448275863,0.43448275862068964,-0.2482758620689655,0.5379310344827586,-0.1310344827586207,0.6068965517241379,0.0,0.6344827586206897,0.13793103448275862,0.6137931034482759,0.25517241379310346,0.5448275862068965,0.35172413793103446,0.4482758620689655,0.4068965517241379,0.3310344827586207,0.4413793103448276,0.20689655172413793,0.4689655172413793,0.08275862068965517,0.496551724137931,-0.04827586206896552,0.503448275862069,-0.18620689655172415,-0.3793103448275862,-0.35172413793103446,-0.31724137931034485,-0.4,-0.23448275862068965,-0.4068965517241379,-0.15172413793103448,-0.38620689655172413,-0.06896551724137931,-0.35172413793103446,0.10344827586206896,-0.36551724137931035,0.18620689655172415,-0.3931034482758621,0.2689655172413793,-0.4,0.35172413793103446,-0.3724137931034483,0.41379310344827586,-0.31724137931034485,0.006896551724137931,-0.23448275862068965,0.006896551724137931,-0.15862068965517243,0.0,-0.07586206896551724,0.0,0.006896551724137931,-0.08275862068965517,0.07586206896551724,-0.04827586206896552,0.09655172413793103,0.0,0.1103448275862069,0.04827586206896552,0.09655172413793103,0.0896551724137931,0.08275862068965517,-0.2896551724137931,-0.21379310344827587,-0.23448275862068965,-0.2482758620689655,-0.16551724137931034,-0.2413793103448276,-0.1103448275862069,-0.2,-0.1724137931034483,-0.18620689655172415,-0.23448275862068965,-0.18620689655172415,0.1310344827586207,-0.19310344827586207,0.19310344827586207,-0.23448275862068965,0.25517241379310346,-0.23448275862068965,0.3103448275862069,-0.2,0.2620689655172414,-0.1724137931034483,0.19310344827586207,-0.1793103448275862,-0.1793103448275862,0.2896551724137931,-0.11724137931034483,0.23448275862068965,-0.04827586206896552,0.21379310344827587,0.0,0.2206896551724138,0.04827586206896552,0.21379310344827587,0.11724137931034483,0.2413793103448276,0.18620689655172415,0.296551724137931,0.12413793103448276,0.36551724137931035,0.05517241379310345,0.4,0.0,0.4,-0.04827586206896552,0.3931034482758621,-0.11724137931034483,0.36551724137931035,-0.14482758620689656,0.2896551724137931,-0.04827586206896552,0.2689655172413793,0.0,0.27586206896551724,0.04827586206896552,0.27586206896551724,0.15172413793103448,0.296551724137931,0.04827586206896552,0.32413793103448274,0.0,0.32413793103448274,-0.04827586206896552,0.32413793103448274,3
02q2.jpg,-0.31382978723404253,-0.1595744680851064,-0.30319148936170215,-0.06382978723404255,-0.2925531914893617,0.02127659574468085,-0.2712765957446808,0.10638297872340426,-0.2393617021276596,0.18617021276595744,-0.19680851063829788,0.26063829787234044,-0.13829787234042554,0.324468085106383,-0.06914893617021277,0.3617021276595745,0.005319148936170213,0.3670212765957447,0.0851063829787234,0.35638297872340424,0.1595744680851064,0.3191489361702128,0.22340425531914893,0.2553191489361702,0.26595744680851063,0.18617021276595744,0.2925531914893617,0.10106382978723404,0.30319148936170215,0.015957446808510637,0.324468085106383,-0.06914893617021277,0.3351063829787234,-0.1595744680851064,-0.2553191489361702,-0.22872340425531915,-0.2074468085106383,-0.2553191489361702,-0.15425531914893617,-0.26063829787234044,-0.09574468085106383,-0.24468085106382978,-0.0425531914893617,-0.21808510638297873,0.05851063829787234,-0.22872340425531915,0.11702127659574468,-0.25,0.1702127659574468,-0.26063829787234044,0.22872340425531915,-0.2553191489361702,0.2712765957446808,-0.22340425531914893,0.005319148936170213,-0.16489361702127658,0.0,-0.10106382978723404,0.0,-0.0425531914893617,-0.005319148936170213,0.02127659574468085,-0.05851063829787234,0.05319148936170213,-0.031914893617021274,0.06382978723404255,0.0,0.06914893617021277,0.031914893617021274,0.06382978723404255,0.06382978723404255,0.047872340425531915,-0.19148936170212766,-0.15425531914893617,-0.1595744680851064,-0.1702127659574468,-0.11170212765957446,-0.1702127659574468,-0.06914893617021277,-0.14361702127659576,-0.11702127659574468,-0.13297872340425532,-0.1595744680851064,-0.13297872340425532,0.09042553191489362,-0.14361702127659576,0.1276595744680851,-0.1702127659574468,0.1702127659574468,-0.17553191489361702,0.2074468085106383,-0.15425531914893617,0.17553191489361702,-0.13297872340425532,0.1276595744680851,-0.13297872340425532,-0.11170212765957446,0.16489361702127658,-0.07446808510638298,0.14361702127659576,-0.02127659574468085,0.1276595744680851,0.010638297872340425,0.13297872340425532,0.03723404255319149,0.1276595744680851,0.0851063829787234,0.13829787234042554,0.13297872340425532,0.1595744680851064,0.09042553191489362,0.2127659574468085,0.0425531914893617,0.23404255319148937,0.010638297872340425,0.2393617021276596,-0.02127659574468085,0.2393617021276596,-0.06914893617021277,0.21808510638297873,-0.09574468085106383,0.1702127659574468,-0.026595744680851064,0.1595744680851064,0.005319148936170213,0.1595744680851064,0.03723404255319149,0.15425531914893617,0.11170212765957446,0.1595744680851064,0.03723404255319149,0.19148936170212766,0.010638297872340425,0.19680851063829788,-0.02127659574468085,0.19680851063829788,3
03q0.jpg,-0.5055555555555555,0.07777777777777778,-0.4888888888888889,0.18888888888888888,-0.4666666666666667,0.29444444444444445,-0.43333333333333335,0.4,-0.3888888888888889,0.5,-0.32222222222222224,0.5777777777777777,-0.21666666666666667,0.6388888888888888,-0.08888888888888889,0.6722222222222223,0.06111111111111111,0.6722222222222223,0.20555555555555555,0.65,0.32222222222222224,0.6,0.4111111111111111,0.5277777777777778,0.46111111111111114,0.42777777777777776,0.48333333333333334,0.31666666666666665,0.49444444444444446,0.20555555555555555,0.49444444444444446,0.09444444444444444,0.4888888888888889,-0.011111111111111112,-0.42777777777777776,-0.17222222222222222,-0.38333333333333336,-0.25,-0.3055555555555556,-0.3,-0.2111111111111111,-0.31666666666666665,-0.12777777777777777,-0.29444444444444445,0.06111111111111111,-0.31666666666666665,0.15555555555555556,-0.35555555555555557,0.25,-0.35,0.3333333333333333,-0.3111111111111111,0.39444444444444443,-0.2388888888888889,-0.011111111111111112,-0.18888888888888888,-0.005555555555555556,-0.1388888888888889,0.0,-0.09444444444444444,0.0,-0.044444444444444446,-0.07777777777777778,0.1,-0.03333333333333333,0.09444444444444444,0.011111111111111112,0.09444444444444444,0.05,0.08888888888888889,0.09444444444444444,0.08888888888888889,-0.3333333333333333,-0.07777777777777778,-0.2833333333333333,-0.11666666666666667,-0.21666666666666667,-0.13333333333333333,-0.14444444444444443,-0.1111111111111111,-0.20555555555555555,-0.08333333333333333,-0.2722222222222222,-0.07222222222222222,0.12222222222222222,-0.13333333333333333,0.19444444444444445,-0.16111111111111112,0.25555555555555554,-0.16111111111111112,0.3111111111111111,-0.12777777777777777,0.25555555555555554,-0.11666666666666667,0.19444444444444445,-0.11666666666666667,-0.18888888888888888,0.35,-0.11666666666666667,0.23333333333333334,-0.03333333333333333,0.17222222222222222,0.016666666666666666,0.17777777777777778,0.07222222222222222,0.16666666666666666,0.16111111111111112,0.2111111111111111,0.2388888888888889,0.31666666666666665,0.17777777777777778,0.38333333333333336,0.09444444444444444,0.40555555555555556,0.03888888888888889,0.4111111111111111,-0.016666666666666666,0.4166666666666667,-0.10555555555555556,0.4,-0.15,0.3388888888888889,-0.027777777777777776,0.24444444444444444,0.022222222222222223,0.2388888888888889,0.07777777777777778,0.2388888888888889,0.2,0.3111111111111111,0.08333333333333333,0.3277777777777778,0.027777777777777776,0.3277777777777778,-0.022222222222222223,0.3333333333333333,4
03q1.jpg,-0.44680851063829785,-0.09219858156028368,-0.4326241134751773,0.014184397163120567,-0.41134751773049644,0.12056737588652482,-0.3900709219858156,0.2198581560283688,-0.3475177304964539,0.3191489361702128,-0.28368794326241137,0.3971631205673759,-0.19148936170212766,0.46099290780141844,-0.09929078014184398,0.5106382978723404,0.014184397163120567,0.524822695035461,0.1276595744680851,0.5035460992907801,0.2127659574468085,0.4397163120567376,0.2907801418439716,0.36879432624113473,0.3475177304964539,0.28368794326241137,0.375886524822695,0.18439716312056736,0.3900709219858156,0.0851063829787234,0.3971631205673759,-0.014184397163120567,0.40425531914893614,-0.1276595744680851,-0.375886524822695,-0.23404255319148937,-0.3262411347517731,-0.2907801418439716,-0.2553191489361702,-0.3191489361702128,-0.1773049645390071,-0.3191489361702128,-0.10638297872340426,-0.2978723404255319,0.07092198581560284,-0.2978723404255319,0.14184397163120568,-0.3333333333333333,0.2198581560283688,-0.3404255319148936,0.2907801418439716,-0.3120567375886525,0.3404255319148936,-0.2624113475177305,-0.0070921985815602835,-0.19148936170212766,-0.0070921985815602835,-0.1276595744680851,0.0,-0.06382978723404255,0.0070921985815602835,0.0070921985815602835,-0.07801418439716312,0.07801418439716312,-0.03546099290780142,0.0851063829787234,0.0070921985815602835,0.09219858156028368,0.0425531914893617,0.0851063829787234,0.0851063829787234,0.07801418439716312,-0.2978723404255319,-0.14893617021276595,-0.24822695035460993,-0.18439716312056736,-0.18439716312056736,-0.18439716312056736,-0.12056737588652482,-0.14893617021276595,-0.18439716312056736,-0.1347517730496454,-0.24822695035460993,-0.1347517730496454,0.09929078014184398,-0.15602836879432624,0.16312056737588654,-0.19858156028368795,0.2198581560283688,-0.19858156028368795,0.2695035460992908,-0.16312056737588654,0.22695035460992907,-0.14184397163120568,0.16312056737588654,-0.14184397163120568,-0.19858156028368795,0.22695035460992907,-0.11347517730496454,0.1773049645390071,-0.0425531914893617,0.15602836879432624,0.0070921985815602835,0.16312056737588654,0.04964539007092199,0.15602836879432624,0.12056737588652482,0.1702127659574468,0.19148936170212766,0.2127659574468085,0.1276595744680851,0.28368794326241137,0.05673758865248227,0.3120567375886525,0.014184397163120567,0.3191489361702128,-0.03546099290780142,0.3120567375886525,-0.11347517730496454,0.2907801418439716,-0.1702127659574468,0.22695035460992907,-0.0425531914893617,0.19148936170212766,0.0070921985815602835,0.19148936170212766,0.04964539007092199,0.19148936170212766,0.1702127659574468,0.2127659574468085,0.05673758865248227,0.2553191489361702,0.0070921985815602835,0.2624113475177305,-0.03546099290780142,0.2624113475177305,4
03q2.jpg,-0.55,-0.14166666666666666,-0.5333333333333333,-0.008333333333333333,-0.5083333333333333,0.11666666666666667,-0.475,0.23333333333333334,-0.425,0.35,-0.35,0.44166666666666665,-0.24166666666666667,0.5166666666666667,-0.125,0.5833333333333334,0.008333333333333333,0.6,0.13333333333333333,0.575,0.24166666666666667,0.5083333333333333,0.3333333333333333,0.425,0.38333333333333336,0.325,0.4166666666666667,0.20833333333333334,0.425,0.08333333333333333,0.44166666666666665,-0.041666666666666664,0.45,-0.16666666666666666,-0.45,-0.31666666666666665,-0.38333333333333336,-0.375,-0.2916666666666667,-0.4,-0.2,-0.4,-0.11666666666666667,-0.35833333333333334,0.08333333333333333,-0.35833333333333334,0.16666666666666666,-0.4,0.25833333333333336,-0.4083333333333333,0.3416666666666667,-0.38333333333333336,0.4,-0.31666666666666665,-0.008333333333333333,-0.23333333333333334,-0.008333333333333333,-0.15833333333333333,0.0,-0.08333333333333333,0.008333333333333333,0.0,-0.09166666666666666,0.09166666666666666,-0.041666666666666664,0.1,0.008333333333333333,0.10833333333333334,0.05,0.1,0.09166666666666666,0.09166666666666666,-0.35833333333333334,-0.2,-0.3,-0.25,-0.225,-0.25,-0.15833333333333333,-0.19166666666666668,-0.225,-0.175,-0.3,-0.175,0.11666666666666667,-0.19166666666666668,0.18333333333333332,-0.24166666666666667,0.25833333333333336,-0.24166666666666667,0.31666666666666665,-0.2,0.26666666666666666,-0.175,0.19166666666666668,-0.175,-0.21666666666666667,0.26666666666666666,-0.13333333333333333,0.225,-0.05,0.19166666666666668,0.0,0.20833333333333334,0.05,0.19166666666666668,0.125,0.21666666666666667,0.2,0.26666666666666666,0.125,0.31666666666666665,0.058333333333333334,0.3416666666666667,0.008333333333333333,0.35,-0.05,0.3416666666666667,-0.125,0.325,-0.18333333333333332,0.26666666666666666,-0.05,0.25833333333333336,0.0,0.26666666666666666,0.05,0.25833333333333336,0.16666666666666666,0.26666666666666666,0.05,0.26666666666666666,0.0,0.275,-0.05,0.26666666666666666,4
03q3.jpg,-0.43137254901960786,-0.06535947712418301,-0.4117647058823529,0.026143790849673203,-0.3790849673202614,0.1111111111111111,-0.35294117647058826,0.20261437908496732,-0.3137254901960784,0.2875816993464052,-0.24836601307189543,0.35294117647058826,-0.16339869281045752,0.4117647058823529,-0.06535947712418301,0.45098039215686275,0.0392156862745098,0.45098039215686275,0.13725490196078433,0.43137254901960786,0.21568627450980393,0.3790849673202614,0.27450980392156865,0.3137254901960784,0.3137254901960784,0.22875816993464052,0.32679738562091504,0.13725490196078433,0.3333333333333333,0.0457516339869281,0.3333333333333333,-0.0392156862745098,0.3333333333333333,-0.13071895424836602,-0.35947712418300654,-0.20915032679738563,-0.3137254901960784,-0.2549019607843137,-0.24836601307189543,-0.28104575163398693,-0.17647058823529413,-0.28104575163398693,-0.1111111111111111,-0.26143790849673204,0.0457516339869281,-0.28104575163398693,0.10457516339869281,-0.30718954248366015,0.16993464052287582,-0.32679738562091504,0.23529411764705882,-0.3137254901960784,0.28104575163398693,-0.26143790849673204,-0.0196078431372549,-0.17647058823529413,-0.006535947712418301,-0.11764705882352941,0.0,-0.058823529411764705,0.013071895424836602,0.0,-0.06535947712418301,0.0784313725490196,-0.026143790849673203,0.0784313725490196,0.013071895424836602,0.0784313725490196,0.0392156862745098,0.0718954248366013,0.0718954248366013,0.0718954248366013,-0.2875816993464052,-0.12418300653594772,-0.24836601307189543,-0.16339869281045752,-0.1830065359477124,-0.16339869281045752,-0.13071895424836602,-0.13071895424836602,-0.1830065359477124,-0.1111111111111111,-0.24183006535947713,-0.10457516339869281,0.0784313725490196,-0.1503267973856209,0.12418300653594772,-0.19607843137254902,0.1830065359477124,-0.19607843137254902,0.22875816993464052,-0.16993464052287582,0.1895424836601307,-0.1437908496732026,0.13725490196078433,-0.13725490196078433,-0.1503267973856209,0.2222222222222222,-0.08496732026143791,0.1830065359477124,-0.0196078431372549,0.1568627450980392,0.0196078431372549,0.16339869281045752,0.058823529411764705,0.1503267973856209,0.11764705882352941,0.16993464052287582,0.17647058823529413,0.1895424836601307,0.12418300653594772,0.23529411764705882,0.06535947712418301,0.26143790849673204,0.026143790849673203,0.2679738562091503,-0.013071895424836602,0.2679738562091503,-0.0784313725490196,0.2549019607843137,-0.13071895424836602,0.2222222222222222,-0.0196078431372549,0.20261437908496732,0.0196078431372549,0.20261437908496732,0.058823529411764705,0.19607843137254902,0.1503267973856209,0.19607843137254902,0.06535947712418301,0.20915032679738563,0.026143790849673203,0.20915032679738563,-0.013071895424836602,0.21568627450980393,4
04q0.jpg,-0.5070422535211268,-0.1056338028169014,-0.49295774647887325,0.028169014084507043,-0.4788732394366197,0.14788732394366197,-0.44366197183098594,0.2605633802816901,-0.39436619718309857,0.38028169014084506,-0.31690140845070425,0.47183098591549294,-0.21830985915492956,0.5352112676056338,-0.09859154929577464,0.5845070422535211,0.028169014084507043,0.5985915492957746,0.14084507042253522,0.5774647887323944,0.2323943661971831,0.5140845070422535,0.31690140845070425,0.43661971830985913,0.36619718309859156,0.33098591549295775,0.39436619718309857,0.2112676056338028,0.4084507042253521,0.09859154929577464,0.4154929577464789,-0.02112676056338028,0.4154929577464789,-0.14084507042253522,-0.4225352112676056,-0.2605633802816901,-0.3591549295774648,-0.323943661971831,-0.2676056338028169,-0.352112676056338,-0.176056338028169,-0.352112676056338,-0.09154929577464789,-0.31690140845070425,0.04929577464788732,-0.323943661971831,0.1267605633802817,-0.3591549295774648,0.2112676056338028,-0.36619718309859156,0.29577464788732394,-0.352112676056338,0.352112676056338,-0.2887323943661972,-0.014084507042253521,-0.22535211267605634,-0.007042253521126761,-0.14788732394366197,0.0,-0.07042253521126761,0.007042253521126761,0.014084507042253521,-0.09859154929577464,0.08450704225352113,-0.04929577464788732,0.09859154929577464,0.007042253521126761,0.1056338028169014,0.056338028169014086,0.09859154929577464,0.09859154929577464,0.08450704225352113,-0.323943661971831,-0.1619718309859155,-0.2746478873239437,-0.19718309859154928,-0.2112676056338028,-0.19718309859154928,-0.15492957746478872,-0.16901408450704225,-0.2112676056338028,-0.15492957746478872,-0.2746478873239437,-0.14788732394366197,0.1056338028169014,-0.176056338028169,0.1619718309859155,-0.2112676056338028,0.22535211267605634,-0.21830985915492956,0.2746478873239437,-0.18309859154929578,0.2323943661971831,-0.1619718309859155,0.16901408450704225,-0.1619718309859155,-0.16901408450704225,0.2746478873239437,-0.1056338028169014,0.21830985915492956,-0.04225352112676056,0.19718309859154928,0.007042253521126761,0.2112676056338028,0.04929577464788732,0.19718309859154928,0.11267605633802817,0.22535211267605634,0.16901408450704225,0.28169014084507044,0.11267605633802817,0.3380281690140845,0.04929577464788732,0.3591549295774648,0.007042253521126761,0.36619718309859156,-0.04929577464788732,0.3591549295774648,-0.1056338028169014,0.33098591549295775,-0.13380281690140844,0.2746478873239437,-0.04225352112676056,0.2323943661971831,0.007042253521126761,0.23943661971830985,0.04929577464788732,0.23943661971830985,0.14084507042253522,0.2746478873239437,0.04929577464788732,0.3028169014084507,0.0,0.30985915492957744,-0.04929577464788732,0.3028169014084507,5
04q1.jpg,-0.4166666666666667,-0.23333333333333334,-0.4,-0.1111111111111111,-0.37777777777777777,0.005555555555555556,-0.35,0.11666666666666667,-0.3111111111111111,0.23333333333333334,-0.25,0.3333333333333333,-0.17222222222222222,0.4222222222222222,-0.07777777777777778,0.49444444444444446,0.027777777777777776,0.5111111111111111,0.13333333333333333,0.4888888888888889,0.23333333333333334,0.4166666666666667,0.32222222222222224,0.3277777777777778,0.38333333333333336,0.21666666666666667,0.4222222222222222,0.09444444444444444,0.4388888888888889,-0.03333333333333333,0.4444444444444444,-0.16666666666666666,0.45,-0.3,-0.39444444444444443,-0.2722222222222222,-0.35,-0.3277777777777778,-0.2722222222222222,-0.35,-0.18888888888888888,-0.35,-0.1111111111111111,-0.3277777777777778,0.08888888888888889,-0.3388888888888889,0.16666666666666666,-0.37222222222222223,0.24444444444444444,-0.39444444444444443,0.32222222222222224,-0.3888888888888889,0.37777777777777777,-0.3388888888888889,0.0,-0.2388888888888889,0.0,-0.14444444444444443,0.005555555555555556,-0.05,0.005555555555555556,0.044444444444444446,-0.08888888888888889,0.06666666666666667,-0.044444444444444446,0.08888888888888889,0.005555555555555556,0.10555555555555556,0.05555555555555555,0.08888888888888889,0.1,0.07222222222222222,-0.3,-0.2222222222222222,-0.25555555555555554,-0.25555555555555554,-0.19444444444444445,-0.2611111111111111,-0.1388888888888889,-0.2222222222222222,-0.19444444444444445,-0.20555555555555555,-0.25555555555555554,-0.2,0.11666666666666667,-0.23333333333333334,0.16666666666666666,-0.2833333333333333,0.23333333333333334,-0.28888888888888886,0.28888888888888886,-0.2611111111111111,0.24444444444444444,-0.22777777777777777,0.17777777777777778,-0.2222222222222222,-0.13333333333333333,0.23333333333333334,-0.1,0.2,-0.05555555555555555,0.18888888888888888,-0.005555555555555556,0.20555555555555555,0.03888888888888889,0.19444444444444445,0.1,0.2111111111111111,0.16111111111111112,0.2388888888888889,0.10555555555555556,0.32222222222222224,0.044444444444444446,0.35555555555555557,-0.005555555555555556,0.35555555555555557,-0.05555555555555555,0.35,-0.1,0.3055555555555556,-0.10555555555555556,0.23333333333333334,-0.05,0.2111111111111111,-0.005555555555555556,0.2222222222222222,0.044444444444444446,0.21666666666666667,0.12777777777777777,0.24444444444444444,0.044444444444444446,0.28888888888888886,-0.005555555555555556,0.29444444444444445,-0.05555555555555555,0.2833333333333333,5
04q2.jpg,-0.5853658536585366,-0.17886178861788618,-0.5691056910569106,-0.032520325203252036,-0.5447154471544715,0.0975609756097561,-0.5121951219512195,0.22764227642276422,-0.4634146341463415,0.34959349593495936,-0.37398373983739835,0.44715447154471544,-0.2601626016260163,0.5365853658536586,-0.14634146341463414,0.6016260162601627,-0.016260162601626018,0.6260162601626016,0.10569105691056911,0.6016260162601627,0.2032520325203252,0.5284552845528455,0.2845528455284553,0.43089430894308944,0.34959349593495936,0.3089430894308943,0.3821138211382114,0.18699186991869918,0.3983739837398374,0.056910569105691054,0.4146341463414634,-0.07317073170731707,0.4146341463414634,-0.2032520325203252,-0.4878048780487805,-0.2764227642276423,-0.43089430894308944,-0.36585365853658536,-0.3252032520325203,-0.4065040650406504,-0.21138211382113822,-0.3983739837398374,-0.10569105691056911,-0.36585365853658536,0.07317073170731707,-0.36585365853658536,0.16260162601626016,-0.3983739837398374,0.2601626016260163,-0.4065040650406504,0.34959349593495936,-0.3821138211382114,0.3902439024390244,-0.3008130081300813,-0.016260162601626018,-0.25203252032520324,-0.008130081300813009,-0.16260162601626016,0.008130081300813009,-0.07317073170731707,0.016260162601626018,0.016260162601626018,-0.0975609756097561,0.08943089430894309,-0.04878048780487805,0.10569105691056911,0.008130081300813009,0.11382113821138211,0.04878048780487805,0.10569105691056911,0.08943089430894309,0.08943089430894309,-0.37398373983739835,-0.21138211382113822,-0.3089430894308943,-0.25203252032520324,-0.23577235772357724,-0.2601626016260163,-0.16260162601626016,-0.2032520325203252,-0.23577235772357724,-0.18699186991869918,-0.3089430894308943,-0.18699186991869918,0.08943089430894309,-0.21138211382113822,0.16260162601626016,-0.2601626016260163,0.23577235772357724,-0.2682926829268293,0.2926829268292683,-0.22764227642276422,0.24390243902439024,-0.1951219512195122,0.16260162601626016,-0.1951219512195122,-0.18699186991869918,0.2926829268292683,-0.12195121951219512,0.24390243902439024,-0.056910569105691054,0.21951219512195122,0.0,0.23577235772357724,0.04065040650406504,0.21951219512195122,0.0975609756097561,0.24390243902439024,0.13821138211382114,0.3008130081300813,0.0975609756097561,0.37398373983739835,0.04065040650406504,0.4065040650406504,-0.008130081300813009,0.4065040650406504,-0.06504065040650407,0.3983739837398374,-0.13008130081300814,0.36585365853658536,-0.14634146341463414,0.2926829268292683,-0.056910569105691054,0.25203252032520324,-0.008130081300813009,0.2601626016260163,0.032520325203252036,0.2601626016260163,0.10569105691056911,0.3008130081300813,0.032520325203252036,0.3333333333333333,-0.008130081300813009,0.34146341463414637,-0.056910569105691054,0.3333333333333333,5
05q0.jpg,-0.40119760479041916,-0.23952095808383234,-0.38922155688622756,-0.11976047904191617,-0.3652694610778443,-0.005988023952095809,-0.33532934131736525,0.10179640718562874,-0.2934131736526946,0.20958083832335328,-0.2275449101796407,0.31137724550898205,-0.1437125748502994,0.38922155688622756,-0.059880239520958084,0.4491017964071856,0.041916167664670656,0.47305389221556887,0.1377245508982036,0.4491017964071856,0.2275449101796407,0.38922155688622756,0.30538922155688625,0.30538922155688625,0.3652694610778443,0.20958083832335328,0.40718562874251496,0.10179640718562874,0.437125748502994,-0.011976047904191617,0.46107784431137727,-0.12574850299401197,0.47305389221556887,-0.25149700598802394,-0.3592814371257485,-0.2754491017964072,-0.30538922155688625,-0.33532934131736525,-0.2275449101796407,-0.3532934131736527,-0.1377245508982036,-0.3473053892215569,-0.05389221556886228,-0.31736526946107785,0.0718562874251497,-0.32335329341317365,0.16167664670658682,-0.3413173652694611,0.25149700598802394,-0.3473053892215569,0.3413173652694611,-0.32335329341317365,0.40119760479041916,-0.25748502994011974,0.005988023952095809,-0.2215568862275449,0.0,-0.1377245508982036,-0.005988023952095809,-0.05389221556886228,-0.005988023952095809,0.029940119760479042,-0.07784431137724551,0.0658682634730539,-0.041916167664670656,0.08383233532934131,0.0,0.09580838323353294,0.04790419161676647,0.07784431137724551,0.09580838323353294,0.0658682634730539,-0.25149700598802394,-0.20359281437125748,-0.20359281437125748,-0.2215568862275449,-0.15568862275449102,-0.2215568862275449,-0.10179640718562874,-0.20359281437125748,-0.15568862275449102,-0.19760479041916168,-0.20359281437125748,-0.19161676646706588,0.1377245508982036,-0.20359281437125748,0.19161676646706588,-0.2215568862275449,0.24550898203592814,-0.2155688622754491,0.2994011976047904,-0.19760479041916168,0.24550898203592814,-0.18562874251497005,0.19161676646706588,-0.19161676646706588,-0.10778443113772455,0.18562874251497005,-0.0658682634730539,0.16167664670658682,-0.023952095808383235,0.1437125748502994,0.017964071856287425,0.15568862275449102,0.059880239520958084,0.1437125748502994,0.11377245508982035,0.16167664670658682,0.17964071856287425,0.18562874251497005,0.12574850299401197,0.25149700598802394,0.0658682634730539,0.2754491017964072,0.023952095808383235,0.2754491017964072,-0.017964071856287425,0.2694610778443114,-0.059880239520958084,0.24550898203592814,-0.08383233532934131,0.18562874251497005,-0.017964071856287425,0.17964071856287425,0.017964071856287425,0.18562874251497005,0.059880239520958084,0.17964071856287425,0.1497005988023952,0.19161676646706588,0.0658682634730539,0.2275449101796407,0.023952095808383235,0.2275449101796407,-0.017964071856287425,0.2215568862275449,6
05q1.jpg,-0.422360248447205,-0.22981366459627328,-0.40993788819875776,-0.11801242236024845,-0.391304347826087,-0.012422360248447204,-0.36645962732919257,0.09316770186335403,-0.32298136645962733,0.18633540372670807,-0.2546583850931677,0.2670807453416149,-0.16770186335403728,0.32298136645962733,-0.08074534161490683,0.37267080745341613,0.018633540372670808,0.391304347826087,0.11180124223602485,0.36645962732919257,0.19875776397515527,0.3167701863354037,0.2795031055900621,0.2546583850931677,0.3416149068322981,0.17391304347826086,0.38509316770186336,0.08695652173913043,0.4161490683229814,-0.006211180124223602,0.42857142857142855,-0.10559006211180125,0.43478260869565216,-0.2111801242236025,-0.34782608695652173,-0.2546583850931677,-0.2919254658385093,-0.30434782608695654,-0.2111801242236025,-0.32919254658385094,-0.12422360248447205,-0.32298136645962733,-0.043478260869565216,-0.2919254658385093,0.062111801242236024,-0.2981366459627329,0.14285714285714285,-0.32298136645962733,0.22981366459627328,-0.32298136645962733,0.3105590062111801,-0.30434782608695654,0.36645962732919257,-0.2546583850931677,0.006211180124223602,-0.20496894409937888,0.006211180124223602,-0.11801242236024845,0.0,-0.037267080745341616,0.0,0.043478260869565216,-0.09316770186335403,0.049689440993788817,-0.049689440993788817,0.07453416149068323,0.006211180124223602,0.09316770186335403,0.055900621118012424,0.07453416149068323,0.10559006211180125,0.049689440993788817,-0.2608695652173913,-0.18633540372670807,-0.2111801242236025,-0.19254658385093168,-0.16149068322981366,-0.19254658385093168,-0.10559006211180125,-0.18633540372670807,-0.15527950310559005,-0.17391304347826086,-0.20496894409937888,-0.17391304347826086,0.12422360248447205,-0.18012422360248448,0.17391304347826086,-0.19254658385093168,0.2236024844720497,-0.18633540372670807,0.2732919254658385,-0.18012422360248448,0.2236024844720497,-0.16770186335403728,0.17391304347826086,-0.17391304347826086,-0.13043478260869565,0.14906832298136646,-0.07453416149068323,0.13043478260869565,-0.024844720496894408,0.11801242236024845,0.012422360248447204,0.13043478260869565,0.049689440993788817,0.11801242236024845,0.09937888198757763,0.13043478260869565,0.15527950310559005,0.14906832298136646,0.10559006211180125,0.19875776397515527,0.055900621118012424,0.2236024844720497,0.012422360248447204,0.22981366459627328,-0.031055900621118012,0.2236024844720497,-0.07453416149068323,0.19875776397515527,-0.10559006211180125,0.14906832298136646,-0.024844720496894408,0.14906832298136646,0.012422360248447204,0.14906832298136646,0.055900621118012424,0.14285714285714285,0.13043478260869565,0.14906832298136646,0.055900621118012424,0.16770186335403728,0.012422360248447204,0.17391304347826086,-0.024844720496894408,0.16770186335403728,6
05q2.jpg,-0.35121951219512193,-0.17560975609756097,-0.33658536585365856,-0.07804878048780488,-0.32682926829268294,0.00975609756097561,-0.3073170731707317,0.09268292682926829,-0.2780487804878049,0.17073170731707318,-0.23414634146341465,0.24390243902439024,-0.16097560975609757,0.2975609756097561,-0.08292682926829269,0.33658536585365856,0.0,0.35121951219512193,0.08292682926829269,0.33658536585365856,0.16097560975609757,0.2975609756097561,0.23414634146341465,0.24878048780487805,0.28292682926829266,0.18048780487804877,0.3170731707317073,0.1073170731707317,0.34146341463414637,0.024390243902439025,0.36097560975609755,-0.06829268292682927,0.375609756097561,-0.16585365853658537,-0.28292682926829266,-0.2097560975609756,-0.23902439024390243,-0.25853658536585367,-0.17073170731707318,-0.2731707317073171,-0.0975609756097561,-0.2731707317073171,-0.03414634146341464,-0.24878048780487805,0.05365853658536585,-0.24390243902439024,0.12195121951219512,-0.2634146341463415,0.2,-0.2634146341463415,0.2731707317073171,-0.24390243902439024,0.32195121951219513,-0.1902439024390244,0.00975609756097561,-0.17073170731707318,0.004878048780487805,-0.1024390243902439,0.0,-0.03902439024390244,0.0,0.02926829268292683,-0.06829268292682927,0.04878048780487805,-0.03902439024390244,0.06829268292682927,0.0,0.07804878048780488,0.03902439024390244,0.06829268292682927,0.07317073170731707,0.05365853658536585,-0.2097560975609756,-0.16097560975609757,-0.17073170731707318,-0.16585365853658537,-0.12682926829268293,-0.16585365853658537,-0.08292682926829269,-0.15121951219512195,-0.12682926829268293,-0.14146341463414633,-0.17073170731707318,-0.14146341463414633,0.1024390243902439,-0.14634146341463414,0.14634146341463414,-0.15609756097560976,0.1902439024390244,-0.15121951219512195,0.23414634146341465,-0.14634146341463414,0.1902439024390244,-0.13170731707317074,0.14634146341463414,-0.13658536585365855,-0.11707317073170732,0.14634146341463414,-0.07317073170731707,0.12682926829268293,-0.03414634146341464,0.11707317073170732,0.0,0.12195121951219512,0.03414634146341464,0.11707317073170732,0.07317073170731707,0.13170731707317074,0.11707317073170732,0.15609756097560976,0.07317073170731707,0.1902439024390244,0.03414634146341464,0.2048780487804878,0.0,0.2048780487804878,-0.03414634146341464,0.2,-0.07804878048780488,0.18048780487804877,-0.09268292682926829,0.14634146341463414,-0.03414634146341464,0.13658536585365855,0.0,0.14146341463414633,0.03414634146341464,0.14146341463414633,0.09268292682926829,0.15609756097560976,0.03414634146341464,0.16097560975609757,0.0,0.16097560975609757,-0.03414634146341464,0.15609756097560976,6
06q0.jpg,-0.26063829787234044,-0.09042553191489362,-0.26063829787234044,-0.015957446808510637,-0.25,0.05319148936170213,-0.2393617021276596,0.1276595744680851,-0.2127659574468085,0.19148936170212766,-0.17553191489361702,0.2553191489361702,-0.1276595744680851,0.30851063829787234,-0.07446808510638298,0.35106382978723405,0.0,0.3617021276595745,0.07446808510638298,0.35106382978723405,0.13829787234042554,0.31382978723404253,0.19680851063829788,0.2712765957446808,0.2393617021276596,0.2127659574468085,0.2712765957446808,0.15425531914893617,0.2872340425531915,0.0797872340425532,0.2925531914893617,0.005319148936170213,0.2978723404255319,-0.06914893617021277,-0.22872340425531915,-0.14893617021276595,-0.20212765957446807,-0.19148936170212766,-0.15425531914893617,-0.2074468085106383,-0.10106382978723404,-0.20212765957446807,-0.047872340425531915,-0.18617021276595744,0.05319148936170213,-0.18085106382978725,0.10106382978723404,-0.19148936170212766,0.15425531914893617,-0.19680851063829788,0.2074468085106383,-0.18085106382978725,0.2393617021276596,-0.14361702127659576,0.0,-0.11702127659574468,0.0,-0.0797872340425532,0.0,-0.0425531914893617,0.0,-0.005319148936170213,-0.05319148936170213,0.05319148936170213,-0.026595744680851064,0.05851063829787234,0.0,0.06382978723404255,0.026595744680851064,0.05851063829787234,0.05319148936170213,0.05319148936170213,-0.17553191489361702,-0.11170212765957446,-0.14361702127659576,-0.13297872340425532,-0.10106382978723404,-0.1276595744680851,-0.06914893617021277,-0.10106382978723404,-0.10638297872340426,-0.09042553191489362,-0.14361702127659576,-0.09574468085106383,0.07446808510638298,-0.09574468085106383,0.10638297872340426,-0.12234042553191489,0.14893617021276595,-0.12234042553191489,0.17553191489361702,-0.10106382978723404,0.14893617021276595,-0.0851063829787234,0.11170212765957446,-0.0851063829787234,-0.10106382978723404,0.1702127659574468,-0.06382978723404255,0.14361702127659576,-0.026595744680851064,0.1276595744680851,0.0,0.13829787234042554,0.02127659574468085,0.1276595744680851,0.06382978723404255,0.14361702127659576,0.10106382978723404,0.1702127659574468,0.06382978723404255,0.19148936170212766,0.026595744680851064,0.2074468085106383,-0.005319148936170213,0.2127659574468085,-0.031914893617021274,0.2127659574468085,-0.06382978723404255,0.19680851063829788,-0.0797872340425532,0.1702127659574468,-0.026595744680851064,0.16489361702127658,0.0,0.16489361702127658,0.02127659574468085,0.16489361702127658,0.0797872340425532,0.1702127659574468,0.026595744680851064,0.16489361702127658,0.0,0.1702127659574468,-0.026595744680851064,0.16489361702127658,7
06q1.jpg,-0.3223684210526316,-0.15789473684210525,-0.3223684210526316,-0.06578947368421052,-0.3157894736842105,0.02631578947368421,-0.3026315789473684,0.11842105263157894,-0.27631578947368424,0.19736842105263158,-0.2236842105263158,0.26973684210526316,-0.16447368421052633,0.32894736842105265,-0.09868421052631579,0.3815789473684211,-0.006578947368421052,0.39473684210526316,0.08552631578947369,0.3815789473684211,0.15789473684210525,0.34210526315789475,0.2236842105263158,0.2894736842105263,0.27631578947368424,0.21710526315789475,0.3092105263157895,0.13815789473684212,0.3355263157894737,0.05263157894736842,0.34868421052631576,-0.039473684210526314,0.34868421052631576,-0.125,-0.26973684210526316,-0.21052631578947367,-0.23026315789473684,-0.2565789473684211,-0.16447368421052633,-0.2631578947368421,-0.10526315789473684,-0.25,-0.05263157894736842,-0.21710526315789475,0.06578947368421052,-0.21052631578947367,0.13157894736842105,-0.23026315789473684,0.19736842105263158,-0.23684210526315788,0.2631578947368421,-0.2236842105263158,0.3026315789473684,-0.17105263157894737,0.006578947368421052,-0.1513157894736842,0.006578947368421052,-0.09868421052631579,0.006578947368421052,-0.046052631578947366,0.006578947368421052,0.006578947368421052,-0.06578947368421052,0.05263157894736842,-0.03289473684210526,0.06578947368421052,0.0,0.07894736842105263,0.039473684210526314,0.07236842105263158,0.07894736842105263,0.05921052631578947,-0.19736842105263158,-0.14473684210526316,-0.16447368421052633,-0.15789473684210525,-0.11842105263157894,-0.15789473684210525,-0.08552631578947369,-0.13157894736842105,-0.125,-0.125,-0.17105263157894737,-0.125,0.10526315789473684,-0.11842105263157894,0.14473684210526316,-0.13815789473684212,0.18421052631578946,-0.13815789473684212,0.2236842105263158,-0.11842105263157894,0.18421052631578946,-0.10526315789473684,0.14473684210526316,-0.10526315789473684,-0.13157894736842105,0.17763157894736842,-0.07894736842105263,0.15789473684210525,-0.03289473684210526,0.1513157894736842,0.0,0.15789473684210525,0.039473684210526314,0.1513157894736842,0.08552631578947369,0.16447368421052633,0.13157894736842105,0.18421052631578946,0.08552631578947369,0.21052631578947367,0.039473684210526314,0.2236842105263158,0.0,0.23026315789473684,-0.039473684210526314,0.2236842105263158,-0.08552631578947369,0.21052631578947367,-0.1118421052631579,0.17763157894736842,-0.03289473684210526,0.17763157894736842,0.0,0.18421052631578946,0.03289473684210526,0.17763157894736842,0.1118421052631579,0.18421052631578946,0.03289473684210526,0.17763157894736842,0.0,0.18421052631578946,-0.03289473684210526,0.17763157894736842,7
06q2.jpg,-0.3333333333333333,-0.09259259259259259,-0.3271604938271605,-0.006172839506172839,-0.3148148148148148,0.08024691358024691,-0.2962962962962963,0.16666666666666666,-0.2654320987654321,0.24691358024691357,-0.2222222222222222,0.32098765432098764,-0.15432098765432098,0.38271604938271603,-0.08024691358024691,0.41975308641975306,0.006172839506172839,0.43209876543209874,0.09876543209876543,0.41975308641975306,0.18518518518518517,0.38271604938271603,0.25308641975308643,0.3271604938271605,0.30246913580246915,0.25925925925925924,0.3271604938271605,0.1728395061728395,0.3395061728395062,0.09259259259259259,0.35185185185185186,0.006172839506172839,0.35802469135802467,-0.08024691358024691,-0.2839506172839506,-0.1728395061728395,-0.24691358024691357,-0.2222222222222222,-0.18518518518518517,-0.24074074074074073,-0.11728395061728394,-0.2345679012345679,-0.06172839506172839,-0.2037037037037037,0.06172839506172839,-0.2037037037037037,0.12345679012345678,-0.22839506172839505,0.19135802469135801,-0.22839506172839505,0.25925925925925924,-0.2037037037037037,0.2962962962962963,-0.15432098765432098,0.0,-0.1419753086419753,0.0,-0.09876543209876543,0.0,-0.04938271604938271,0.0,-0.006172839506172839,-0.06172839506172839,0.06172839506172839,-0.030864197530864196,0.06790123456790123,0.006172839506172839,0.08024691358024691,0.037037037037037035,0.06790123456790123,0.06790123456790123,0.06172839506172839,-0.21604938271604937,-0.11728395061728394,-0.17901234567901234,-0.1419753086419753,-0.13580246913580246,-0.1419753086419753,-0.08641975308641975,-0.11728395061728394,-0.13580246913580246,-0.10493827160493827,-0.17901234567901234,-0.10493827160493827,0.09876543209876543,-0.1111111111111111,0.13580246913580246,-0.1419753086419753,0.18518518518518517,-0.13580246913580246,0.2222222222222222,-0.1111111111111111,0.18518518518518517,-0.10493827160493827,0.1419753086419753,-0.10493827160493827,-0.12345679012345678,0.19753086419753085,-0.07407407407407407,0.16666666666666666,-0.030864197530864196,0.14814814814814814,0.0,0.15432098765432098,0.037037037037037035,0.14814814814814814,0.08641975308641975,0.16666666666666666,0.13580246913580246,0.19753086419753085,0.08641975308641975,0.2222222222222222,0.037037037037037035,0.2345679012345679,0.0,0.24074074074074073,-0.030864197530864196,0.24074074074074073,-0.07407407407407407,0.2222222222222222,-0.09876543209876543,0.19753086419753085,-0.030864197530864196,0.18518518518518517,0.0,0.19135802469135801,0.037037037037037035,0.18518518518518517,0.1111111111111111,0.19753086419753085,0.037037037037037035,0.18518518518518517,0.0,0.19135802469135801,-0.030864197530864196,0.18518518518518517,7
06q3.jpg,-0.2346368715083799,-0.09497206703910614,-0.22346368715083798,-0.01675977653631285,-0.20670391061452514,0.055865921787709494,-0.18435754189944134,0.1340782122905028,-0.16201117318435754,0.2011173184357542,-0.1340782122905028,0.2681564245810056,-0.0893854748603352,0.329608938547486,-0.0335195530726257,0.3687150837988827,0.0335195530726257,0.37988826815642457,0.10614525139664804,0.3687150837988827,0.16759776536312848,0.329608938547486,0.21787709497206703,0.2737430167597765,0.25139664804469275,0.20670391061452514,0.27932960893854747,0.1340782122905028,0.2905027932960894,0.055865921787709494,0.29608938547486036,-0.027932960893854747,0.29608938547486036,-0.10614525139664804,-0.19553072625698323,-0.16759776536312848,-0.16759776536312848,-0.2011173184357542,-0.12290502793296089,-0.2011173184357542,-0.0782122905027933,-0.18994413407821228,-0.03910614525139665,-0.16759776536312848,0.0223463687150838,-0.16759776536312848,0.07262569832402235,-0.18994413407821228,0.12849162011173185,-0.2011173184357542,0.1787709497206704,-0.19553072625698323,0.21787709497206703,-0.16201117318435754,-0.00558659217877095,-0.12849162011173185,-0.00558659217877095,-0.0893854748603352,-0.00558659217877095,-0.05027932960893855,-0.00558659217877095,-0.0111731843575419,-0.03910614525139665,0.055865921787709494,-0.01675977653631285,0.061452513966480445,0.00558659217877095,0.0670391061452514,0.0335195530726257,0.061452513966480445,0.055865921787709494,0.055865921787709494,-0.1452513966480447,-0.11731843575418995,-0.12290502793296089,-0.13966480446927373,-0.0893854748603352,-0.13966480446927373,-0.061452513966480445,-0.11173184357541899,-0.0893854748603352,-0.10614525139664804,-0.12290502793296089,-0.10614525139664804,0.07262569832402235,-0.11173184357541899,0.1005586592178771,-0.13966480446927373,0.1340782122905028,-0.13966480446927373,0.16759776536312848,-0.11731843575418995,0.13966480446927373,-0.10614525139664804,0.10614525139664804,-0.10614525139664804,-0.061452513966480445,0.2011173184357542,-0.0446927374301676,0.16201117318435754,-0.0111731843575419,0.13966480446927373,0.01675977653631285,0.1452513966480447,0.03910614525139665,0.13966480446927373,0.0782122905027933,0.1564245810055866,0.10614525139664804,0.19553072625698323,0.08379888268156424,0.22346368715083798,0.05027932960893855,0.2346368715083799,0.0223463687150838,0.2346368715083799,-0.00558659217877095,0.2346368715083799,-0.03910614525139665,0.22346368715083798,-0.0446927374301676,0.19553072625698323,-0.0111731843575419,0.17318435754189945,0.01675977653631285,0.17318435754189945,0.0446927374301676,0.16759776536312848,0.09497206703910614,0.18994413407821228,0.0446927374301676,0.18994413407821228,0.0223463687150838,0.18994413407821228,-0.00558659217877095,0.18994413407821228,7
07q0.jpg,-0.5220588235294118,-0.27941176470588236,-0.5073529411764706,-0.13970588235294118,-0.4852941176470588,0.0,-0.4632352941176471,0.1323529411764706,-0.4264705882352941,0.2647058823529412,-0.35294117647058826,0.375,-0.25735294117647056,0.4632352941176471,-0.13970588235294118,0.5367647058823529,-0.014705882352941176,0.5514705882352942,0.11029411764705882,0.5220588235294118,0.20588235294117646,0.4485294117647059,0.2867647058823529,0.35294117647058826,0.34558823529411764,0.2426470588235294,0.375,0.11764705882352941,0.39705882352941174,-0.007352941176470588,0.41911764705882354,-0.1323529411764706,0.4411764705882353,-0.25,-0.4485294117647059,-0.3382352941176471,-0.375,-0.3897058823529412,-0.2867647058823529,-0.39705882352941174,-0.19852941176470587,-0.36764705882352944,-0.11029411764705882,-0.3235294117647059,0.11029411764705882,-0.3235294117647059,0.19117647058823528,-0.35294117647058826,0.27941176470588236,-0.375,0.36764705882352944,-0.36764705882352944,0.4264705882352941,-0.3161764705882353,0.007352941176470588,-0.23529411764705882,0.007352941176470588,-0.15441176470588236,0.007352941176470588,-0.0661764705882353,0.014705882352941176,0.022058823529411766,-0.09558823529411764,0.08088235294117647,-0.051470588235294115,0.08823529411764706,0.0,0.10294117647058823,0.051470588235294115,0.09558823529411764,0.09558823529411764,0.08088235294117647,-0.34558823529411764,-0.2426470588235294,-0.2867647058823529,-0.25735294117647056,-0.22058823529411764,-0.25735294117647056,-0.15441176470588236,-0.22058823529411764,-0.22058823529411764,-0.20588235294117646,-0.29411764705882354,-0.20588235294117646,0.14705882352941177,-0.20588235294117646,0.21323529411764705,-0.23529411764705882,0.27205882352941174,-0.23529411764705882,0.33088235294117646,-0.22058823529411764,0.27941176470588236,-0.19117647058823528,0.21323529411764705,-0.19117647058823528,-0.20588235294117646,0.25,-0.125,0.22794117647058823,-0.058823529411764705,0.21323529411764705,-0.007352941176470588,0.22794117647058823,0.03676470588235294,0.21323529411764705,0.09558823529411764,0.22794117647058823,0.16176470588235295,0.25,0.10294117647058823,0.3014705882352941,0.04411764705882353,0.3235294117647059,-0.007352941176470588,0.33088235294117646,-0.058823529411764705,0.33088235294117646,-0.125,0.3088235294117647,-0.16911764705882354,0.25,-0.058823529411764705,0.25,-0.007352941176470588,0.25735294117647056,0.03676470588235294,0.25,0.1323529411764706,0.25735294117647056,0.04411764705882353,0.25735294117647056,-0.007352941176470588,0.2647058823529412,-0.058823529411764705,0.25735294117647056,8
07q1.jpg,-0.37888198757763975,-0.13664596273291926,-0.36645962732919257,-0.037267080745341616,-0.34782608695652173,0.062111801242236024,-0.32298136645962733,0.15527950310559005,-0.2981366459627329,0.2484472049689441,-0.2422360248447205,0.32919254658385094,-0.17391304347826086,0.391304347826087,-0.09316770186335403,0.4472049689440994,0.0,0.45962732919254656,0.09316770186335403,0.4472049689440994,0.16770186335403728,0.39751552795031053,0.2360248447204969,0.33540372670807456,0.2919254658385093,0.2608695652173913,0.3167701863354037,0.17391304347826086,0.33540372670807456,0.08074534161490683,0.35403726708074534,-0.006211180124223602,0.36645962732919257,-0.09937888198757763,-0.32298136645962733,-0.2111801242236025,-0.2795031055900621,-0.2608695652173913,-0.2111801242236025,-0.2732919254658385,-0.13664596273291926,-0.2670807453416149,-0.07453416149068323,-0.2360248447204969,0.08695652173913043,-0.22981366459627328,0.14906832298136646,-0.2484472049689441,0.21739130434782608,-0.2546583850931677,0.2857142857142857,-0.2360248447204969,0.32298136645962733,-0.18633540372670807,0.006211180124223602,-0.16149068322981366,0.006211180124223602,-0.09937888198757763,0.006211180124223602,-0.043478260869565216,0.006211180124223602,0.012422360248447204,-0.07453416149068323,0.055900621118012424,-0.037267080745341616,0.06832298136645963,0.0,0.08074534161490683,0.043478260869565216,0.07453416149068323,0.08074534161490683,0.062111801242236024,-0.2422360248447205,-0.14906832298136646,-0.20496894409937888,-0.16770186335403728,-0.15527950310559005,-0.16770186335403728,-0.11180124223602485,-0.13664596273291926,-0.15527950310559005,-0.13664596273291926,-0.20496894409937888,-0.13664596273291926,0.11801242236024845,-0.13043478260869565,0.16149068322981366,-0.14906832298136646,0.2111801242236025,-0.14906832298136646,0.2484472049689441,-0.12422360248447205,0.2111801242236025,-0.11801242236024845,0.16149068322981366,-0.12422360248447205,-0.17391304347826086,0.17391304347826086,-0.11180124223602485,0.14906832298136646,-0.043478260869565216,0.13664596273291926,0.0,0.14906832298136646,0.043478260869565216,0.14285714285714285,0.10559006211180125,0.15527950310559005,0.16149068322981366,0.18012422360248448,0.10559006211180125,0.2546583850931677,0.043478260869565216,0.2795031055900621,-0.006211180124223602,0.2857142857142857,-0.049689440993788817,0.2795031055900621,-0.11801242236024845,0.2484472049689441,-0.15527950310559005,0.18012422360248448,-0.043478260869565216,0.15527950310559005,0.0,0.16149068322981366,0.043478260869565216,0.16149068322981366,0.13664596273291926,0.18633540372670807,0.043478260869565216,0.2360248447204969,-0.006211180124223602,0.2422360248447205,-0.049689440993788817,0.2360248447204969,8
08q0.jpg,-0.31125827814569534,-0.152317880794702,-0.304635761589404,-0.06622516556291391,-0.2913907284768212,0.013245033112582781,-0.2781456953642384,0.09271523178807947,-0.25165562913907286,0.16556291390728478,-0.2119205298013245,0.23841059602649006,-0.15894039735099338,0.2913907284768212,-0.09271523178807947,0.33774834437086093,-0.013245033112582781,0.3509933774834437,0.06622516556291391,0.3443708609271523,0.13245033112582782,0.2980132450331126,0.1986754966887417,0.25165562913907286,0.24503311258278146,0.18543046357615894,0.271523178807947,0.11258278145695365,0.2847682119205298,0.033112582781456956,0.304635761589404,-0.046357615894039736,0.31788079470198677,-0.12582781456953643,-0.26490066225165565,-0.2052980132450331,-0.2251655629139073,-0.25165562913907286,-0.16556291390728478,-0.26490066225165565,-0.10596026490066225,-0.25165562913907286,-0.046357615894039736,-0.2251655629139073,0.06622516556291391,-0.2119205298013245,0.11920529801324503,-0.23178807947019867,0.17880794701986755,-0.23841059602649006,0.23841059602649006,-0.2185430463576159,0.2781456953642384,-0.17880794701986755,0.006622516556291391,-0.152317880794702,0.006622516556291391,-0.09933774834437085,0.006622516556291391,-0.046357615894039736,0.006622516556291391,0.013245033112582781,-0.059602649006622516,0.046357615894039736,-0.033112582781456956,0.059602649006622516,0.0,0.0728476821192053,0.033112582781456956,0.06622516556291391,0.06622516556291391,0.052980132450331126,-0.1986754966887417,-0.152317880794702,-0.15894039735099338,-0.16556291390728478,-0.11920529801324503,-0.16556291390728478,-0.07947019867549669,-0.1390728476821192,-0.11920529801324503,-0.13245033112582782,-0.16556291390728478,-0.13245033112582782,0.09271523178807947,-0.12582781456953643,0.13245033112582782,-0.152317880794702,0.17880794701986755,-0.1456953642384106,0.2119205298013245,-0.12582781456953643,0.17880794701986755,-0.11258278145695365,0.13245033112582782,-0.11920529801324503,-0.11920529801324503,0.15894039735099338,-0.0728476821192053,0.1390728476821192,-0.026490066225165563,0.12582781456953643,0.0,0.1390728476821192,0.026490066225165563,0.13245033112582782,0.06622516556291391,0.1456953642384106,0.10596026490066225,0.16556291390728478,0.059602649006622516,0.1986754966887417,0.019867549668874173,0.2185430463576159,-0.006622516556291391,0.2185430463576159,-0.039735099337748346,0.2185430463576159,-0.07947019867549669,0.1986754966887417,-0.09933774834437085,0.15894039735099338,-0.033112582781456956,0.152317880794702,0.0,0.152317880794702,0.026490066225165563,0.152317880794702,0.08609271523178808,0.16556291390728478,0.019867549668874173,0.17880794701986755,-0.006622516556291391,0.18543046357615894,-0.033112582781456956,0.17880794701986755,9
08q1.jpg,-0.3333333333333333,-0.12318840579710146,-0.32608695652173914,-0.028985507246376812,-0.3115942028985507,0.057971014492753624,-0.2898550724637681,0.14492753623188406,-0.2608695652173913,0.2318840579710145,-0.21739130434782608,0.3115942028985507,-0.15942028985507245,0.37681159420289856,-0.08695652173913043,0.43478260869565216,-0.007246376811594203,0.4492753623188406,0.07971014492753623,0.43478260869565216,0.15217391304347827,0.36231884057971014,0.2246376811594203,0.2971014492753623,0.2826086956521739,0.21739130434782608,0.30434782608695654,0.13043478260869565,0.3188405797101449,0.043478260869565216,0.32608695652173914,-0.050724637681159424,0.3333333333333333,-0.13768115942028986,-0.2753623188405797,-0.21739130434782608,-0.2463768115942029,-0.2608695652173913,-0.1956521739130435,-0.2826086956521739,-0.13768115942028986,-0.2826086956521739,-0.07971014492753623,-0.2536231884057971,0.07246376811594203,-0.2391304347826087,0.12318840579710146,-0.2608695652173913,0.18115942028985507,-0.2753623188405797,0.2391304347826087,-0.2536231884057971,0.2753623188405797,-0.21014492753623187,-0.007246376811594203,-0.16666666666666666,0.0,-0.10144927536231885,0.0,-0.043478260869565216,0.0,0.021739130434782608,-0.07246376811594203,0.050724637681159424,-0.036231884057971016,0.06521739130434782,0.0,0.07971014492753623,0.043478260869565216,0.06521739130434782,0.07971014492753623,0.050724637681159424,-0.21014492753623187,-0.14492753623188406,-0.16666666666666666,-0.15217391304347827,-0.13768115942028986,-0.15217391304347827,-0.09420289855072464,-0.13768115942028986,-0.13768115942028986,-0.13768115942028986,-0.17391304347826086,-0.13768115942028986,0.09420289855072464,-0.13768115942028986,0.13768115942028986,-0.15217391304347827,0.17391304347826086,-0.15217391304347827,0.21014492753623187,-0.13768115942028986,0.17391304347826086,-0.13768115942028986,0.13043478260869565,-0.13768115942028986,-0.14492753623188406,0.15942028985507245,-0.09420289855072464,0.13043478260869565,-0.036231884057971016,0.12318840579710146,0.007246376811594203,0.13043478260869565,0.043478260869565216,0.12318840579710146,0.10144927536231885,0.13043478260869565,0.15217391304347827,0.15217391304347827,0.10144927536231885,0.2246376811594203,0.043478260869565216,0.26811594202898553,0.0,0.2753623188405797,-0.043478260869565216,0.26811594202898553,-0.10144927536231885,0.2318840579710145,-0.13043478260869565,0.15942028985507245,-0.036231884057971016,0.15217391304347827,0.007246376811594203,0.15217391304347827,0.043478260869565216,0.15217391304347827,0.13043478260869565,0.15942028985507245,0.043478260869565216,0.2246376811594203,0.0,0.2318840579710145,-0.043478260869565216,0.2246376811594203,9
08q2.jpg,-0.3541666666666667,-0.09722222222222222,-0.3402777777777778,-0.013888888888888888,-0.3194444444444444,0.06944444444444445,-0.2916666666666667,0.1527777777777778,-0.2569444444444444,0.2222222222222222,-0.2013888888888889,0.2847222222222222,-0.1388888888888889,0.3333333333333333,-0.06944444444444445,0.375,0.013888888888888888,0.3819444444444444,0.09027777777777778,0.3680555555555556,0.14583333333333334,0.3194444444444444,0.2013888888888889,0.2638888888888889,0.24305555555555555,0.19444444444444445,0.2708333333333333,0.11805555555555555,0.2777777777777778,0.034722222222222224,0.2916666666666667,-0.041666666666666664,0.2986111111111111,-0.125,-0.2916666666666667,-0.1875,-0.25,-0.22916666666666666,-0.19444444444444445,-0.25,-0.13194444444444445,-0.24305555555555555,-0.06944444444444445,-0.2222222222222222,0.05555555555555555,-0.2222222222222222,0.1111111111111111,-0.24305555555555555,0.16666666666666666,-0.2569444444444444,0.2222222222222222,-0.2361111111111111,0.2569444444444444,-0.19444444444444445,-0.006944444444444444,-0.1527777777777778,0.0,-0.09722222222222222,0.006944444444444444,-0.04861111111111111,0.013888888888888888,0.006944444444444444,-0.0625,0.05555555555555555,-0.027777777777777776,0.0625,0.006944444444444444,0.06944444444444445,0.041666666666666664,0.0625,0.06944444444444445,0.05555555555555555,-0.2152777777777778,-0.125,-0.18055555555555555,-0.14583333333333334,-0.1388888888888889,-0.14583333333333334,-0.09722222222222222,-0.125,-0.1388888888888889,-0.11805555555555555,-0.18055555555555555,-0.1111111111111111,0.0763888888888889,-0.13194444444444445,0.11805555555555555,-0.1527777777777778,0.1597222222222222,-0.1527777777777778,0.19444444444444445,-0.13194444444444445,0.1597222222222222,-0.11805555555555555,0.11805555555555555,-0.125,-0.11805555555555555,0.1736111111111111,-0.0763888888888889,0.1527777777777778,-0.027777777777777776,0.1388888888888889,0.006944444444444444,0.14583333333333334,0.034722222222222224,0.1388888888888889,0.08333333333333333,0.14583333333333334,0.125,0.16666666666666666,0.08333333333333333,0.2222222222222222,0.041666666666666664,0.25,0.006944444444444444,0.25,-0.027777777777777776,0.25,-0.0763888888888889,0.22916666666666666,-0.09722222222222222,0.18055555555555555,-0.027777777777777776,0.16666666666666666,0.006944444444444444,0.16666666666666666,0.041666666666666664,0.16666666666666666,0.10416666666666667,0.1736111111111111,0.041666666666666664,0.20833333333333334,0.006944444444444444,0.20833333333333334,-0.027777777777777776,0.20833333333333334,9
09q0.jpg,-0.31213872832369943,-0.08670520231213873,-0.3063583815028902,-0.005780346820809248,-0.2947976878612717,0.06936416184971098,-0.27167630057803466,0.14450867052023122,-0.24277456647398843,0.2138728323699422,-0.2023121387283237,0.2832369942196532,-0.14450867052023122,0.3352601156069364,-0.08092485549132948,0.3815028901734104,-0.005780346820809248,0.3930635838150289,0.07514450867052024,0.3815028901734104,0.13872832369942195,0.3352601156069364,0.19653179190751446,0.2774566473988439,0.23699421965317918,0.2138728323699422,0.2658959537572254,0.13872832369942195,0.2832369942196532,0.06358381502890173,0.30057803468208094,-0.017341040462427744,0.3063583815028902,-0.09826589595375723,-0.26011560693641617,-0.18497109826589594,-0.21965317919075145,-0.2254335260115607,-0.15606936416184972,-0.24277456647398843,-0.09826589595375723,-0.24277456647398843,-0.04046242774566474,-0.21965317919075145,0.03468208092485549,-0.2138728323699422,0.09248554913294797,-0.23699421965317918,0.15606936416184972,-0.24277456647398843,0.2138728323699422,-0.2254335260115607,0.2543352601156069,-0.18497109826589594,0.0,-0.15028901734104047,0.005780346820809248,-0.09826589595375723,0.005780346820809248,-0.046242774566473986,0.005780346820809248,0.005780346820809248,-0.05202312138728324,0.057803468208092484,-0.023121387283236993,0.06358381502890173,0.005780346820809248,0.06936416184971098,0.03468208092485549,0.06358381502890173,0.057803468208092484,0.057803468208092484,-0.19653179190751446,-0.1329479768786127,-0.16184971098265896,-0.15606936416184972,-0.11560693641618497,-0.15606936416184972,-0.08092485549132948,-0.12716763005780346,-0.12138728323699421,-0.11560693641618497,-0.16184971098265896,-0.11560693641618497,0.08092485549132948,-0.12716763005780346,0.12138728323699421,-0.15606936416184972,0.16184971098265896,-0.15606936416184972,0.19653179190751446,-0.1329479768786127,0.1676300578034682,-0.11560693641618497,0.12138728323699421,-0.11560693641618497,-0.10982658959537572,0.19653179190751446,-0.06936416184971098,0.16184971098265896,-0.028901734104046242,0.13872832369942195,0.0,0.14450867052023122,0.028901734104046242,0.13872832369942195,0.06936416184971098,0.15606936416184972,0.10404624277456648,0.19653179190751446,0.06936416184971098,0.24277456647398843,0.028901734104046242,0.2658959537572254,0.0,0.2658959537572254,-0.028901734104046242,0.2658959537572254,-0.06936416184971098,0.24855491329479767,-0.08670520231213873,0.19653179190751446,-0.023121387283236993,0.16184971098265896,0.0,0.16184971098265896,0.028901734104046242,0.16184971098265896,0.08670520231213873,0.19653179190751446,0.028901734104046242,0.21965317919075145,0.0,0.2254335260115607,-0.028901734104046242,0.21965317919075145,10
09q1.jpg,-0.51,-0.08,-0.49,0.04,-0.47,0.17,-0.44,0.29,-0.39,0.4,-0.32,0.5,-0.22,0.58,-0.11,0.64,0.02,0.65,0.15,0.63,0.26,0.56,0.34,0.47,0.4,0.36,0.43,0.25,0.45,0.12,0.46,0.0,0.46,-0.13,-0.42,-0.26,-0.36,-0.33,-0.27,-0.37,-0.17,-0.37,-0.08,-0.34,0.06,-0.34,0.15,-0.37,0.24,-0.38,0.33,-0.34,0.39,-0.27,0.0,-0.23,0.0,-0.15,0.0,-0.08,0.01,0.0,-0.08,0.1,-0.03,0.1,0.01,0.11,0.05,0.1,0.1,0.09,-0.32,-0.18,-0.26,-0.22,-0.2,-0.22,-0.13,-0.18,-0.2,-0.17,-0.26,-0.17,0.12,-0.18,0.18,-0.22,0.25,-0.23,0.3,-0.19,0.25,-0.17,0.18,-0.17,-0.17,0.31,-0.11,0.25,-0.04,0.21,0.01,0.22,0.06,0.21,0.12,0.25,0.19,0.31,0.13,0.38,0.07,0.41,0.02,0.41,-0.04,0.41,-0.11,0.38,-0.14,0.31,-0.04,0.26,0.01,0.27,0.06,0.26,0.16,0.31,0.06,0.33,0.01,0.34,-0.04,0.33,10
09q2.jpg,-0.3591549295774648,-0.14788732394366197,-0.352112676056338,-0.04929577464788732,-0.3380281690140845,0.04225352112676056,-0.31690140845070425,0.14084507042253522,-0.2887323943661972,0.22535211267605634,-0.23943661971830985,0.3028169014084507,-0.16901408450704225,0.3732394366197183,-0.09859154929577464,0.4225352112676056,-0.014084507042253521,0.43661971830985913,0.07042253521126761,0.4225352112676056,0.14084507042253522,0.36619718309859156,0.19718309859154928,0.3028169014084507,0.24647887323943662,0.22535211267605634,0.2746478873239437,0.14084507042253522,0.29577464788732394,0.04929577464788732,0.31690140845070425,-0.04225352112676056,0.323943661971831,-0.13380281690140844,-0.2887323943661972,-0.2323943661971831,-0.23943661971830985,-0.2676056338028169,-0.176056338028169,-0.2887323943661972,-0.1056338028169014,-0.2746478873239437,-0.04225352112676056,-0.2535211267605634,0.056338028169014086,-0.24647887323943662,0.11267605633802817,-0.2676056338028169,0.176056338028169,-0.2746478873239437,0.23943661971830985,-0.2535211267605634,0.28169014084507044,-0.2112676056338028,0.007042253521126761,-0.176056338028169,0.0,-0.11267605633802817,0.0,-0.04929577464788732,0.0,0.014084507042253521,-0.06338028169014084,0.07042253521126761,-0.035211267605633804,0.07746478873239436,0.0,0.08450704225352113,0.035211267605633804,0.07746478873239436,0.06338028169014084,0.07042253521126761,-0.22535211267605634,-0.1619718309859155,-0.18309859154929578,-0.19014084507042253,-0.13380281690140844,-0.19014084507042253,-0.08450704225352113,-0.14788732394366197,-0.13380281690140844,-0.14084507042253522,-0.18309859154929578,-0.14788732394366197,0.09154929577464789,-0.14788732394366197,0.13380281690140844,-0.18309859154929578,0.176056338028169,-0.18309859154929578,0.21830985915492956,-0.15492957746478872,0.18309859154929578,-0.13380281690140844,0.13380281690140844,-0.13380281690140844,-0.13380281690140844,0.19718309859154928,-0.07746478873239436,0.176056338028169,-0.028169014084507043,0.1619718309859155,0.0,0.16901408450704225,0.028169014084507043,0.1619718309859155,0.07042253521126761,0.176056338028169,0.11267605633802817,0.20422535211267606,0.06338028169014084,0.23943661971830985,0.028169014084507043,0.2605633802816901,-0.007042253521126761,0.2605633802816901,-0.035211267605633804,0.2535211267605634,-0.08450704225352113,0.23943661971830985,-0.11267605633802817,0.19718309859154928,-0.028169014084507043,0.19718309859154928,0.0,0.20422535211267606,0.028169014084507043,0.19718309859154928,0.09154929577464789,0.20422535211267606,0.02112676056338028,0.20422535211267606,0.0,0.20422535211267606,-0.035211267605633804,0.20422535211267606,10
10q0.jpg,-0.3116883116883117,-0.18831168831168832,-0.2987012987012987,-0.09740259740259741,-0.2792207792207792,-0.012987012987012988,-0.2662337662337662,0.07142857142857142,-0.24675324675324675,0.14935064935064934,-0.2012987012987013,0.22077922077922077,-0.14285714285714285,0.2727272727272727,-0.07792207792207792,0.3246753246753247,0.0,0.33766233766233766,0.07142857142857142,0.3246753246753247,0.14285714285714285,0.2857142857142857,0.2012987012987013,0.22727272727272727,0.24025974025974026,0.14935064935064934,0.2662337662337662,0.07142857142857142,0.2857142857142857,-0.012987012987012988,0.2987012987012987,-0.1038961038961039,0.3116883116883117,-0.19480519480519481,-0.2662337662337662,-0.2077922077922078,-0.22077922077922077,-0.23376623376623376,-0.16233766233766234,-0.23376623376623376,-0.1038961038961039,-0.21428571428571427,-0.05194805194805195,-0.19480519480519481,0.045454545454545456,-0.19480519480519481,0.1038961038961039,-0.21428571428571427,0.16233766233766234,-0.22727272727272727,0.22077922077922077,-0.22077922077922077,0.2662337662337662,-0.18831168831168832,0.0,-0.14935064935064934,0.0,-0.09090909090909091,0.006493506493506494,-0.03896103896103896,0.006493506493506494,0.01948051948051948,-0.06493506493506493,0.045454545454545456,-0.032467532467532464,0.05194805194805195,0.0,0.06493506493506493,0.032467532467532464,0.05194805194805195,0.06493506493506493,0.045454545454545456,-0.2077922077922078,-0.14935064935064934,-0.16883116883116883,-0.16883116883116883,-0.12987012987012986,-0.16883116883116883,-0.09090909090909091,-0.13636363636363635,-0.12987012987012986,-0.12987012987012986,-0.17532467532467533,-0.12987012987012986,0.09090909090909091,-0.12987012987012986,0.12337662337662338,-0.16233766233766234,0.16883116883116883,-0.16233766233766234,0.2012987012987013,-0.13636363636363635,0.16883116883116883,-0.12337662337662338,0.12987012987012986,-0.12337662337662338,-0.12987012987012986,0.14285714285714285,-0.07792207792207792,0.12337662337662338,-0.032467532467532464,0.12337662337662338,0.0,0.12987012987012986,0.032467532467532464,0.12337662337662338,0.07792207792207792,0.12987012987012986,0.11688311688311688,0.14285714285714285,0.07792207792207792,0.2012987012987013,0.032467532467532464,0.22727272727272727,0.0,0.22727272727272727,-0.032467532467532464,0.22077922077922077,-0.08441558441558442,0.2012987012987013,-0.11038961038961038,0.14285714285714285,-0.032467532467532464,0.14285714285714285,0.0,0.14285714285714285,0.032467532467532464,0.14285714285714285,0.1038961038961039,0.14935064935064934,0.032467532467532464,0.18831168831168832,0.0,0.18831168831168832,-0.032467532467532464,0.18181818181818182,11
10q1.jpg,-0.4152542372881356,-0.2288135593220339,-0.4067796610169492,-0.11016949152542373,-0.3898305084745763,0.0,-0.3728813559322034,0.11016949152542373,-0.3389830508474576,0.22033898305084745,-0.288135593220339,0.3135593220338983,-0.2033898305084746,0.3898305084745763,-0.11864406779661017,0.4576271186440678,-0.03389830508474576,0.4915254237288136,0.06779661016949153,0.4745762711864407,0.16101694915254236,0.4152542372881356,0.2542372881355932,0.3474576271186441,0.3220338983050847,0.2627118644067797,0.3644067796610169,0.15254237288135594,0.3898305084745763,0.0423728813559322,0.423728813559322,-0.07627118644067797,0.4406779661016949,-0.19491525423728814,-0.3474576271186441,-0.2796610169491525,-0.288135593220339,-0.3220338983050847,-0.211864406779661,-0.3220338983050847,-0.13559322033898305,-0.2966101694915254,-0.059322033898305086,-0.2627118644067797,0.06779661016949153,-0.2542372881355932,0.15254237288135594,-0.2796610169491525,0.2288135593220339,-0.288135593220339,0.3135593220338983,-0.2796610169491525,0.3728813559322034,-0.23728813559322035,0.00847457627118644,-0.1864406779661017,0.00847457627118644,-0.1271186440677966,0.00847457627118644,-0.059322033898305086,0.0,0.00847457627118644,-0.0847457627118644,0.059322033898305086,-0.0423728813559322,0.07627118644067797,-0.00847457627118644,0.0847457627118644,0.0423728813559322,0.07627118644067797,0.07627118644067797,0.06779661016949153,-0.2711864406779661,-0.19491525423728814,-0.22033898305084745,-0.22033898305084745,-0.16101694915254236,-0.211864406779661,-0.11864406779661017,-0.17796610169491525,-0.1694915254237288,-0.16101694915254236,-0.2288135593220339,-0.1694915254237288,0.11864406779661017,-0.16101694915254236,0.1694915254237288,-0.19491525423728814,0.2288135593220339,-0.19491525423728814,0.2796610169491525,-0.16101694915254236,0.2288135593220339,-0.1440677966101695,0.17796610169491525,-0.1440677966101695,-0.1694915254237288,0.211864406779661,-0.11016949152542373,0.1864406779661017,-0.05084745762711865,0.17796610169491525,-0.00847457627118644,0.1864406779661017,0.03389830508474576,0.17796610169491525,0.09322033898305085,0.19491525423728814,0.1440677966101695,0.2288135593220339,0.0847457627118644,0.288135593220339,0.025423728813559324,0.3135593220338983,-0.01694915254237288,0.3220338983050847,-0.059322033898305086,0.3135593220338983,-0.11864406779661017,0.2796610169491525,-0.1440677966101695,0.211864406779661,-0.05084745762711865,0.2033898305084746,-0.00847457627118644,0.211864406779661,0.03389830508474576,0.211864406779661,0.11864406779661017,0.2288135593220339,0.03389830508474576,0.2627118644067797,-0.01694915254237288,0.2711864406779661,-0.05084745762711865,0.2627118644067797,11
