Unnamed: 0,chin_x0,chin_y0,chin_x1,chin_y1,chin_x2,chin_y2,chin_x3,chin_y3,chin_x4,chin_y4,chin_x5,chin_y5,chin_x6,chin_y6,chin_x7,chin_y7,chin_x8,chin_y8,chin_x9,chin_y9,chin_x10,chin_y10,chin_x11,chin_y11,chin_x12,chin_y12,chin_x13,chin_y13,chin_x14,chin_y14,chin_x15,chin_y15,chin_x16,chin_y16,right_eyebrow_x0,right_eyebrow_y0,right_eyebrow_x1,right_eyebrow_y1,right_eyebrow_x2,right_eyebrow_y2,right_eyebrow_x3,right_eyebrow_y3,right_eyebrow_x4,right_eyebrow_y4,left_eyebrow_x0,left_eyebrow_y0,left_eyebrow_x1,left_eyebrow_y1,left_eyebrow_x2,left_eyebrow_y2,left_eyebrow_x3,left_eyebrow_y3,left_eyebrow_x4,left_eyebrow_y4,nose_x0,nose_y0,nose_x1,nose_y1,nose_x2,nose_y2,nose_x3,nose_y3,nose_x4,nose_y4,nose_x5,nose_y5,nose_x6,nose_y6,nose_x7,nose_y7,nose_x8,nose_y8,right_eye_x0,right_eye_y0,right_eye_x1,right_eye_y1,right_eye_x2,right_eye_y2,right_eye_x3,right_eye_y3,right_eye_x4,right_eye_y4,right_eye_x5,right_eye_y5,left_eye_x0,left_eye_y0,left_eye_x1,left_eye_y1,left_eye_x2,left_eye_y2,left_eye_x3,left_eye_y3,left_eye_x4,left_eye_y4,left_eye_x5,left_eye_y5,mouth_x0,mouth_y0,mouth_x1,mouth_y1,mouth_x2,mouth_y2,mouth_x3,mouth_y3,mouth_x4,mouth_y4,mouth_x5,mouth_y5,mouth_x6,mouth_y6,mouth_x7,mouth_y7,mouth_x8,mouth_y8,mouth_x9,mouth_y9,mouth_x10,mouth_y10,mouth_x11,mouth_y11,mouth_x12,mouth_y12,mouth_x13,mouth_y13,mouth_x14,mouth_y14,mouth_x15,mouth_y15,mouth_x16,mouth_y16,mouth_x17,mouth_y17,mouth_x18,mouth_y18,mouth_x19,mouth_y19,target
000.jpg,-0.4805194805194805,-0.17532467532467533,-0.461038961038961,-0.045454545454545456,-0.44155844155844154,0.07792207792207792,-0.4090909090909091,0.2012987012987013,-0.36363636363636365,0.3181818181818182,-0.2987012987012987,0.4155844155844156,-0.2077922077922078,0.5,-0.11688311688311688,0.564935064935065,-0.006493506493506494,0.5909090909090909,0.1038961038961039,0.564935064935065,0.2012987012987013,0.4935064935064935,0.2857142857142857,0.4090909090909091,0.35064935064935066,0.3116883116883117,0.38961038961038963,0.2012987012987013,0.4155844155844156,0.07792207792207792,0.44805194805194803,-0.03896103896103896,0.461038961038961,-0.16883116883116883,-0.42857142857142855,-0.2857142857142857,-0.36363636363636365,-0.34415584415584416,-0.2662337662337662,-0.35714285714285715,-0.16883116883116883,-0.34415584415584416,-0.07142857142857142,-0.3116883116883117,0.07792207792207792,-0.3051948051948052,0.17532467532467533,-0.3246753246753247,0.2662337662337662,-0.33766233766233766,0.36363636363636365,-0.3246753246753247,0.4155844155844156,-0.2597402597402597,0.006493506493506494,-0.21428571428571427,0.006493506493506494,-0.14935064935064934,0.006493506493506494,-0.07142857142857142,0.006493506493506494,0.0,-0.09090909090909091,0.07792207792207792,-0.045454545454545456,0.09090909090909091,0.006493506493506494,0.1038961038961039,0.05194805194805195,0.09090909090909091,0.09090909090909091,0.07142857142857142,-0.3116883116883117,-0.18831168831168832,-0.2597402597402597,-0.2012987012987013,-0.2012987012987013,-0.2077922077922078,-0.14285714285714285,-0.19480519480519481,-0.2012987012987013,-0.17532467532467533,-0.2597402597402597,-0.17532467532467533,0.14285714285714285,-0.18831168831168832,0.19480519480519481,-0.2012987012987013,0.2532467532467532,-0.19480519480519481,0.3051948051948052,-0.18181818181818182,0.2532467532467532,-0.16883116883116883,0.19480519480519481,-0.16883116883116883,-0.17532467532467533,0.2727272727272727,-0.11038961038961038,0.24675324675324675,-0.045454545454545456,0.22077922077922077,0.006493506493506494,0.24025974025974026,0.05844155844155844,0.22077922077922077,0.11688311688311688,0.24675324675324675,0.16883116883116883,0.2727272727272727,0.11038961038961038,0.3181818181818182,0.05194805194805195,0.35064935064935066,0.0,0.35064935064935066,-0.05194805194805195,0.34415584415584416,-0.11038961038961038,0.3181818181818182,-0.14285714285714285,0.2792207792207792,-0.05194805194805195,0.2727272727272727,0.006493506493506494,0.2792207792207792,0.05844155844155844,0.2727272727272727,0.14285714285714285,0.2792207792207792,0.05194805194805195,0.2727272727272727,0.006493506493506494,0.2857142857142857,-0.05194805194805195,0.2727272727272727,1
001.jpg,-0.47297297297297297,-0.14864864864864866,-0.46621621621621623,-0.02027027027027027,-0.4391891891891892,0.10135135135135136,-0.41216216216216217,0.22297297297297297,-0.3716216216216216,0.3310810810810811,-0.30405405405405406,0.4391891891891892,-0.21621621621621623,0.527027027027027,-0.11486486486486487,0.6013513513513513,0.0,0.6216216216216216,0.10810810810810811,0.6081081081081081,0.20945945945945946,0.5337837837837838,0.2972972972972973,0.4527027027027027,0.36486486486486486,0.3581081081081081,0.40540540540540543,0.24324324324324326,0.43243243243243246,0.12162162162162163,0.4594594594594595,0.006756756756756757,0.4797297297297297,-0.12162162162162163,-0.4189189189189189,-0.25675675675675674,-0.35135135135135137,-0.32432432432432434,-0.25,-0.33783783783783783,-0.14864864864864866,-0.32432432432432434,-0.0472972972972973,-0.2905405405405405,0.06756756756756757,-0.28378378378378377,0.17567567567567569,-0.30405405405405406,0.2702702702702703,-0.31756756756756754,0.3716216216216216,-0.30405405405405406,0.43243243243243246,-0.23648648648648649,0.013513513513513514,-0.21621621621621623,0.006756756756756757,-0.14864864864864866,0.006756756756756757,-0.07432432432432433,0.006756756756756757,0.006756756756756757,-0.0945945945945946,0.08108108108108109,-0.0472972972972973,0.0945945945945946,0.0,0.10810810810810811,0.0472972972972973,0.0945945945945946,0.0945945945945946,0.08108108108108109,-0.30405405405405406,-0.1891891891891892,-0.25,-0.21621621621621623,-0.1891891891891892,-0.22297297297297297,-0.13513513513513514,-0.1891891891891892,-0.19594594594594594,-0.18243243243243243,-0.25,-0.17567567567567569,0.14864864864864866,-0.1891891891891892,0.20270270270270271,-0.21621621621621623,0.2702702702702703,-0.20945945945945946,0.31756756756756754,-0.18243243243243243,0.2635135135135135,-0.16891891891891891,0.20270270270270271,-0.17567567567567569,-0.16891891891891891,0.2972972972972973,-0.11486486486486487,0.2635135135135135,-0.0472972972972973,0.24324324324324326,-0.006756756756756757,0.25675675675675674,0.04054054054054054,0.24324324324324326,0.10810810810810811,0.2702702702702703,0.16216216216216217,0.2972972972972973,0.10810810810810811,0.34459459459459457,0.04054054054054054,0.3783783783783784,-0.006756756756756757,0.38513513513513514,-0.05405405405405406,0.3783783783783784,-0.11486486486486487,0.34459459459459457,-0.13513513513513514,0.30405405405405406,-0.05405405405405406,0.2972972972972973,-0.006756756756756757,0.30405405405405406,0.04054054054054054,0.2972972972972973,0.12837837837837837,0.2972972972972973,0.04054054054054054,0.2972972972972973,-0.006756756756756757,0.3108108108108108,-0.05405405405405406,0.2972972972972973,1
002.jpg,-0.4785714285714286,0.06428571428571428,-0.4642857142857143,0.18571428571428572,-0.44285714285714284,0.30714285714285716,-0.42142857142857143,0.42142857142857143,-0.37857142857142856,0.5214285714285715,-0.30714285714285716,0.6,-0.21428571428571427,0.65,-0.10714285714285714,0.6928571428571428,0.014285714285714285,0.7071428571428572,0.14285714285714285,0.6928571428571428,0.2571428571428571,0.65,0.35,0.5928571428571429,0.42142857142857143,0.5071428571428571,0.45714285714285713,0.40714285714285714,0.4785714285714286,0.2857142857142857,0.4928571428571429,0.17142857142857143,0.5071428571428571,0.04285714285714286,-0.42142857142857143,-0.17857142857142858,-0.37857142857142856,-0.2642857142857143,-0.2857142857142857,-0.3142857142857143,-0.18571428571428572,-0.32142857142857145,-0.07857142857142857,-0.29285714285714287,0.07857142857142857,-0.2714285714285714,0.17857142857142858,-0.30714285714285716,0.2857142857142857,-0.3,0.37857142857142856,-0.2571428571428571,0.42857142857142855,-0.17142857142857143,0.0,-0.17142857142857143,0.0,-0.12857142857142856,0.0,-0.08571428571428572,0.0,-0.03571428571428571,-0.09285714285714286,0.08571428571428572,-0.04285714285714286,0.1,0.007142857142857143,0.10714285714285714,0.05,0.1,0.1,0.08571428571428572,-0.3,-0.08571428571428572,-0.25,-0.1,-0.2,-0.11428571428571428,-0.14285714285714285,-0.11428571428571428,-0.2,-0.1,-0.24285714285714285,-0.08571428571428572,0.14285714285714285,-0.10714285714285714,0.2,-0.11428571428571428,0.2571428571428571,-0.1,0.3142857142857143,-0.07857142857142857,0.25,-0.08571428571428572,0.2,-0.09285714285714286,-0.17857142857142858,0.35,-0.10714285714285714,0.2785714285714286,-0.04285714285714286,0.24285714285714285,0.007142857142857143,0.2571428571428571,0.05714285714285714,0.24285714285714285,0.12142857142857143,0.2785714285714286,0.19285714285714287,0.3357142857142857,0.12857142857142856,0.37857142857142856,0.06428571428571428,0.40714285714285714,0.007142857142857143,0.4142857142857143,-0.04285714285714286,0.40714285714285714,-0.10714285714285714,0.39285714285714285,-0.14285714285714285,0.34285714285714286,-0.04285714285714286,0.30714285714285716,0.007142857142857143,0.30714285714285716,0.05714285714285714,0.30714285714285716,0.15,0.3357142857142857,0.05714285714285714,0.32857142857142857,0.007142857142857143,0.3357142857142857,-0.04285714285714286,0.3357142857142857,1
003.jpg,-0.5034965034965035,-0.055944055944055944,-0.48951048951048953,0.07692307692307693,-0.46853146853146854,0.20279720279720279,-0.44755244755244755,0.32867132867132864,-0.3986013986013986,0.44755244755244755,-0.32167832167832167,0.5384615384615384,-0.23076923076923078,0.6083916083916084,-0.11888111888111888,0.6643356643356644,0.006993006993006993,0.6853146853146853,0.1258741258741259,0.6643356643356644,0.23776223776223776,0.6013986013986014,0.32867132867132864,0.5244755244755245,0.3916083916083916,0.43356643356643354,0.42657342657342656,0.32167832167832167,0.44755244755244755,0.20279720279720279,0.46853146853146854,0.08391608391608392,0.4825174825174825,-0.04195804195804196,-0.43356643356643354,-0.23776223776223776,-0.3776223776223776,-0.3146853146853147,-0.2727272727272727,-0.34265734265734266,-0.16783216783216784,-0.3356643356643357,-0.06293706293706294,-0.3076923076923077,0.07692307692307693,-0.2867132867132867,0.18181818181818182,-0.3146853146853147,0.2867132867132867,-0.3146853146853147,0.38461538461538464,-0.27972027972027974,0.4405594405594406,-0.1958041958041958,0.006993006993006993,-0.1888111888111888,0.006993006993006993,-0.13286713286713286,0.006993006993006993,-0.08391608391608392,0.013986013986013986,-0.02097902097902098,-0.09090909090909091,0.08391608391608392,-0.04195804195804196,0.0979020979020979,0.006993006993006993,0.11188811188811189,0.04895104895104895,0.0979020979020979,0.0979020979020979,0.09090909090909091,-0.3076923076923077,-0.13986013986013987,-0.2517482517482518,-0.15384615384615385,-0.1958041958041958,-0.16083916083916083,-0.13986013986013987,-0.15384615384615385,-0.1958041958041958,-0.13986013986013987,-0.2517482517482518,-0.13986013986013987,0.14685314685314685,-0.13986013986013987,0.20279720279720279,-0.14685314685314685,0.25874125874125875,-0.13286713286713286,0.3076923076923077,-0.11188811188811189,0.2517482517482518,-0.11888111888111888,0.1958041958041958,-0.1258741258741259,-0.18181818181818182,0.32867132867132864,-0.11188811188811189,0.27972027972027974,-0.04195804195804196,0.2517482517482518,0.006993006993006993,0.26573426573426573,0.055944055944055944,0.2517482517482518,0.11888111888111888,0.27972027972027974,0.18181818181818182,0.32167832167832167,0.11888111888111888,0.3706293706293706,0.06293706293706294,0.40559440559440557,0.006993006993006993,0.40559440559440557,-0.04895104895104895,0.3986013986013986,-0.11888111888111888,0.3776223776223776,-0.14685314685314685,0.32867132867132864,-0.04195804195804196,0.3146853146853147,0.006993006993006993,0.32167832167832167,0.055944055944055944,0.3146853146853147,0.14685314685314685,0.32167832167832167,0.055944055944055944,0.3146853146853147,0.006993006993006993,0.32867132867132864,-0.04195804195804196,0.32167832167832167,1
004.jpg,-0.4868421052631579,-0.1118421052631579,-0.47368421052631576,0.019736842105263157,-0.4407894736842105,0.14473684210526316,-0.4144736842105263,0.2631578947368421,-0.3684210526315789,0.3815789473684211,-0.2894736842105263,0.48026315789473684,-0.20394736842105263,0.5592105263157895,-0.09868421052631579,0.625,0.013157894736842105,0.6447368421052632,0.125,0.618421052631579,0.2236842105263158,0.5460526315789473,0.3092105263157895,0.46710526315789475,0.375,0.3684210526315789,0.4144736842105263,0.25,0.4342105263157895,0.13157894736842105,0.4605263157894737,0.006578947368421052,0.47368421052631576,-0.125,-0.4276315789473684,-0.24342105263157895,-0.3684210526315789,-0.3157894736842105,-0.26973684210526316,-0.3355263157894737,-0.17105263157894737,-0.32894736842105265,-0.06578947368421052,-0.3026315789473684,0.06578947368421052,-0.2894736842105263,0.16447368421052633,-0.3157894736842105,0.2631578947368421,-0.32894736842105265,0.3618421052631579,-0.3092105263157895,0.42105263157894735,-0.23684210526315788,0.0,-0.20394736842105263,0.0,-0.14473684210526316,0.006578947368421052,-0.07894736842105263,0.006578947368421052,-0.006578947368421052,-0.09210526315789473,0.07894736842105263,-0.046052631578947366,0.09210526315789473,0.006578947368421052,0.10526315789473684,0.046052631578947366,0.09210526315789473,0.09210526315789473,0.07894736842105263,-0.3026315789473684,-0.15789473684210525,-0.25,-0.17105263157894737,-0.19736842105263158,-0.18421052631578946,-0.14473684210526316,-0.17105263157894737,-0.19736842105263158,-0.15789473684210525,-0.25,-0.1513157894736842,0.13157894736842105,-0.17105263157894737,0.18421052631578946,-0.17763157894736842,0.24342105263157895,-0.17105263157894737,0.29605263157894735,-0.15789473684210525,0.23684210526315788,-0.1513157894736842,0.18421052631578946,-0.15789473684210525,-0.16447368421052633,0.3092105263157895,-0.09868421052631579,0.26973684210526316,-0.039473684210526314,0.24342105263157895,0.006578947368421052,0.2565789473684211,0.05263157894736842,0.24342105263157895,0.1118421052631579,0.2631578947368421,0.17105263157894737,0.29605263157894735,0.1118421052631579,0.35526315789473684,0.05921052631578947,0.3815789473684211,0.006578947368421052,0.39473684210526316,-0.039473684210526314,0.3881578947368421,-0.09868421052631579,0.3618421052631579,-0.125,0.3092105263157895,-0.039473684210526314,0.3026315789473684,0.006578947368421052,0.3026315789473684,0.05263157894736842,0.29605263157894735,0.13157894736842105,0.3026315789473684,0.05263157894736842,0.3026315789473684,0.006578947368421052,0.3157894736842105,-0.039473684210526314,0.3092105263157895,1
005.jpg,-0.4827586206896552,-0.04827586206896552,-0.4689655172413793,0.08275862068965517,-0.4413793103448276,0.20689655172413793,-0.41379310344827586,0.3310344827586207,-0.3724137931034483,0.4413793103448276,-0.296551724137931,0.5379310344827586,-0.20689655172413793,0.6137931034482759,-0.10344827586206896,0.6758620689655173,0.013793103448275862,0.696551724137931,0.1310344827586207,0.6689655172413793,0.23448275862068965,0.6,0.3310344827586207,0.5172413793103449,0.4,0.4206896551724138,0.43448275862068964,0.3103448275862069,0.46206896551724136,0.18620689655172415,0.4827586206896552,0.06206896551724138,0.496551724137931,-0.06896551724137931,-0.4413793103448276,-0.2206896551724138,-0.38620689655172413,-0.30344827586206896,-0.2896551724137931,-0.33793103448275863,-0.1793103448275862,-0.3310344827586207,-0.07586206896551724,-0.30344827586206896,0.06896551724137931,-0.296551724137931,0.1793103448275862,-0.32413793103448274,0.2896551724137931,-0.3310344827586207,0.3931034482758621,-0.30344827586206896,0.4482758620689655,-0.21379310344827587,0.0,-0.21379310344827587,0.0,-0.14482758620689656,0.0,-0.08275862068965517,0.0,-0.006896551724137931,-0.09655172413793103,0.0896551724137931,-0.04827586206896552,0.10344827586206896,0.0,0.11724137931034483,0.04827586206896552,0.10344827586206896,0.09655172413793103,0.0896551724137931,-0.32413793103448274,-0.15862068965517243,-0.2689655172413793,-0.19310344827586207,-0.20689655172413793,-0.2,-0.14482758620689656,-0.1724137931034483,-0.20689655172413793,-0.15862068965517243,-0.2689655172413793,-0.15172413793103448,0.15172413793103448,-0.1724137931034483,0.21379310344827587,-0.2,0.27586206896551724,-0.19310344827586207,0.3310344827586207,-0.15862068965517243,0.27586206896551724,-0.15172413793103448,0.21379310344827587,-0.15862068965517243,-0.1793103448275862,0.33793103448275863,-0.1103448275862069,0.2896551724137931,-0.04827586206896552,0.25517241379310346,0.006896551724137931,0.2689655172413793,0.05517241379310345,0.2482758620689655,0.12413793103448276,0.27586206896551724,0.18620689655172415,0.31724137931034485,0.12413793103448276,0.3793103448275862,0.06206896551724138,0.41379310344827586,0.006896551724137931,0.4206896551724138,-0.04827586206896552,0.41379310344827586,-0.11724137931034483,0.3931034482758621,-0.13793103448275862,0.33793103448275863,-0.04827586206896552,0.31724137931034485,0.006896551724137931,0.31724137931034485,0.05517241379310345,0.3103448275862069,0.15172413793103448,0.32413793103448274,0.05517241379310345,0.32413793103448274,0.006896551724137931,0.33793103448275863,-0.04827586206896552,0.3310344827586207,1
006.jpg,-0.5066666666666667,-0.08,-0.49333333333333335,0.04666666666666667,-0.4666666666666667,0.17333333333333334,-0.44,0.29333333333333333,-0.4,0.4066666666666667,-0.32666666666666666,0.5,-0.23333333333333334,0.5733333333333334,-0.12,0.64,0.0,0.6533333333333333,0.11333333333333333,0.6333333333333333,0.21333333333333335,0.56,0.3,0.48,0.36666666666666664,0.38666666666666666,0.4,0.2733333333333333,0.4266666666666667,0.16,0.44666666666666666,0.04666666666666667,0.4666666666666667,-0.08,-0.44,-0.23333333333333334,-0.38,-0.30666666666666664,-0.28,-0.3333333333333333,-0.18,-0.32666666666666666,-0.07333333333333333,-0.3,0.08,-0.2866666666666667,0.18,-0.30666666666666664,0.2733333333333333,-0.31333333333333335,0.36666666666666664,-0.2866666666666667,0.42,-0.21333333333333335,0.006666666666666667,-0.21333333333333335,0.006666666666666667,-0.14666666666666667,0.006666666666666667,-0.08,0.006666666666666667,-0.006666666666666667,-0.1,0.08,-0.04666666666666667,0.09333333333333334,0.0,0.10666666666666667,0.04666666666666667,0.09333333333333334,0.09333333333333334,0.08,-0.32666666666666666,-0.17333333333333334,-0.26666666666666666,-0.2,-0.20666666666666667,-0.20666666666666667,-0.16,-0.18666666666666668,-0.21333333333333335,-0.17333333333333334,-0.26666666666666666,-0.16666666666666666,0.14666666666666667,-0.18,0.2,-0.2,0.26,-0.19333333333333333,0.30666666666666664,-0.16,0.26,-0.16666666666666666,0.2,-0.16666666666666666,-0.19333333333333333,0.31333333333333335,-0.12666666666666668,0.26666666666666666,-0.05333333333333334,0.24,0.0,0.25333333333333335,0.04666666666666667,0.24,0.12,0.2733333333333333,0.17333333333333334,0.31333333333333335,0.11333333333333333,0.36666666666666664,0.04666666666666667,0.4,-0.006666666666666667,0.4066666666666667,-0.06666666666666667,0.4,-0.13333333333333333,0.36666666666666664,-0.15333333333333332,0.32,-0.06,0.29333333333333333,-0.006666666666666667,0.3,0.04666666666666667,0.29333333333333333,0.14,0.32,0.04666666666666667,0.31333333333333335,-0.006666666666666667,0.32666666666666666,-0.06,0.32,1
007.jpg,-0.49673202614379086,-0.10457516339869281,-0.48366013071895425,0.026143790849673203,-0.46405228758169936,0.1568627450980392,-0.43137254901960786,0.28104575163398693,-0.38562091503267976,0.39215686274509803,-0.3137254901960784,0.49673202614379086,-0.2222222222222222,0.5751633986928104,-0.11764705882352941,0.6470588235294118,0.0,0.6601307189542484,0.11764705882352941,0.6405228758169934,0.2222222222222222,0.5686274509803921,0.30718954248366015,0.49019607843137253,0.3790849673202614,0.39215686274509803,0.4117647058823529,0.27450980392156865,0.43790849673202614,0.1503267973856209,0.46405228758169936,0.026143790849673203,0.48366013071895425,-0.10457516339869281,-0.4444444444444444,-0.24183006535947713,-0.3790849673202614,-0.3137254901960784,-0.28104575163398693,-0.3333333333333333,-0.17647058823529413,-0.3202614379084967,-0.06535947712418301,-0.3006535947712418,0.0784313725490196,-0.2875816993464052,0.1830065359477124,-0.30718954248366015,0.28104575163398693,-0.3202614379084967,0.37254901960784315,-0.3006535947712418,0.43137254901960786,-0.23529411764705882,0.006535947712418301,-0.21568627450980393,0.006535947712418301,-0.1437908496732026,0.006535947712418301,-0.0718954248366013,0.006535947712418301,0.006535947712418301,-0.09803921568627451,0.08496732026143791,-0.05228758169934641,0.09803921568627451,0.0,0.11764705882352941,0.05228758169934641,0.09803921568627451,0.0915032679738562,0.0784313725490196,-0.3202614379084967,-0.16339869281045752,-0.2679738562091503,-0.17647058823529413,-0.20915032679738563,-0.1895424836601307,-0.1568627450980392,-0.1830065359477124,-0.20915032679738563,-0.16993464052287582,-0.2679738562091503,-0.16339869281045752,0.1503267973856209,-0.1830065359477124,0.20915032679738563,-0.1830065359477124,0.26143790849673204,-0.17647058823529413,0.3137254901960784,-0.1568627450980392,0.2549019607843137,-0.1568627450980392,0.20261437908496732,-0.16993464052287582,-0.1895424836601307,0.32679738562091504,-0.12418300653594772,0.28104575163398693,-0.058823529411764705,0.24836601307189543,0.0,0.2679738562091503,0.05228758169934641,0.24836601307189543,0.11764705882352941,0.27450980392156865,0.17647058823529413,0.3137254901960784,0.11764705882352941,0.3660130718954248,0.05228758169934641,0.40522875816993464,0.0,0.4117647058823529,-0.058823529411764705,0.40522875816993464,-0.13071895424836602,0.37254901960784315,-0.1503267973856209,0.32679738562091504,-0.058823529411764705,0.30718954248366015,0.0,0.3137254901960784,0.05228758169934641,0.30718954248366015,0.13725490196078433,0.3202614379084967,0.05228758169934641,0.3202614379084967,0.0,0.3333333333333333,-0.058823529411764705,0.3202614379084967,1
008.jpg,-0.48,-0.08666666666666667,-0.4666666666666667,0.04666666666666667,-0.44,0.17333333333333334,-0.4066666666666667,0.29333333333333333,-0.36,0.4066666666666667,-0.29333333333333333,0.5066666666666667,-0.21333333333333335,0.5866666666666667,-0.11333333333333333,0.6533333333333333,0.006666666666666667,0.6733333333333333,0.12666666666666668,0.6533333333333333,0.22666666666666666,0.58,0.32,0.5,0.3933333333333333,0.4,0.43333333333333335,0.2866666666666667,0.46,0.16666666666666666,0.4866666666666667,0.04,0.5066666666666667,-0.09333333333333334,-0.43333333333333335,-0.22,-0.37333333333333335,-0.30666666666666664,-0.26666666666666666,-0.32666666666666666,-0.16,-0.32,-0.05333333333333334,-0.29333333333333333,0.07333333333333333,-0.2866666666666667,0.18,-0.31333333333333335,0.28,-0.32666666666666666,0.38666666666666666,-0.30666666666666664,0.44666666666666666,-0.22666666666666666,0.006666666666666667,-0.21333333333333335,0.0,-0.14666666666666667,0.0,-0.08,0.0,0.0,-0.1,0.08,-0.05333333333333334,0.1,0.0,0.11333333333333333,0.05333333333333334,0.1,0.1,0.08666666666666667,-0.31333333333333335,-0.17333333333333334,-0.26,-0.19333333333333333,-0.2,-0.2,-0.14666666666666667,-0.18,-0.20666666666666667,-0.17333333333333334,-0.26,-0.16666666666666666,0.16,-0.18,0.20666666666666667,-0.20666666666666667,0.26666666666666666,-0.2,0.32666666666666666,-0.17333333333333334,0.26666666666666666,-0.17333333333333334,0.21333333333333335,-0.17333333333333334,-0.18,0.32666666666666666,-0.12666666666666668,0.2733333333333333,-0.06,0.24,-0.006666666666666667,0.25333333333333335,0.04666666666666667,0.24,0.12,0.2733333333333333,0.18666666666666668,0.31333333333333335,0.12,0.38,0.05333333333333334,0.42,0.0,0.4266666666666667,-0.06,0.42,-0.12666666666666668,0.38666666666666666,-0.14666666666666667,0.32666666666666666,-0.06,0.2866666666666667,-0.006666666666666667,0.29333333333333333,0.04666666666666667,0.2866666666666667,0.14666666666666667,0.32,0.05333333333333334,0.3466666666666667,0.0,0.35333333333333333,-0.06,0.3466666666666667,1
009.jpg,-0.49333333333333335,-0.2,-0.47333333333333333,-0.06666666666666667,-0.44666666666666666,0.06,-0.42,0.19333333333333333,-0.37333333333333335,0.31333333333333335,-0.29333333333333333,0.42,-0.20666666666666667,0.5133333333333333,-0.1,0.6,0.013333333333333334,0.62,0.12,0.6,0.22666666666666666,0.5133333333333333,0.31333333333333335,0.4266666666666667,0.3933333333333333,0.32,0.43333333333333335,0.2,0.46,0.07333333333333333,0.4866666666666667,-0.05333333333333334,0.5066666666666667,-0.19333333333333333,-0.44,-0.2733333333333333,-0.37333333333333335,-0.34,-0.26666666666666666,-0.3466666666666667,-0.16666666666666666,-0.3333333333333333,-0.06,-0.30666666666666664,0.07333333333333333,-0.3,0.18,-0.32666666666666666,0.28,-0.3466666666666667,0.38666666666666666,-0.3333333333333333,0.4533333333333333,-0.26666666666666666,0.006666666666666667,-0.24,0.0,-0.15333333333333332,0.0,-0.06666666666666667,0.0,0.02,-0.1,0.08,-0.05333333333333334,0.09333333333333334,0.0,0.11333333333333333,0.05333333333333334,0.1,0.1,0.08,-0.31333333333333335,-0.18666666666666668,-0.26,-0.19333333333333333,-0.2,-0.20666666666666667,-0.15333333333333332,-0.20666666666666667,-0.2,-0.18666666666666668,-0.26,-0.18,0.15333333333333332,-0.2,0.20666666666666667,-0.20666666666666667,0.26666666666666666,-0.2,0.32,-0.18666666666666668,0.26666666666666666,-0.18666666666666668,0.20666666666666667,-0.18666666666666668,-0.17333333333333334,0.3,-0.12,0.26666666666666666,-0.05333333333333334,0.24666666666666667,0.0,0.26666666666666666,0.05333333333333334,0.24666666666666667,0.12666666666666668,0.2733333333333333,0.18666666666666668,0.2866666666666667,0.12666666666666668,0.3466666666666667,0.06,0.38,0.0,0.38666666666666666,-0.06,0.38,-0.12,0.3466666666666667,-0.14666666666666667,0.30666666666666664,-0.06,0.3,0.0,0.31333333333333335,0.06,0.3,0.15333333333333332,0.29333333333333333,0.06,0.3,0.0,0.31333333333333335,-0.06,0.3,1
010.jpg,-0.484375,0.0234375,-0.46875,0.1484375,-0.453125,0.265625,-0.4375,0.3828125,-0.40625,0.5,-0.34375,0.59375,-0.2421875,0.6640625,-0.125,0.703125,0.0234375,0.703125,0.171875,0.6875,0.296875,0.640625,0.3984375,0.5703125,0.4609375,0.46875,0.4921875,0.3515625,0.5078125,0.2265625,0.515625,0.1015625,0.515625,-0.03125,-0.421875,-0.171875,-0.3671875,-0.2578125,-0.28125,-0.3125,-0.1796875,-0.328125,-0.0703125,-0.3125,0.0546875,-0.3203125,0.15625,-0.34375,0.265625,-0.3359375,0.359375,-0.2890625,0.421875,-0.2109375,-0.0078125,-0.2109375,0.0,-0.15625,0.0,-0.09375,0.0,-0.03125,-0.078125,0.109375,-0.0390625,0.109375,0.0078125,0.109375,0.0546875,0.109375,0.09375,0.1015625,-0.3125,-0.125,-0.2578125,-0.171875,-0.1875,-0.1796875,-0.1171875,-0.140625,-0.1875,-0.1171875,-0.25,-0.1171875,0.125,-0.1484375,0.1875,-0.1953125,0.2578125,-0.1953125,0.3125,-0.1484375,0.2578125,-0.1328125,0.1953125,-0.140625,-0.1953125,0.34375,-0.1171875,0.28125,-0.046875,0.234375,0.0078125,0.25,0.0625,0.234375,0.140625,0.265625,0.2265625,0.3359375,0.140625,0.359375,0.0703125,0.3671875,0.015625,0.3671875,-0.0390625,0.3671875,-0.1171875,0.359375,-0.1640625,0.3359375,-0.0390625,0.296875,0.0078125,0.296875,0.0625,0.296875,0.1875,0.328125,0.0625,0.296875,0.015625,0.3046875,-0.0390625,0.296875,2
011.jpg,-0.475,0.041666666666666664,-0.4666666666666667,0.15833333333333333,-0.45,0.275,-0.43333333333333335,0.4,-0.4083333333333333,0.5083333333333333,-0.35,0.6083333333333333,-0.25,0.675,-0.13333333333333333,0.7166666666666667,0.016666666666666666,0.7166666666666667,0.16666666666666666,0.7,0.3,0.6583333333333333,0.4,0.5916666666666667,0.4666666666666667,0.5,0.5,0.38333333333333336,0.5166666666666667,0.25833333333333336,0.5166666666666667,0.13333333333333333,0.525,0.008333333333333333,-0.4166666666666667,-0.175,-0.36666666666666664,-0.25833333333333336,-0.2833333333333333,-0.31666666666666665,-0.175,-0.3333333333333333,-0.075,-0.31666666666666665,0.06666666666666667,-0.325,0.16666666666666666,-0.35,0.275,-0.3416666666666667,0.375,-0.2916666666666667,0.43333333333333335,-0.21666666666666667,0.0,-0.20833333333333334,0.0,-0.15,0.0,-0.1,0.0,-0.041666666666666664,-0.08333333333333333,0.10833333333333334,-0.041666666666666664,0.10833333333333334,0.0,0.10833333333333334,0.05,0.1,0.09166666666666666,0.1,-0.30833333333333335,-0.10833333333333334,-0.25833333333333336,-0.15833333333333333,-0.18333333333333332,-0.16666666666666666,-0.11666666666666667,-0.125,-0.18333333333333332,-0.10833333333333334,-0.25,-0.1,0.13333333333333333,-0.14166666666666666,0.2,-0.18333333333333332,0.26666666666666666,-0.18333333333333332,0.325,-0.14166666666666666,0.26666666666666666,-0.13333333333333333,0.2,-0.13333333333333333,-0.19166666666666668,0.35833333333333334,-0.125,0.2833333333333333,-0.05,0.24166666666666667,0.0,0.25,0.05,0.23333333333333334,0.13333333333333333,0.26666666666666666,0.225,0.3416666666666667,0.14166666666666666,0.375,0.06666666666666667,0.39166666666666666,0.008333333333333333,0.39166666666666666,-0.041666666666666664,0.39166666666666666,-0.11666666666666667,0.39166666666666666,-0.15833333333333333,0.35,-0.05,0.30833333333333335,0.0,0.30833333333333335,0.058333333333333334,0.3,0.18333333333333332,0.3333333333333333,0.058333333333333334,0.31666666666666665,0.008333333333333333,0.325,-0.041666666666666664,0.325,2
012.jpg,-0.49242424242424243,0.007575757575757576,-0.4772727272727273,0.12878787878787878,-0.45454545454545453,0.25757575757575757,-0.4393939393939394,0.3787878787878788,-0.4090909090909091,0.49242424242424243,-0.3484848484848485,0.5909090909090909,-0.25,0.6590909090909091,-0.12121212121212122,0.696969696969697,0.030303030303030304,0.696969696969697,0.17424242424242425,0.6818181818181818,0.29545454545454547,0.6363636363636364,0.38636363636363635,0.5606060606060606,0.45454545454545453,0.45454545454545453,0.48484848484848486,0.3409090909090909,0.49242424242424243,0.21212121212121213,0.5,0.08333333333333333,0.5075757575757576,-0.045454545454545456,-0.4318181818181818,-0.17424242424242425,-0.38636363636363635,-0.2727272727272727,-0.29545454545454547,-0.32575757575757575,-0.1893939393939394,-0.3484848484848485,-0.08333333333333333,-0.32575757575757575,0.045454545454545456,-0.3333333333333333,0.15151515151515152,-0.36363636363636365,0.26515151515151514,-0.3484848484848485,0.3560606060606061,-0.3106060606060606,0.4166666666666667,-0.22727272727272727,-0.007575757575757576,-0.21212121212121213,-0.007575757575757576,-0.15151515151515152,0.0,-0.09848484848484848,0.0,-0.030303030303030304,-0.09090909090909091,0.10606060606060606,-0.045454545454545456,0.10606060606060606,0.007575757575757576,0.11363636363636363,0.05303030303030303,0.10606060606060606,0.09848484848484848,0.09848484848484848,-0.32575757575757575,-0.12878787878787878,-0.2727272727272727,-0.18181818181818182,-0.19696969696969696,-0.1893939393939394,-0.12878787878787878,-0.13636363636363635,-0.19696969696969696,-0.12121212121212122,-0.26515151515151514,-0.11363636363636363,0.11363636363636363,-0.1590909090909091,0.1893939393939394,-0.20454545454545456,0.25757575757575757,-0.21212121212121213,0.3106060606060606,-0.1590909090909091,0.25757575757575757,-0.14393939393939395,0.1893939393939394,-0.14393939393939395,-0.19696969696969696,0.3409090909090909,-0.11363636363636363,0.2803030303030303,-0.045454545454545456,0.24242424242424243,0.007575757575757576,0.25,0.06060606060606061,0.23484848484848486,0.13636363636363635,0.26515151515151514,0.2196969696969697,0.32575757575757575,0.14393939393939395,0.3484848484848485,0.06818181818181818,0.36363636363636365,0.015151515151515152,0.36363636363636365,-0.03787878787878788,0.36363636363636365,-0.10606060606060606,0.3560606060606061,-0.1590909090909091,0.3333333333333333,-0.045454545454545456,0.30303030303030304,0.007575757575757576,0.30303030303030304,0.06060606060606061,0.29545454545454547,0.18181818181818182,0.3181818181818182,0.06060606060606061,0.2878787878787879,0.007575757575757576,0.30303030303030304,-0.03787878787878788,0.29545454545454547,2
013.jpg,-0.46616541353383456,-0.08270676691729323,-0.45112781954887216,0.045112781954887216,-0.43609022556390975,0.16541353383458646,-0.42105263157894735,0.2932330827067669,-0.39097744360902253,0.41353383458646614,-0.3383458646616541,0.518796992481203,-0.24060150375939848,0.6090225563909775,-0.12030075187969924,0.6616541353383458,0.015037593984962405,0.6691729323308271,0.15037593984962405,0.6541353383458647,0.2706766917293233,0.6015037593984962,0.3609022556390977,0.5112781954887218,0.42857142857142855,0.40601503759398494,0.45864661654135336,0.2781954887218045,0.47368421052631576,0.15037593984962405,0.48120300751879697,0.015037593984962405,0.48872180451127817,-0.12030075187969924,-0.42105263157894735,-0.22556390977443608,-0.3684210526315789,-0.3082706766917293,-0.2781954887218045,-0.3533834586466165,-0.17293233082706766,-0.3609022556390977,-0.06766917293233082,-0.3308270676691729,0.05263157894736842,-0.3458646616541353,0.15789473684210525,-0.37593984962406013,0.2556390977443609,-0.37593984962406013,0.3533834586466165,-0.3458646616541353,0.41353383458646614,-0.2706766917293233,0.0,-0.23308270676691728,0.0,-0.15789473684210525,0.0,-0.09022556390977443,0.0,-0.007518796992481203,-0.08270676691729323,0.09774436090225563,-0.045112781954887216,0.10526315789473684,0.007518796992481203,0.11278195488721804,0.05263157894736842,0.10526315789473684,0.09774436090225563,0.09774436090225563,-0.3157894736842105,-0.17293233082706766,-0.2631578947368421,-0.21804511278195488,-0.18796992481203006,-0.22556390977443608,-0.12781954887218044,-0.17293233082706766,-0.18796992481203006,-0.15789473684210525,-0.2556390977443609,-0.15037593984962405,0.12030075187969924,-0.18045112781954886,0.18796992481203006,-0.24060150375939848,0.2631578947368421,-0.24060150375939848,0.3157894736842105,-0.19548872180451127,0.2631578947368421,-0.17293233082706766,0.19548872180451127,-0.17293233082706766,-0.18796992481203006,0.3233082706766917,-0.11278195488721804,0.2706766917293233,-0.045112781954887216,0.24060150375939848,0.007518796992481203,0.2556390977443609,0.06015037593984962,0.24060150375939848,0.13533834586466165,0.2631578947368421,0.21052631578947367,0.3157894736842105,0.14285714285714285,0.3458646616541353,0.07518796992481203,0.3609022556390977,0.015037593984962405,0.3684210526315789,-0.045112781954887216,0.3684210526315789,-0.11278195488721804,0.3533834586466165,-0.15037593984962405,0.3157894736842105,-0.045112781954887216,0.3007518796992481,0.007518796992481203,0.3007518796992481,0.06766917293233082,0.2932330827067669,0.18045112781954886,0.3082706766917293,0.06766917293233082,0.2932330827067669,0.007518796992481203,0.3007518796992481,-0.045112781954887216,0.3007518796992481,2
014.jpg,-0.49206349206349204,0.047619047619047616,-0.48412698412698413,0.16666666666666666,-0.46825396825396826,0.2857142857142857,-0.4523809523809524,0.40476190476190477,-0.42063492063492064,0.5238095238095238,-0.35714285714285715,0.6190476190476191,-0.2619047619047619,0.6825396825396826,-0.1349206349206349,0.7222222222222222,0.023809523809523808,0.7222222222222222,0.1746031746031746,0.7063492063492064,0.30158730158730157,0.6666666666666666,0.3968253968253968,0.5952380952380952,0.4603174603174603,0.49206349206349204,0.49206349206349204,0.373015873015873,0.5,0.25396825396825395,0.5079365079365079,0.12698412698412698,0.5079365079365079,0.0,-0.4365079365079365,-0.1746031746031746,-0.38095238095238093,-0.2698412698412698,-0.29365079365079366,-0.3253968253968254,-0.19047619047619047,-0.3412698412698413,-0.07936507936507936,-0.3253968253968254,0.05555555555555555,-0.3333333333333333,0.15873015873015872,-0.35714285714285715,0.2698412698412698,-0.3412698412698413,0.36507936507936506,-0.29365079365079366,0.42857142857142855,-0.20634920634920634,-0.007936507936507936,-0.21428571428571427,0.0,-0.15873015873015872,0.0,-0.10317460317460317,0.0,-0.03968253968253968,-0.0873015873015873,0.10317460317460317,-0.047619047619047616,0.10317460317460317,0.0,0.1111111111111111,0.047619047619047616,0.10317460317460317,0.09523809523809523,0.10317460317460317,-0.3253968253968254,-0.11904761904761904,-0.2698412698412698,-0.16666666666666666,-0.1984126984126984,-0.1746031746031746,-0.12698412698412698,-0.1349206349206349,-0.1984126984126984,-0.11904761904761904,-0.2698412698412698,-0.1111111111111111,0.11904761904761904,-0.14285714285714285,0.19047619047619047,-0.19047619047619047,0.2619047619047619,-0.19047619047619047,0.31746031746031744,-0.14285714285714285,0.2619047619047619,-0.12698412698412698,0.19047619047619047,-0.1349206349206349,-0.20634920634920634,0.3492063492063492,-0.12698412698412698,0.2857142857142857,-0.047619047619047616,0.24603174603174602,0.007936507936507936,0.25396825396825395,0.05555555555555555,0.23809523809523808,0.1349206349206349,0.2698412698412698,0.2222222222222222,0.3412698412698413,0.14285714285714285,0.35714285714285715,0.06349206349206349,0.35714285714285715,0.015873015873015872,0.35714285714285715,-0.03968253968253968,0.35714285714285715,-0.11904761904761904,0.36507936507936506,-0.1746031746031746,0.3412698412698413,-0.047619047619047616,0.30158730158730157,0.007936507936507936,0.30158730158730157,0.05555555555555555,0.30158730158730157,0.19047619047619047,0.3333333333333333,0.06349206349206349,0.30158730158730157,0.007936507936507936,0.30158730158730157,-0.047619047619047616,0.30158730158730157,2
015.jpg,-0.49606299212598426,0.05511811023622047,-0.48031496062992124,0.16535433070866143,-0.4645669291338583,0.28346456692913385,-0.4409448818897638,0.4015748031496063,-0.4015748031496063,0.5039370078740157,-0.33858267716535434,0.5984251968503937,-0.2440944881889764,0.6614173228346457,-0.11811023622047244,0.6929133858267716,0.031496062992125984,0.6929133858267716,0.1732283464566929,0.6771653543307087,0.2992125984251969,0.6377952755905512,0.3937007874015748,0.5669291338582677,0.4566929133858268,0.4645669291338583,0.4881889763779528,0.3543307086614173,0.49606299212598426,0.23622047244094488,0.5039370078740157,0.11023622047244094,0.5039370078740157,-0.007874015748031496,-0.4251968503937008,-0.16535433070866143,-0.3779527559055118,-0.25196850393700787,-0.29133858267716534,-0.30708661417322836,-0.1889763779527559,-0.33070866141732286,-0.08661417322834646,-0.30708661417322836,0.05511811023622047,-0.3228346456692913,0.15748031496062992,-0.3543307086614173,0.25984251968503935,-0.3464566929133858,0.3543307086614173,-0.2992125984251969,0.41732283464566927,-0.2125984251968504,-0.007874015748031496,-0.2047244094488189,-0.007874015748031496,-0.14960629921259844,0.0,-0.09448818897637795,0.0,-0.03937007874015748,-0.08661417322834646,0.11023622047244094,-0.03937007874015748,0.10236220472440945,0.007874015748031496,0.10236220472440945,0.05511811023622047,0.10236220472440945,0.09448818897637795,0.10236220472440945,-0.31496062992125984,-0.11023622047244094,-0.2677165354330709,-0.15748031496062992,-0.1968503937007874,-0.1732283464566929,-0.12598425196850394,-0.12598425196850394,-0.1889763779527559,-0.11023622047244094,-0.25984251968503935,-0.10236220472440945,0.11811023622047244,-0.14173228346456693,0.1889763779527559,-0.1889763779527559,0.25984251968503935,-0.1889763779527559,0.31496062992125984,-0.14960629921259844,0.25984251968503935,-0.13385826771653545,0.1889763779527559,-0.13385826771653545,-0.1968503937007874,0.3464566929133858,-0.11811023622047244,0.2755905511811024,-0.047244094488188976,0.2283464566929134,0.007874015748031496,0.2440944881889764,0.06299212598425197,0.2283464566929134,0.14173228346456693,0.25984251968503935,0.2204724409448819,0.33070866141732286,0.14173228346456693,0.3464566929133858,0.07086614173228346,0.36220472440944884,0.015748031496062992,0.36220472440944884,-0.03937007874015748,0.36220472440944884,-0.11023622047244094,0.36220472440944884,-0.15748031496062992,0.33858267716535434,-0.03937007874015748,0.29133858267716534,0.015748031496062992,0.29133858267716534,0.06299212598425197,0.28346456692913385,0.1889763779527559,0.3228346456692913,0.07086614173228346,0.29133858267716534,0.015748031496062992,0.2992125984251969,-0.03937007874015748,0.2992125984251969,2
016.jpg,-0.5,0.023809523809523808,-0.48412698412698413,0.14285714285714285,-0.46825396825396826,0.2698412698412698,-0.4523809523809524,0.3888888888888889,-0.42063492063492064,0.5,-0.35714285714285715,0.6031746031746031,-0.25396825396825395,0.6666666666666666,-0.11904761904761904,0.6984126984126984,0.031746031746031744,0.6984126984126984,0.18253968253968253,0.6825396825396826,0.30952380952380953,0.6428571428571429,0.40476190476190477,0.5714285714285714,0.46825396825396826,0.46825396825396826,0.5,0.3492063492063492,0.5,0.2222222222222222,0.5,0.09523809523809523,0.5,-0.031746031746031744,-0.4365079365079365,-0.1746031746031746,-0.3888888888888889,-0.2619047619047619,-0.29365079365079366,-0.31746031746031744,-0.19047619047619047,-0.3333333333333333,-0.07936507936507936,-0.31746031746031744,0.047619047619047616,-0.3253968253968254,0.15079365079365079,-0.35714285714285715,0.2619047619047619,-0.3412698412698413,0.35714285714285715,-0.30158730158730157,0.42063492063492064,-0.21428571428571427,-0.007936507936507936,-0.20634920634920634,-0.007936507936507936,-0.15079365079365079,0.0,-0.09523809523809523,0.0,-0.023809523809523808,-0.0873015873015873,0.1111111111111111,-0.03968253968253968,0.1111111111111111,0.007936507936507936,0.1111111111111111,0.047619047619047616,0.10317460317460317,0.09523809523809523,0.10317460317460317,-0.3253968253968254,-0.11904761904761904,-0.2698412698412698,-0.1746031746031746,-0.1984126984126984,-0.18253968253968253,-0.12698412698412698,-0.1349206349206349,-0.1984126984126984,-0.11904761904761904,-0.2698412698412698,-0.1111111111111111,0.11904761904761904,-0.14285714285714285,0.18253968253968253,-0.1984126984126984,0.25396825396825395,-0.1984126984126984,0.30952380952380953,-0.15079365079365079,0.25396825396825395,-0.1349206349206349,0.19047619047619047,-0.1349206349206349,-0.20634920634920634,0.3412698412698413,-0.11904761904761904,0.2777777777777778,-0.03968253968253968,0.23809523809523808,0.015873015873015872,0.24603174603174602,0.07142857142857142,0.23015873015873015,0.15079365079365079,0.2619047619047619,0.23015873015873015,0.3253968253968254,0.15079365079365079,0.3412698412698413,0.07936507936507936,0.3492063492063492,0.023809523809523808,0.3492063492063492,-0.03968253968253968,0.3492063492063492,-0.1111111111111111,0.3492063492063492,-0.16666666666666666,0.3333333333333333,-0.03968253968253968,0.2857142857142857,0.015873015873015872,0.29365079365079366,0.07142857142857142,0.2857142857142857,0.1984126984126984,0.31746031746031744,0.07142857142857142,0.2857142857142857,0.015873015873015872,0.29365079365079366,-0.03968253968253968,0.2857142857142857,2
017.jpg,-0.4645669291338583,0.0,-0.44881889763779526,0.12598425196850394,-0.4409448818897638,0.2440944881889764,-0.4251968503937008,0.3700787401574803,-0.3937007874015748,0.48031496062992124,-0.33858267716535434,0.5748031496062992,-0.2440944881889764,0.6535433070866141,-0.12598425196850394,0.6929133858267716,0.015748031496062992,0.6929133858267716,0.16535433070866143,0.6850393700787402,0.29133858267716534,0.6456692913385826,0.3858267716535433,0.5748031496062992,0.4566929133858268,0.48031496062992124,0.49606299212598426,0.36220472440944884,0.5118110236220472,0.23622047244094488,0.5196850393700787,0.11023622047244094,0.5354330708661418,-0.023622047244094488,-0.41732283464566927,-0.18110236220472442,-0.36220472440944884,-0.2677165354330709,-0.2755905511811024,-0.31496062992125984,-0.1732283464566929,-0.33070866141732286,-0.07086614173228346,-0.31496062992125984,0.06299212598425197,-0.3228346456692913,0.1732283464566929,-0.3543307086614173,0.2755905511811024,-0.33858267716535434,0.3700787401574803,-0.2992125984251969,0.4330708661417323,-0.2204724409448819,0.0,-0.2125984251968504,0.0,-0.14960629921259844,0.007874015748031496,-0.09448818897637795,0.0,-0.023622047244094488,-0.07874015748031496,0.11023622047244094,-0.03937007874015748,0.11023622047244094,0.007874015748031496,0.11023622047244094,0.05511811023622047,0.10236220472440945,0.09448818897637795,0.10236220472440945,-0.31496062992125984,-0.12598425196850394,-0.25196850393700787,-0.18110236220472442,-0.18110236220472442,-0.1889763779527559,-0.11811023622047244,-0.14173228346456693,-0.18110236220472442,-0.12598425196850394,-0.25196850393700787,-0.11811023622047244,0.13385826771653545,-0.14960629921259844,0.2047244094488189,-0.2047244094488189,0.2755905511811024,-0.2047244094488189,0.33070866141732286,-0.15748031496062992,0.2755905511811024,-0.14173228346456693,0.2047244094488189,-0.14173228346456693,-0.1889763779527559,0.3464566929133858,-0.11811023622047244,0.28346456692913385,-0.047244094488188976,0.2440944881889764,0.007874015748031496,0.25196850393700787,0.06299212598425197,0.23622047244094488,0.14173228346456693,0.2677165354330709,0.2283464566929134,0.33070866141732286,0.14173228346456693,0.3543307086614173,0.07086614173228346,0.3700787401574803,0.015748031496062992,0.3700787401574803,-0.03937007874015748,0.3779527559055118,-0.11023622047244094,0.3700787401574803,-0.15748031496062992,0.33858267716535434,-0.047244094488188976,0.30708661417322836,0.007874015748031496,0.30708661417322836,0.06299212598425197,0.2992125984251969,0.1968503937007874,0.33070866141732286,0.06299212598425197,0.2992125984251969,0.007874015748031496,0.30708661417322836,-0.047244094488188976,0.30708661417322836,2
018.jpg,-0.47244094488188976,-0.07086614173228346,-0.4566929133858268,0.06299212598425197,-0.4409448818897638,0.1889763779527559,-0.41732283464566927,0.30708661417322836,-0.3858267716535433,0.4330708661417323,-0.3228346456692913,0.5354330708661418,-0.2283464566929134,0.6220472440944882,-0.11811023622047244,0.6850393700787402,0.023622047244094488,0.7007874015748031,0.16535433070866143,0.6771653543307087,0.29133858267716534,0.6220472440944882,0.3937007874015748,0.5354330708661418,0.4645669291338583,0.4330708661417323,0.5039370078740157,0.2992125984251969,0.5196850393700787,0.16535433070866143,0.5275590551181102,0.031496062992125984,0.5275590551181102,-0.10236220472440945,-0.41732283464566927,-0.2204724409448819,-0.3700787401574803,-0.2992125984251969,-0.28346456692913385,-0.3464566929133858,-0.1732283464566929,-0.3543307086614173,-0.07874015748031496,-0.33858267716535434,0.05511811023622047,-0.3464566929133858,0.15748031496062992,-0.3779527559055118,0.2677165354330709,-0.3700787401574803,0.36220472440944884,-0.33858267716535434,0.4251968503937008,-0.25984251968503935,-0.007874015748031496,-0.2283464566929134,0.0,-0.15748031496062992,0.0,-0.08661417322834646,0.0,-0.007874015748031496,-0.08661417322834646,0.10236220472440945,-0.03937007874015748,0.11023622047244094,0.007874015748031496,0.11811023622047244,0.05511811023622047,0.10236220472440945,0.10236220472440945,0.09448818897637795,-0.31496062992125984,-0.15748031496062992,-0.25984251968503935,-0.2047244094488189,-0.18110236220472442,-0.2125984251968504,-0.11811023622047244,-0.16535433070866143,-0.18110236220472442,-0.14173228346456693,-0.25196850393700787,-0.13385826771653545,0.12598425196850394,-0.18110236220472442,0.1889763779527559,-0.2283464566929134,0.25984251968503935,-0.2283464566929134,0.3228346456692913,-0.1889763779527559,0.2677165354330709,-0.16535433070866143,0.1968503937007874,-0.16535433070866143,-0.18110236220472442,0.3228346456692913,-0.10236220472440945,0.28346456692913385,-0.03937007874015748,0.25984251968503935,0.007874015748031496,0.2677165354330709,0.06299212598425197,0.25196850393700787,0.14173228346456693,0.2677165354330709,0.2283464566929134,0.31496062992125984,0.14960629921259844,0.3464566929133858,0.07874015748031496,0.36220472440944884,0.023622047244094488,0.3700787401574803,-0.031496062992125984,0.3700787401574803,-0.10236220472440945,0.3543307086614173,-0.14960629921259844,0.31496062992125984,-0.031496062992125984,0.2992125984251969,0.015748031496062992,0.30708661417322836,0.06299212598425197,0.2992125984251969,0.1889763779527559,0.30708661417322836,0.07086614173228346,0.2992125984251969,0.015748031496062992,0.31496062992125984,-0.031496062992125984,0.30708661417322836,2
019.jpg,-0.4796747967479675,-0.04878048780487805,-0.4715447154471545,0.07317073170731707,-0.45528455284552843,0.2032520325203252,-0.43902439024390244,0.3170731707317073,-0.4146341463414634,0.43902439024390244,-0.35772357723577236,0.5447154471544715,-0.2601626016260163,0.6341463414634146,-0.13821138211382114,0.6829268292682927,0.008130081300813009,0.6910569105691057,0.15447154471544716,0.6747967479674797,0.2845528455284553,0.6260162601626016,0.3902439024390244,0.5528455284552846,0.4634146341463415,0.44715447154471544,0.4959349593495935,0.3252032520325203,0.5121951219512195,0.1951219512195122,0.5203252032520326,0.06504065040650407,0.5203252032520326,-0.06504065040650407,-0.43089430894308944,-0.21951219512195122,-0.37398373983739835,-0.3089430894308943,-0.2845528455284553,-0.34959349593495936,-0.17073170731707318,-0.36585365853658536,-0.07317073170731707,-0.3333333333333333,0.056910569105691054,-0.34959349593495936,0.16260162601626016,-0.37398373983739835,0.2682926829268293,-0.36585365853658536,0.36585365853658536,-0.3252032520325203,0.42276422764227645,-0.25203252032520324,0.0,-0.23577235772357724,0.0,-0.16260162601626016,0.0,-0.0975609756097561,0.0,-0.024390243902439025,-0.08943089430894309,0.0975609756097561,-0.04878048780487805,0.10569105691056911,0.0,0.11382113821138211,0.04878048780487805,0.10569105691056911,0.0975609756097561,0.0975609756097561,-0.3252032520325203,-0.16260162601626016,-0.2601626016260163,-0.21138211382113822,-0.18699186991869918,-0.21951219512195122,-0.12195121951219512,-0.17073170731707318,-0.18699186991869918,-0.15447154471544716,-0.2601626016260163,-0.14634146341463414,0.12195121951219512,-0.17886178861788618,0.1951219512195122,-0.22764227642276422,0.2682926829268293,-0.22764227642276422,0.3170731707317073,-0.17886178861788618,0.2682926829268293,-0.16260162601626016,0.1951219512195122,-0.17073170731707318,-0.2032520325203252,0.3333333333333333,-0.13008130081300814,0.2682926829268293,-0.056910569105691054,0.23577235772357724,0.0,0.25203252032520324,0.056910569105691054,0.22764227642276422,0.13008130081300814,0.2601626016260163,0.21138211382113822,0.3252032520325203,0.13821138211382114,0.34959349593495936,0.06504065040650407,0.35772357723577236,0.008130081300813009,0.36585365853658536,-0.056910569105691054,0.36585365853658536,-0.12195121951219512,0.35772357723577236,-0.16260162601626016,0.3252032520325203,-0.056910569105691054,0.2926829268292683,0.0,0.2926829268292683,0.056910569105691054,0.2845528455284553,0.17886178861788618,0.3170731707317073,0.056910569105691054,0.2926829268292683,0.0,0.3008130081300813,-0.056910569105691054,0.2926829268292683,2
020.jpg,-0.4567307692307692,-0.21634615384615385,-0.46153846153846156,-0.09134615384615384,-0.4519230769230769,0.03365384615384615,-0.4326923076923077,0.15865384615384615,-0.40384615384615385,0.28365384615384615,-0.35096153846153844,0.39903846153846156,-0.25961538461538464,0.5,-0.14903846153846154,0.5625,-0.028846153846153848,0.5913461538461539,0.09615384615384616,0.5769230769230769,0.21634615384615385,0.5192307692307693,0.3173076923076923,0.4230769230769231,0.375,0.3125,0.41346153846153844,0.19230769230769232,0.44711538461538464,0.07692307692307693,0.46634615384615385,-0.04326923076923077,0.47596153846153844,-0.16346153846153846,-0.3605769230769231,-0.3317307692307692,-0.2932692307692308,-0.3798076923076923,-0.21153846153846154,-0.39903846153846156,-0.125,-0.3798076923076923,-0.04326923076923077,-0.33653846153846156,0.10096153846153846,-0.3317307692307692,0.18269230769230768,-0.3557692307692308,0.2692307692307692,-0.36538461538461536,0.35096153846153844,-0.33653846153846156,0.40384615384615385,-0.27403846153846156,0.019230769230769232,-0.22596153846153846,0.014423076923076924,-0.14903846153846154,0.009615384615384616,-0.0673076923076923,0.004807692307692308,0.009615384615384616,-0.09134615384615384,0.07211538461538461,-0.052884615384615384,0.09134615384615384,-0.004807692307692308,0.11057692307692307,0.038461538461538464,0.10096153846153846,0.08173076923076923,0.08173076923076923,-0.2644230769230769,-0.21634615384615385,-0.21153846153846154,-0.2403846153846154,-0.14903846153846154,-0.23557692307692307,-0.09615384615384616,-0.19230769230769232,-0.15865384615384615,-0.18269230769230768,-0.21634615384615385,-0.1875,0.1346153846153846,-0.1778846153846154,0.19230769230769232,-0.21153846153846154,0.2548076923076923,-0.20673076923076922,0.30288461538461536,-0.1778846153846154,0.2548076923076923,-0.15865384615384615,0.19230769230769232,-0.16346153846153846,-0.1971153846153846,0.25,-0.125,0.22115384615384615,-0.052884615384615384,0.20673076923076922,-0.014423076923076924,0.21634615384615385,0.02403846153846154,0.21153846153846154,0.09134615384615384,0.23557692307692307,0.15865384615384615,0.2644230769230769,0.08653846153846154,0.3173076923076923,0.019230769230769232,0.34134615384615385,-0.02403846153846154,0.34134615384615385,-0.0625,0.33653846153846156,-0.12980769230769232,0.3076923076923077,-0.16826923076923078,0.2548076923076923,-0.057692307692307696,0.2548076923076923,-0.019230769230769232,0.2644230769230769,0.019230769230769232,0.25961538461538464,0.125,0.2692307692307692,0.019230769230769232,0.27884615384615385,-0.019230769230769232,0.28365384615384615,-0.057692307692307696,0.27403846153846156,3
021.jpg,-0.5054945054945055,-0.11538461538461539,-0.4945054945054945,0.016483516483516484,-0.4725274725274725,0.13736263736263737,-0.45054945054945056,0.26373626373626374,-0.41208791208791207,0.3901098901098901,-0.35714285714285715,0.5,-0.2692307692307692,0.5824175824175825,-0.14835164835164835,0.6263736263736264,-0.005494505494505495,0.6373626373626373,0.13736263736263737,0.6263736263736264,0.26373626373626374,0.5769230769230769,0.35714285714285715,0.4945054945054945,0.41208791208791207,0.3791208791208791,0.44505494505494503,0.25824175824175827,0.4725274725274725,0.13186813186813187,0.489010989010989,0.016483516483516484,0.4945054945054945,-0.10989010989010989,-0.3956043956043956,-0.2802197802197802,-0.33516483516483514,-0.34065934065934067,-0.24725274725274726,-0.36813186813186816,-0.15384615384615385,-0.35714285714285715,-0.06593406593406594,-0.3241758241758242,0.08241758241758242,-0.3241758241758242,0.17582417582417584,-0.34615384615384615,0.26373626373626374,-0.3516483516483517,0.3516483516483517,-0.31868131868131866,0.4010989010989011,-0.25824175824175827,0.005494505494505495,-0.2087912087912088,0.005494505494505495,-0.14285714285714285,0.005494505494505495,-0.07692307692307693,0.0,-0.01098901098901099,-0.08791208791208792,0.08241758241758242,-0.04395604395604396,0.0989010989010989,0.0,0.10989010989010989,0.038461538461538464,0.0989010989010989,0.07692307692307693,0.08791208791208792,-0.29120879120879123,-0.17032967032967034,-0.23626373626373626,-0.19230769230769232,-0.17582417582417584,-0.19230769230769232,-0.11538461538461539,-0.16483516483516483,-0.17582417582417584,-0.14835164835164835,-0.23626373626373626,-0.14835164835164835,0.12637362637362637,-0.15934065934065933,0.18681318681318682,-0.1813186813186813,0.25274725274725274,-0.1813186813186813,0.3021978021978022,-0.15384615384615385,0.25274725274725274,-0.13736263736263737,0.19230769230769232,-0.14285714285714285,-0.1978021978021978,0.2967032967032967,-0.12637362637362637,0.23626373626373626,-0.04945054945054945,0.2032967032967033,-0.005494505494505495,0.2087912087912088,0.04395604395604396,0.2032967032967033,0.12087912087912088,0.24175824175824176,0.1978021978021978,0.3021978021978022,0.12087912087912088,0.3516483516483517,0.04945054945054945,0.36813186813186816,0.0,0.36813186813186816,-0.054945054945054944,0.36813186813186816,-0.12637362637362637,0.34615384615384615,-0.16483516483516483,0.29120879120879123,-0.04945054945054945,0.25274725274725274,-0.005494505494505495,0.25274725274725274,0.04395604395604396,0.25274725274725274,0.15934065934065933,0.2967032967032967,0.04395604395604396,0.3131868131868132,-0.005494505494505495,0.31868131868131866,-0.04945054945054945,0.3131868131868132,3
022.jpg,-0.46766169154228854,-0.1044776119402985,-0.46766169154228854,0.009950248756218905,-0.4577114427860697,0.12437810945273632,-0.44776119402985076,0.23383084577114427,-0.417910447761194,0.3482587064676617,-0.36318407960199006,0.44776119402985076,-0.27860696517412936,0.5223880597014925,-0.1691542288557214,0.5671641791044776,-0.03980099502487562,0.5870646766169154,0.08955223880597014,0.5771144278606966,0.21393034825870647,0.5422885572139303,0.31343283582089554,0.472636815920398,0.373134328358209,0.373134328358209,0.4129353233830846,0.263681592039801,0.43283582089552236,0.15422885572139303,0.4427860696517413,0.04477611940298507,0.4427860696517413,-0.06467661691542288,-0.36318407960199006,-0.263681592039801,-0.3034825870646766,-0.32338308457711445,-0.22388059701492538,-0.3482587064676617,-0.13432835820895522,-0.3383084577114428,-0.05970149253731343,-0.3034825870646766,0.08955223880597014,-0.2935323383084577,0.1691542288557214,-0.31840796019900497,0.2537313432835821,-0.31840796019900497,0.3333333333333333,-0.27860696517412936,0.3781094527363184,-0.21890547263681592,0.009950248756218905,-0.19900497512437812,0.009950248756218905,-0.13432835820895522,0.009950248756218905,-0.06965174129353234,0.004975124378109453,-0.004975124378109453,-0.0945273631840796,0.06467661691542288,-0.05472636815920398,0.0845771144278607,-0.004975124378109453,0.1044776119402985,0.03980099502487562,0.08955223880597014,0.07960199004975124,0.07960199004975124,-0.2736318407960199,-0.1691542288557214,-0.22388059701492538,-0.19900497512437812,-0.16417910447761194,-0.19402985074626866,-0.10945273631840796,-0.15422885572139303,-0.1691542288557214,-0.14925373134328357,-0.22885572139303484,-0.15422885572139303,0.11940298507462686,-0.13930348258706468,0.1791044776119403,-0.17412935323383086,0.23383084577114427,-0.1691542288557214,0.2835820895522388,-0.13432835820895522,0.23383084577114427,-0.12935323383084577,0.1791044776119403,-0.12935323383084577,-0.22885572139303484,0.24378109452736318,-0.14427860696517414,0.19402985074626866,-0.06467661691542288,0.17412935323383086,-0.014925373134328358,0.18407960199004975,0.03980099502487562,0.18407960199004975,0.11442786069651742,0.21393034825870647,0.1890547263681592,0.263681592039801,0.10945273631840796,0.31343283582089554,0.029850746268656716,0.3283582089552239,-0.024875621890547265,0.3283582089552239,-0.07960199004975124,0.31840796019900497,-0.15422885572139303,0.2935323383084577,-0.19900497512437812,0.24875621890547264,-0.06965174129353234,0.21890547263681592,-0.014925373134328358,0.22388059701492538,0.03482587064676617,0.22388059701492538,0.15920398009950248,0.26865671641791045,0.029850746268656716,0.2885572139303483,-0.01990049751243781,0.2835820895522388,-0.07462686567164178,0.27860696517412936,3
023.jpg,-0.4482758620689655,-0.08189655172413793,-0.44396551724137934,0.034482758620689655,-0.4353448275862069,0.14224137931034483,-0.41810344827586204,0.2543103448275862,-0.3879310344827586,0.3620689655172414,-0.33189655172413796,0.4525862068965517,-0.2413793103448276,0.5172413793103449,-0.1336206896551724,0.5560344827586207,-0.008620689655172414,0.5689655172413793,0.11206896551724138,0.5560344827586207,0.22413793103448276,0.5172413793103449,0.31896551724137934,0.4525862068965517,0.375,0.35344827586206895,0.4051724137931034,0.24568965517241378,0.4267241379310345,0.1336206896551724,0.4353448275862069,0.03017241379310345,0.4353448275862069,-0.07758620689655173,-0.35344827586206895,-0.2543103448275862,-0.29310344827586204,-0.30603448275862066,-0.21982758620689655,-0.33189655172413796,-0.1336206896551724,-0.3232758620689655,-0.0603448275862069,-0.28879310344827586,0.08189655172413793,-0.28448275862068967,0.15948275862068967,-0.30603448275862066,0.2413793103448276,-0.30603448275862066,0.3146551724137931,-0.27586206896551724,0.36637931034482757,-0.21982758620689655,0.008620689655172414,-0.1896551724137931,0.008620689655172414,-0.12931034482758622,0.008620689655172414,-0.07327586206896551,0.008620689655172414,-0.017241379310344827,-0.08189655172413793,0.07327586206896551,-0.04310344827586207,0.08620689655172414,0.0,0.09913793103448276,0.03879310344827586,0.09051724137931035,0.07758620689655173,0.07758620689655173,-0.2672413793103448,-0.14655172413793102,-0.21120689655172414,-0.16810344827586207,-0.15948275862068967,-0.16810344827586207,-0.10344827586206896,-0.13793103448275862,-0.15948275862068967,-0.12931034482758622,-0.21551724137931033,-0.12931034482758622,0.1206896551724138,-0.12931034482758622,0.17672413793103448,-0.15086206896551724,0.23275862068965517,-0.14655172413793102,0.27586206896551724,-0.1206896551724138,0.22844827586206898,-0.11206896551724138,0.17672413793103448,-0.11206896551724138,-0.2025862068965517,0.2543103448275862,-0.1206896551724138,0.2025862068965517,-0.04741379310344827,0.1810344827586207,-0.004310344827586207,0.1896551724137931,0.04310344827586207,0.1853448275862069,0.11206896551724138,0.21551724137931033,0.1896551724137931,0.2672413793103448,0.10775862068965517,0.2974137931034483,0.03879310344827586,0.3017241379310345,-0.008620689655172414,0.3017241379310345,-0.05172413793103448,0.2974137931034483,-0.1206896551724138,0.28879310344827586,-0.1724137931034483,0.2543103448275862,-0.04741379310344827,0.22844827586206898,-0.004310344827586207,0.22844827586206898,0.03879310344827586,0.23275862068965517,0.15517241379310345,0.2629310344827586,0.03879310344827586,0.2543103448275862,-0.004310344827586207,0.25,-0.04741379310344827,0.25,3
024.jpg,-0.4309623430962343,-0.07531380753138076,-0.4225941422594142,0.04184100418410042,-0.41422594142259417,0.14644351464435146,-0.39748953974895396,0.25523012552301255,-0.3723849372384937,0.3598326359832636,-0.32217573221757323,0.45188284518828453,-0.24267782426778242,0.5188284518828452,-0.13807531380753138,0.5523012552301255,-0.016736401673640166,0.5648535564853556,0.10460251046025104,0.5564853556485355,0.21338912133891214,0.5271966527196653,0.301255230125523,0.4686192468619247,0.3598326359832636,0.37656903765690375,0.39330543933054396,0.2719665271966527,0.41841004184100417,0.16736401673640167,0.4351464435146444,0.06276150627615062,0.4393305439330544,-0.0502092050209205,-0.3389121338912134,-0.24267782426778242,-0.2803347280334728,-0.2928870292887029,-0.20502092050209206,-0.3138075313807531,-0.12552301255230125,-0.30962343096234307,-0.05439330543933055,-0.27615062761506276,0.0794979079497908,-0.26778242677824265,0.15481171548117154,-0.29707112970711297,0.23430962343096234,-0.29707112970711297,0.30962343096234307,-0.26778242677824265,0.3598326359832636,-0.21338912133891214,0.012552301255230125,-0.18410041841004185,0.008368200836820083,-0.1297071129707113,0.008368200836820083,-0.07531380753138076,0.008368200836820083,-0.02092050209205021,-0.07531380753138076,0.07112970711297072,-0.04184100418410042,0.08368200836820083,0.0,0.09205020920502092,0.03347280334728033,0.08786610878661087,0.07112970711297072,0.0794979079497908,-0.2510460251046025,-0.13389121338912133,-0.20502092050209206,-0.15481171548117154,-0.1506276150627615,-0.15481171548117154,-0.09623430962343096,-0.12552301255230125,-0.1506276150627615,-0.11297071129707113,-0.20502092050209206,-0.11297071129707113,0.11715481171548117,-0.12552301255230125,0.17573221757322174,-0.14644351464435146,0.22594142259414227,-0.13807531380753138,0.27615062761506276,-0.11715481171548117,0.22594142259414227,-0.100418410041841,0.17154811715481172,-0.10460251046025104,-0.18828451882845187,0.26778242677824265,-0.11715481171548117,0.20920502092050208,-0.04602510460251046,0.1799163179916318,0.0,0.18828451882845187,0.04184100418410042,0.1799163179916318,0.1087866108786611,0.21338912133891214,0.1799163179916318,0.26778242677824265,0.1087866108786611,0.3054393305439331,0.04184100418410042,0.3179916317991632,-0.0041841004184100415,0.32217573221757323,-0.0502092050209205,0.32217573221757323,-0.11715481171548117,0.30962343096234307,-0.1589958158995816,0.26359832635983266,-0.04602510460251046,0.23430962343096234,-0.0041841004184100415,0.23430962343096234,0.04184100418410042,0.23430962343096234,0.14644351464435146,0.26778242677824265,0.04184100418410042,0.27615062761506276,-0.0041841004184100415,0.2803347280334728,-0.04602510460251046,0.27615062761506276,3
025.jpg,-0.4688995215311005,-0.09569377990430622,-0.45933014354066987,0.023923444976076555,-0.44019138755980863,0.14354066985645933,-0.41626794258373206,0.2583732057416268,-0.37799043062200954,0.37320574162679426,-0.3157894736842105,0.47368421052631576,-0.22488038277511962,0.5550239234449761,-0.11961722488038277,0.5980861244019139,0.019138755980861243,0.6076555023923444,0.14832535885167464,0.5933014354066986,0.2679425837320574,0.5454545454545454,0.35406698564593303,0.46411483253588515,0.41148325358851673,0.3588516746411483,0.4449760765550239,0.23923444976076555,0.46411483253588515,0.11961722488038277,0.47368421052631576,0.004784688995215311,0.47368421052631576,-0.11483253588516747,-0.3588516746411483,-0.2679425837320574,-0.3062200956937799,-0.3253588516746411,-0.22966507177033493,-0.3492822966507177,-0.14354066985645933,-0.3397129186602871,-0.07177033492822966,-0.3062200956937799,0.07655502392344497,-0.31100478468899523,0.15789473684210525,-0.3397129186602871,0.24401913875598086,-0.3492822966507177,0.32057416267942584,-0.32057416267942584,0.37320574162679426,-0.2631578947368421,0.004784688995215311,-0.19617224880382775,0.004784688995215311,-0.1339712918660287,0.004784688995215311,-0.07655502392344497,0.004784688995215311,-0.014354066985645933,-0.07655502392344497,0.08133971291866028,-0.03827751196172249,0.09090909090909091,0.004784688995215311,0.10047846889952153,0.04784688995215311,0.09090909090909091,0.08133971291866028,0.07655502392344497,-0.2631578947368421,-0.1339712918660287,-0.21052631578947367,-0.13875598086124402,-0.15789473684210525,-0.14354066985645933,-0.10526315789473684,-0.13875598086124402,-0.15789473684210525,-0.11961722488038277,-0.21052631578947367,-0.11483253588516747,0.11961722488038277,-0.13875598086124402,0.1722488038277512,-0.14832535885167464,0.22488038277511962,-0.14354066985645933,0.2822966507177033,-0.1339712918660287,0.22966507177033493,-0.11961722488038277,0.17703349282296652,-0.11961722488038277,-0.19138755980861244,0.28708133971291866,-0.11961722488038277,0.22488038277511962,-0.0430622009569378,0.19138755980861244,0.004784688995215311,0.20095693779904306,0.05263157894736842,0.18660287081339713,0.12440191387559808,0.215311004784689,0.19617224880382775,0.2727272727272727,0.1339712918660287,0.33014354066985646,0.06220095693779904,0.3492822966507177,0.009569377990430622,0.35406698564593303,-0.03827751196172249,0.35406698564593303,-0.11483253588516747,0.3349282296650718,-0.15789473684210525,0.28708133971291866,-0.0430622009569378,0.24401913875598086,0.004784688995215311,0.24401913875598086,0.05263157894736842,0.23923444976076555,0.16267942583732056,0.27751196172248804,0.05741626794258373,0.3014354066985646,0.009569377990430622,0.3062200956937799,-0.0430622009569378,0.3062200956937799,3
026.jpg,-0.5159574468085106,-0.047872340425531915,-0.5053191489361702,0.0851063829787234,-0.48404255319148937,0.2074468085106383,-0.4574468085106383,0.32978723404255317,-0.42021276595744683,0.44148936170212766,-0.35638297872340424,0.5425531914893617,-0.2553191489361702,0.6117021276595744,-0.13829787234042554,0.6436170212765957,0.005319148936170213,0.6436170212765957,0.14361702127659576,0.6276595744680851,0.2712765957446808,0.5904255319148937,0.3670212765957447,0.5159574468085106,0.425531914893617,0.4148936170212766,0.4521276595744681,0.2978723404255319,0.4734042553191489,0.18617021276595744,0.48404255319148937,0.06914893617021277,0.48404255319148937,-0.047872340425531915,-0.4095744680851064,-0.2553191489361702,-0.35106382978723405,-0.324468085106383,-0.26063829787234044,-0.35638297872340424,-0.16489361702127658,-0.35106382978723405,-0.0797872340425532,-0.30851063829787234,0.0851063829787234,-0.3191489361702128,0.17553191489361702,-0.3404255319148936,0.26595744680851063,-0.34574468085106386,0.35106382978723405,-0.30851063829787234,0.40425531914893614,-0.2393617021276596,0.005319148936170213,-0.2074468085106383,0.005319148936170213,-0.14893617021276595,0.005319148936170213,-0.0851063829787234,0.005319148936170213,-0.02127659574468085,-0.0851063829787234,0.0851063829787234,-0.047872340425531915,0.10106382978723404,0.0,0.10638297872340426,0.047872340425531915,0.10106382978723404,0.0851063829787234,0.0851063829787234,-0.31382978723404253,-0.15425531914893617,-0.26595744680851063,-0.2074468085106383,-0.19680851063829788,-0.20212765957446807,-0.1276595744680851,-0.15425531914893617,-0.19680851063829788,-0.14361702127659576,-0.26595744680851063,-0.13829787234042554,0.12234042553191489,-0.14893617021276595,0.18085106382978725,-0.20212765957446807,0.25,-0.19680851063829788,0.30851063829787234,-0.14893617021276595,0.2553191489361702,-0.13829787234042554,0.18617021276595744,-0.13829787234042554,-0.21808510638297873,0.31382978723404253,-0.13297872340425532,0.24468085106382978,-0.047872340425531915,0.2074468085106383,0.005319148936170213,0.21808510638297873,0.05851063829787234,0.2074468085106383,0.13829787234042554,0.2393617021276596,0.21808510638297873,0.30319148936170215,0.13829787234042554,0.35638297872340424,0.05851063829787234,0.3723404255319149,0.005319148936170213,0.3776595744680851,-0.05319148936170213,0.3723404255319149,-0.13297872340425532,0.3617021276595745,-0.18085106382978725,0.31382978723404253,-0.047872340425531915,0.26595744680851063,0.0,0.26595744680851063,0.05319148936170213,0.26595744680851063,0.18085106382978725,0.30319148936170215,0.05851063829787234,0.324468085106383,0.005319148936170213,0.32978723404255317,-0.047872340425531915,0.32978723404255317,3
027.jpg,-0.489010989010989,-0.1043956043956044,-0.47802197802197804,0.02197802197802198,-0.46153846153846156,0.14835164835164835,-0.4340659340659341,0.27472527472527475,-0.3956043956043956,0.4010989010989011,-0.32967032967032966,0.510989010989011,-0.23076923076923078,0.5989010989010989,-0.10989010989010989,0.6483516483516484,0.027472527472527472,0.6538461538461539,0.17032967032967034,0.6263736263736264,0.29120879120879123,0.5714285714285714,0.3901098901098901,0.4835164835164835,0.45054945054945056,0.36813186813186816,0.47802197802197804,0.24175824175824176,0.5,0.11538461538461539,0.510989010989011,-0.005494505494505495,0.510989010989011,-0.13186813186813187,-0.3956043956043956,-0.2802197802197802,-0.34065934065934067,-0.34065934065934067,-0.25824175824175827,-0.36813186813186816,-0.17032967032967034,-0.3626373626373626,-0.08791208791208792,-0.32967032967032966,0.07692307692307693,-0.34615384615384615,0.16483516483516483,-0.3791208791208791,0.25824175824175827,-0.3901098901098901,0.34065934065934067,-0.36813186813186816,0.4010989010989011,-0.3076923076923077,-0.005494505494505495,-0.22527472527472528,-0.005494505494505495,-0.15384615384615385,0.0,-0.07692307692307693,0.0,0.0,-0.08791208791208792,0.08791208791208792,-0.04395604395604396,0.1043956043956044,0.005494505494505495,0.11538461538461539,0.054945054945054944,0.0989010989010989,0.0989010989010989,0.08241758241758242,-0.2967032967032967,-0.15934065934065933,-0.24725274725274726,-0.19230769230769232,-0.1813186813186813,-0.1978021978021978,-0.12087912087912088,-0.16483516483516483,-0.1813186813186813,-0.14835164835164835,-0.24175824175824176,-0.14285714285714285,0.12637362637362637,-0.17582417582417584,0.19230769230769232,-0.2087912087912088,0.25274725274725274,-0.21428571428571427,0.3076923076923077,-0.18681318681318682,0.25824175824175827,-0.16483516483516483,0.1978021978021978,-0.16483516483516483,-0.2032967032967033,0.3021978021978022,-0.12087912087912088,0.24725274725274726,-0.038461538461538464,0.21428571428571427,0.01098901098901099,0.22527472527472528,0.06593406593406594,0.2087912087912088,0.15384615384615385,0.23076923076923078,0.23626373626373626,0.27472527472527475,0.15934065934065933,0.3516483516483517,0.07692307692307693,0.38461538461538464,0.02197802197802198,0.3956043956043956,-0.038461538461538464,0.3901098901098901,-0.12087912087912088,0.36813186813186816,-0.17032967032967034,0.3021978021978022,-0.038461538461538464,0.2692307692307692,0.016483516483516484,0.2692307692307692,0.07142857142857142,0.26373626373626374,0.2087912087912088,0.2802197802197802,0.07142857142857142,0.3241758241758242,0.016483516483516484,0.33516483516483514,-0.038461538461538464,0.33516483516483514,3
028.jpg,-0.4666666666666667,-0.07142857142857142,-0.45714285714285713,0.05238095238095238,-0.43333333333333335,0.17142857142857143,-0.40476190476190477,0.2904761904761905,-0.36666666666666664,0.40476190476190477,-0.30952380952380953,0.5,-0.21904761904761905,0.5761904761904761,-0.10952380952380952,0.6238095238095238,0.01904761904761905,0.6333333333333333,0.14285714285714285,0.6142857142857143,0.2619047619047619,0.5666666666666667,0.3523809523809524,0.49047619047619045,0.4095238095238095,0.38571428571428573,0.43333333333333335,0.26666666666666666,0.45714285714285713,0.14761904761904762,0.4666666666666667,0.02857142857142857,0.47619047619047616,-0.09047619047619047,-0.3761904761904762,-0.24761904761904763,-0.3238095238095238,-0.3142857142857143,-0.24285714285714285,-0.34285714285714286,-0.15714285714285714,-0.3333333333333333,-0.0761904761904762,-0.3047619047619048,0.0761904761904762,-0.3142857142857143,0.1619047619047619,-0.34285714285714286,0.24761904761904763,-0.3476190476190476,0.32857142857142857,-0.319047619047619,0.38095238095238093,-0.2571428571428571,0.0,-0.2,0.004761904761904762,-0.14285714285714285,0.004761904761904762,-0.0761904761904762,0.004761904761904762,-0.014285714285714285,-0.08095238095238096,0.08095238095238096,-0.0380952380952381,0.09523809523809523,0.004761904761904762,0.1,0.047619047619047616,0.09047619047619047,0.08571428571428572,0.0761904761904762,-0.28095238095238095,-0.14761904761904762,-0.22857142857142856,-0.1761904761904762,-0.16666666666666666,-0.18095238095238095,-0.10952380952380952,-0.14761904761904762,-0.16666666666666666,-0.12857142857142856,-0.22857142857142856,-0.12857142857142856,0.11904761904761904,-0.15714285714285714,0.18095238095238095,-0.19047619047619047,0.23809523809523808,-0.18571428571428572,0.2904761904761905,-0.1619047619047619,0.24285714285714285,-0.14285714285714285,0.18571428571428572,-0.1380952380952381,-0.1761904761904762,0.3047619047619048,-0.11428571428571428,0.23333333333333334,-0.0380952380952381,0.2,0.009523809523809525,0.20476190476190476,0.05714285714285714,0.19523809523809524,0.13333333333333333,0.22380952380952382,0.20476190476190476,0.2857142857142857,0.14285714285714285,0.34285714285714286,0.07142857142857142,0.37142857142857144,0.01904761904761905,0.3761904761904762,-0.03333333333333333,0.3761904761904762,-0.10952380952380952,0.35714285714285715,-0.14761904761904762,0.3,-0.0380952380952381,0.2523809523809524,0.009523809523809525,0.2523809523809524,0.06190476190476191,0.24761904761904763,0.1761904761904762,0.2857142857142857,0.06666666666666667,0.30952380952380953,0.014285714285714285,0.3142857142857143,-0.03333333333333333,0.3142857142857143,3
029.jpg,-0.44594594594594594,-0.04954954954954955,-0.44144144144144143,0.06756756756756757,-0.42792792792792794,0.17567567567567569,-0.4099099099099099,0.2882882882882883,-0.3783783783783784,0.3963963963963964,-0.32432432432432434,0.481981981981982,-0.23873873873873874,0.545045045045045,-0.13063063063063063,0.581081081081081,-0.009009009009009009,0.5855855855855856,0.11261261261261261,0.5765765765765766,0.22972972972972974,0.545045045045045,0.32432432432432434,0.4864864864864865,0.38288288288288286,0.4009009009009009,0.4144144144144144,0.2927927927927928,0.4369369369369369,0.1891891891891892,0.45045045045045046,0.08558558558558559,0.4594594594594595,-0.02252252252252252,-0.35585585585585583,-0.24324324324324326,-0.2972972972972973,-0.30180180180180183,-0.22072072072072071,-0.32882882882882886,-0.13513513513513514,-0.31981981981981983,-0.05855855855855856,-0.2882882882882883,0.08558558558558559,-0.2882882882882883,0.16666666666666666,-0.3108108108108108,0.24774774774774774,-0.3153153153153153,0.32432432432432434,-0.28378378378378377,0.3783783783783784,-0.22972972972972974,0.009009009009009009,-0.1891891891891892,0.009009009009009009,-0.13513513513513514,0.009009009009009009,-0.08108108108108109,0.009009009009009009,-0.02252252252252252,-0.08108108108108109,0.07207207207207207,-0.04054054054054054,0.08558558558558559,0.0,0.0990990990990991,0.04054054054054054,0.09009009009009009,0.07657657657657657,0.08108108108108109,-0.26576576576576577,-0.13963963963963963,-0.21171171171171171,-0.16216216216216217,-0.15765765765765766,-0.16216216216216217,-0.1036036036036036,-0.13063063063063063,-0.15765765765765766,-0.11711711711711711,-0.21621621621621623,-0.11711711711711711,0.12162162162162163,-0.13063063063063063,0.18018018018018017,-0.15315315315315314,0.23873873873873874,-0.14864864864864866,0.28378378378378377,-0.12162162162162163,0.23873873873873874,-0.10810810810810811,0.18468468468468469,-0.11261261261261261,-0.20270270270270271,0.2747747747747748,-0.12162162162162163,0.22072072072072071,-0.04504504504504504,0.1891891891891892,0.0,0.1981981981981982,0.04504504504504504,0.1891891891891892,0.11711711711711711,0.22522522522522523,0.19369369369369369,0.27927927927927926,0.11711711711711711,0.3108108108108108,0.04954954954954955,0.31981981981981983,0.0,0.31981981981981983,-0.04954954954954955,0.31981981981981983,-0.12162162162162163,0.3063063063063063,-0.17117117117117117,0.2702702702702703,-0.04504504504504504,0.24324324324324326,0.0,0.24324324324324326,0.04504504504504504,0.24324324324324326,0.16216216216216217,0.2747747747747748,0.04504504504504504,0.2702702702702703,0.0,0.2702702702702703,-0.04504504504504504,0.2702702702702703,3
030.jpg,-0.5054945054945055,0.08241758241758242,-0.489010989010989,0.19230769230769232,-0.46153846153846156,0.3076923076923077,-0.42857142857142855,0.41208791208791207,-0.38461538461538464,0.510989010989011,-0.31868131868131866,0.5879120879120879,-0.21428571428571427,0.6428571428571429,-0.08791208791208792,0.6703296703296703,0.054945054945054944,0.6758241758241759,0.2032967032967033,0.6538461538461539,0.31868131868131866,0.6043956043956044,0.4065934065934066,0.5384615384615384,0.46153846153846156,0.43956043956043955,0.4835164835164835,0.32967032967032966,0.4945054945054945,0.21428571428571427,0.4945054945054945,0.1043956043956044,0.489010989010989,-0.005494505494505495,-0.4230769230769231,-0.17032967032967034,-0.3791208791208791,-0.24725274725274726,-0.3021978021978022,-0.3021978021978022,-0.2087912087912088,-0.3131868131868132,-0.12087912087912088,-0.29120879120879123,0.06593406593406594,-0.3076923076923077,0.15384615384615385,-0.34615384615384615,0.24725274725274726,-0.34615384615384615,0.33516483516483514,-0.3076923076923077,0.3901098901098901,-0.23626373626373626,-0.01098901098901099,-0.1813186813186813,-0.005494505494505495,-0.13736263736263737,0.0,-0.09340659340659341,0.005494505494505495,-0.04395604395604396,-0.07692307692307693,0.1043956043956044,-0.03296703296703297,0.0989010989010989,0.01098901098901099,0.0989010989010989,0.054945054945054944,0.09340659340659341,0.09340659340659341,0.09340659340659341,-0.32967032967032966,-0.07142857142857142,-0.2802197802197802,-0.11538461538461539,-0.21428571428571427,-0.12637362637362637,-0.14285714285714285,-0.1043956043956044,-0.2032967032967033,-0.07692307692307693,-0.2692307692307692,-0.06593406593406594,0.12087912087912088,-0.12637362637362637,0.19230769230769232,-0.15934065934065933,0.25274725274725274,-0.15384615384615385,0.3131868131868132,-0.12087912087912088,0.25824175824175827,-0.10989010989010989,0.19230769230769232,-0.10989010989010989,-0.18681318681318682,0.3516483516483517,-0.10989010989010989,0.23626373626373626,-0.027472527472527472,0.1813186813186813,0.02197802197802198,0.1813186813186813,0.07692307692307693,0.17032967032967034,0.16483516483516483,0.21978021978021978,0.23626373626373626,0.31868131868131866,0.17582417582417584,0.3791208791208791,0.0989010989010989,0.4065934065934066,0.038461538461538464,0.41208791208791207,-0.016483516483516484,0.41208791208791207,-0.0989010989010989,0.4010989010989011,-0.14285714285714285,0.34065934065934067,-0.02197802197802198,0.25274725274725274,0.027472527472527472,0.24725274725274726,0.08241758241758242,0.24175824175824176,0.1978021978021978,0.31868131868131866,0.08791208791208792,0.3241758241758242,0.03296703296703297,0.32967032967032966,-0.02197802197802198,0.33516483516483514,4
031.jpg,-0.5139664804469274,0.061452513966480445,-0.5027932960893855,0.16759776536312848,-0.4860335195530726,0.27932960893854747,-0.4581005586592179,0.3854748603351955,-0.41899441340782123,0.49162011173184356,-0.35195530726256985,0.5754189944134078,-0.24022346368715083,0.6312849162011173,-0.10614525139664804,0.659217877094972,0.0446927374301676,0.659217877094972,0.18994413407821228,0.6424581005586593,0.3128491620111732,0.6033519553072626,0.4022346368715084,0.5363128491620112,0.45251396648044695,0.441340782122905,0.48044692737430167,0.33519553072625696,0.4860335195530726,0.22346368715083798,0.4860335195530726,0.11731843575418995,0.48044692737430167,0.0111731843575419,-0.4301675977653631,-0.16759776536312848,-0.3854748603351955,-0.25139664804469275,-0.30726256983240224,-0.30726256983240224,-0.20670391061452514,-0.31843575418994413,-0.11731843575418995,-0.29608938547486036,0.061452513966480445,-0.3128491620111732,0.1564245810055866,-0.3463687150837989,0.2569832402234637,-0.3407821229050279,0.3407821229050279,-0.29608938547486036,0.39106145251396646,-0.21787709497206703,-0.00558659217877095,-0.18435754189944134,-0.00558659217877095,-0.13966480446927373,0.0,-0.1005586592178771,0.0,-0.05027932960893855,-0.08379888268156424,0.10614525139664804,-0.03910614525139665,0.1005586592178771,0.00558659217877095,0.09497206703910614,0.05027932960893855,0.09497206703910614,0.0893854748603352,0.09497206703910614,-0.33519553072625696,-0.0782122905027933,-0.27932960893854747,-0.11731843575418995,-0.21787709497206703,-0.12849162011173185,-0.1452513966480447,-0.10614525139664804,-0.20670391061452514,-0.08379888268156424,-0.2737430167597765,-0.07262569832402235,0.12290502793296089,-0.12290502793296089,0.18994413407821228,-0.15083798882681565,0.25139664804469275,-0.15083798882681565,0.30726256983240224,-0.11731843575418995,0.25139664804469275,-0.1005586592178771,0.18994413407821228,-0.10614525139664804,-0.2011173184357542,0.3407821229050279,-0.11731843575418995,0.24022346368715083,-0.0335195530726257,0.18435754189944134,0.0111731843575419,0.18994413407821228,0.0670391061452514,0.17318435754189945,0.15083798882681565,0.22346368715083798,0.22905027932960895,0.3128491620111732,0.16201117318435754,0.3575418994413408,0.08379888268156424,0.3743016759776536,0.027932960893854747,0.37988826815642457,-0.0223463687150838,0.37988826815642457,-0.10614525139664804,0.3687150837988827,-0.1564245810055866,0.329608938547486,-0.0335195530726257,0.2569832402234637,0.01675977653631285,0.25139664804469275,0.0670391061452514,0.25139664804469275,0.18994413407821228,0.30726256983240224,0.0782122905027933,0.30726256983240224,0.0223463687150838,0.30726256983240224,-0.027932960893854747,0.3128491620111732,4
032.jpg,-0.5168539325842697,0.016853932584269662,-0.4943820224719101,0.12921348314606743,-0.46629213483146065,0.24157303370786518,-0.43258426966292135,0.34831460674157305,-0.39325842696629215,0.4550561797752809,-0.3258426966292135,0.5449438202247191,-0.21910112359550563,0.6067415730337079,-0.0898876404494382,0.6460674157303371,0.06179775280898876,0.6460674157303371,0.20786516853932585,0.6179775280898876,0.3258426966292135,0.5561797752808989,0.4101123595505618,0.47191011235955055,0.4550561797752809,0.3651685393258427,0.47752808988764045,0.24719101123595505,0.48314606741573035,0.1348314606741573,0.47752808988764045,0.02247191011235955,0.47191011235955055,-0.08426966292134831,-0.4438202247191011,-0.19662921348314608,-0.398876404494382,-0.2752808988764045,-0.3146067415730337,-0.3258426966292135,-0.21910112359550563,-0.33707865168539325,-0.12921348314606743,-0.3146067415730337,0.056179775280898875,-0.33146067415730335,0.14606741573033707,-0.3707865168539326,0.24157303370786518,-0.38202247191011235,0.33146067415730335,-0.34269662921348315,0.38764044943820225,-0.2696629213483146,-0.016853932584269662,-0.20786516853932585,-0.011235955056179775,-0.15168539325842698,0.0,-0.09550561797752809,0.0056179775280898875,-0.033707865168539325,-0.07865168539325842,0.10674157303370786,-0.033707865168539325,0.10112359550561797,0.016853932584269662,0.10112359550561797,0.056179775280898875,0.09550561797752809,0.09550561797752809,0.0898876404494382,-0.34269662921348315,-0.10674157303370786,-0.28651685393258425,-0.14606741573033707,-0.2247191011235955,-0.15730337078651685,-0.15168539325842698,-0.12921348314606743,-0.21348314606741572,-0.10674157303370786,-0.2808988764044944,-0.09550561797752809,0.11235955056179775,-0.15168539325842698,0.1797752808988764,-0.19101123595505617,0.24719101123595505,-0.19662921348314608,0.30337078651685395,-0.16292134831460675,0.25280898876404495,-0.1404494382022472,0.1853932584269663,-0.1404494382022472,-0.1797752808988764,0.33146067415730335,-0.10674157303370786,0.24157303370786518,-0.028089887640449437,0.1853932584269663,0.02247191011235955,0.19101123595505617,0.07303370786516854,0.17415730337078653,0.15730337078651685,0.21348314606741572,0.2303370786516854,0.29213483146067415,0.16853932584269662,0.34831460674157305,0.09550561797752809,0.38202247191011235,0.0449438202247191,0.38764044943820225,-0.011235955056179775,0.38764044943820225,-0.09550561797752809,0.3707865168539326,-0.1404494382022472,0.3202247191011236,-0.02247191011235955,0.25280898876404495,0.028089887640449437,0.25280898876404495,0.07865168539325842,0.24719101123595505,0.19101123595505617,0.29213483146067415,0.08426966292134831,0.30337078651685395,0.033707865168539325,0.3089887640449438,-0.016853932584269662,0.3146067415730337,4
033.jpg,-0.5083798882681564,0.10614525139664804,-0.49162011173184356,0.20670391061452514,-0.4692737430167598,0.3128491620111732,-0.43575418994413406,0.4134078212290503,-0.39106145251396646,0.5083798882681564,-0.3240223463687151,0.5865921787709497,-0.21787709497206703,0.6424581005586593,-0.0893854748603352,0.6703910614525139,0.061452513966480445,0.664804469273743,0.20670391061452514,0.6480446927374302,0.3240223463687151,0.6033519553072626,0.4134078212290503,0.5363128491620112,0.46368715083798884,0.441340782122905,0.48044692737430167,0.33519553072625696,0.49162011173184356,0.22346368715083798,0.4860335195530726,0.12290502793296089,0.4748603351955307,0.0223463687150838,-0.4301675977653631,-0.1564245810055866,-0.37988826815642457,-0.2346368715083799,-0.30726256983240224,-0.2849162011173184,-0.21787709497206703,-0.3016759776536313,-0.12849162011173185,-0.2849162011173184,0.061452513966480445,-0.3016759776536313,0.1452513966480447,-0.3407821229050279,0.24022346368715083,-0.3407821229050279,0.329608938547486,-0.29608938547486036,0.3854748603351955,-0.22905027932960895,-0.0111731843575419,-0.1787709497206704,-0.00558659217877095,-0.1340782122905028,0.0,-0.09497206703910614,0.00558659217877095,-0.05027932960893855,-0.0782122905027933,0.10614525139664804,-0.0335195530726257,0.1005586592178771,0.0111731843575419,0.1005586592178771,0.055865921787709494,0.09497206703910614,0.09497206703910614,0.0893854748603352,-0.329608938547486,-0.061452513966480445,-0.2737430167597765,-0.09497206703910614,-0.2122905027932961,-0.11173184357541899,-0.1452513966480447,-0.09497206703910614,-0.20670391061452514,-0.0670391061452514,-0.2681564245810056,-0.055865921787709494,0.12290502793296089,-0.11731843575418995,0.18435754189944134,-0.1452513966480447,0.24581005586592178,-0.13966480446927373,0.30726256983240224,-0.11173184357541899,0.25139664804469275,-0.10614525139664804,0.18994413407821228,-0.10614525139664804,-0.2011173184357542,0.3463687150837989,-0.12290502793296089,0.24022346368715083,-0.0335195530726257,0.18435754189944134,0.0223463687150838,0.18435754189944134,0.0782122905027933,0.17318435754189945,0.16201117318435754,0.2122905027932961,0.24581005586592178,0.30726256983240224,0.1787709497206704,0.36312849162011174,0.1005586592178771,0.39106145251396646,0.03910614525139665,0.4022346368715084,-0.01675977653631285,0.4022346368715084,-0.11173184357541899,0.3854748603351955,-0.16759776536312848,0.33519553072625696,-0.027932960893854747,0.25139664804469275,0.0223463687150838,0.24581005586592178,0.0782122905027933,0.24022346368715083,0.20670391061452514,0.30726256983240224,0.0893854748603352,0.31843575418994413,0.0335195530726257,0.3240223463687151,-0.0223463687150838,0.329608938547486,4
034.jpg,-0.5083798882681564,0.0782122905027933,-0.49162011173184356,0.18994413407821228,-0.46368715083798884,0.29608938547486036,-0.4301675977653631,0.4022346368715084,-0.3854748603351955,0.5027932960893855,-0.3128491620111732,0.5810055865921788,-0.20670391061452514,0.6368715083798883,-0.0782122905027933,0.664804469273743,0.07262569832402235,0.664804469273743,0.21787709497206703,0.6368715083798883,0.329608938547486,0.5865921787709497,0.4134078212290503,0.5083798882681564,0.46368715083798884,0.40782122905027934,0.48044692737430167,0.3016759776536313,0.49162011173184356,0.18435754189944134,0.49162011173184356,0.0782122905027933,0.48044692737430167,-0.0335195530726257,-0.43575418994413406,-0.16201117318435754,-0.39106145251396646,-0.24022346368715083,-0.3128491620111732,-0.29608938547486036,-0.21787709497206703,-0.3128491620111732,-0.12849162011173185,-0.2905027932960894,0.055865921787709494,-0.30726256983240224,0.1452513966480447,-0.3463687150837989,0.24022346368715083,-0.3463687150837989,0.329608938547486,-0.3016759776536313,0.3854748603351955,-0.2346368715083799,-0.01675977653631285,-0.18435754189944134,-0.0111731843575419,-0.13966480446927373,0.0,-0.09497206703910614,0.00558659217877095,-0.05027932960893855,-0.0782122905027933,0.1005586592178771,-0.0335195530726257,0.09497206703910614,0.0111731843575419,0.09497206703910614,0.05027932960893855,0.0893854748603352,0.0893854748603352,0.0893854748603352,-0.33519553072625696,-0.07262569832402235,-0.2849162011173184,-0.11731843575418995,-0.21787709497206703,-0.12849162011173185,-0.15083798882681565,-0.10614525139664804,-0.20670391061452514,-0.0782122905027933,-0.2737430167597765,-0.0670391061452514,0.11731843575418995,-0.12849162011173185,0.1787709497206704,-0.16201117318435754,0.24581005586592178,-0.1564245810055866,0.3016759776536313,-0.12290502793296089,0.24581005586592178,-0.11173184357541899,0.18435754189944134,-0.11173184357541899,-0.18994413407821228,0.3407821229050279,-0.11173184357541899,0.2346368715083799,-0.027932960893854747,0.1787709497206704,0.01675977653631285,0.1787709497206704,0.07262569832402235,0.16759776536312848,0.16201117318435754,0.2122905027932961,0.2346368715083799,0.3128491620111732,0.17318435754189945,0.3743016759776536,0.09497206703910614,0.4022346368715084,0.03910614525139665,0.40782122905027934,-0.01675977653631285,0.40782122905027934,-0.1005586592178771,0.39106145251396646,-0.15083798882681565,0.33519553072625696,-0.0223463687150838,0.24581005586592178,0.0223463687150838,0.24022346368715083,0.0782122905027933,0.2346368715083799,0.19553072625698323,0.30726256983240224,0.08379888268156424,0.3240223463687151,0.027932960893854747,0.329608938547486,-0.0223463687150838,0.329608938547486,4
035.jpg,-0.5337078651685393,0.07303370786516854,-0.5112359550561798,0.1853932584269663,-0.47752808988764045,0.29213483146067415,-0.4438202247191011,0.398876404494382,-0.398876404494382,0.4943820224719101,-0.3258426966292135,0.5730337078651685,-0.2247191011235955,0.6292134831460674,-0.09550561797752809,0.6685393258426966,0.05056179775280899,0.6685393258426966,0.19662921348314608,0.6460674157303371,0.3089887640449438,0.5898876404494382,0.39325842696629215,0.5112359550561798,0.43820224719101125,0.4101123595505618,0.4606741573033708,0.29775280898876405,0.46629213483146065,0.19101123595505617,0.4606741573033708,0.07865168539325842,0.4550561797752809,-0.02247191011235955,-0.43820224719101125,-0.1797752808988764,-0.38764044943820225,-0.25842696629213485,-0.3089887640449438,-0.3089887640449438,-0.21348314606741572,-0.3202247191011236,-0.12359550561797752,-0.29775280898876405,0.056179775280898875,-0.3146067415730337,0.14606741573033707,-0.34831460674157305,0.24157303370786518,-0.34831460674157305,0.3202247191011236,-0.3089887640449438,0.37640449438202245,-0.23595505617977527,-0.011235955056179775,-0.1853932584269663,-0.0056179775280898875,-0.1404494382022472,0.0,-0.09550561797752809,0.0056179775280898875,-0.0449438202247191,-0.07865168539325842,0.10112359550561797,-0.033707865168539325,0.09550561797752809,0.011235955056179775,0.09550561797752809,0.05056179775280899,0.09550561797752809,0.0898876404494382,0.09550561797752809,-0.33707865168539325,-0.07865168539325842,-0.2808988764044944,-0.11235955056179775,-0.21910112359550563,-0.12921348314606743,-0.14606741573033707,-0.10674157303370786,-0.20786516853932585,-0.08426966292134831,-0.2752808988764045,-0.06741573033707865,0.11235955056179775,-0.12359550561797752,0.1797752808988764,-0.15168539325842698,0.24157303370786518,-0.15168539325842698,0.29775280898876405,-0.11797752808988764,0.24719101123595505,-0.10112359550561797,0.1797752808988764,-0.10674157303370786,-0.19101123595505617,0.34269662921348315,-0.11235955056179775,0.23595505617977527,-0.028089887640449437,0.1797752808988764,0.02247191011235955,0.1853932584269663,0.07303370786516854,0.17415730337078653,0.15730337078651685,0.2247191011235955,0.2303370786516854,0.3202247191011236,0.16292134831460675,0.38764044943820225,0.0898876404494382,0.4101123595505618,0.033707865168539325,0.4157303370786517,-0.02247191011235955,0.4157303370786517,-0.10674157303370786,0.39325842696629215,-0.15168539325842698,0.33146067415730335,-0.02247191011235955,0.24719101123595505,0.028089887640449437,0.24157303370786518,0.07865168539325842,0.24719101123595505,0.1853932584269663,0.3146067415730337,0.07865168539325842,0.3258426966292135,0.028089887640449437,0.3258426966292135,-0.02247191011235955,0.3258426966292135,4
036.jpg,-0.5113636363636364,0.07954545454545454,-0.5,0.1875,-0.4772727272727273,0.29545454545454547,-0.4431818181818182,0.3977272727272727,-0.4034090909090909,0.4943181818181818,-0.32954545454545453,0.5795454545454546,-0.2215909090909091,0.6306818181818182,-0.09090909090909091,0.6534090909090909,0.0625,0.6534090909090909,0.20454545454545456,0.6306818181818182,0.3181818181818182,0.5852272727272727,0.4090909090909091,0.5113636363636364,0.4602272727272727,0.4147727272727273,0.48295454545454547,0.3068181818181818,0.48863636363636365,0.19318181818181818,0.48295454545454547,0.08522727272727272,0.4715909090909091,-0.017045454545454544,-0.44886363636363635,-0.1590909090909091,-0.4034090909090909,-0.23863636363636365,-0.32386363636363635,-0.29545454545454547,-0.22727272727272727,-0.3125,-0.13636363636363635,-0.2897727272727273,0.05113636363636364,-0.3125,0.14204545454545456,-0.3522727272727273,0.23863636363636365,-0.3522727272727273,0.32386363636363635,-0.3125,0.3806818181818182,-0.23863636363636365,-0.017045454545454544,-0.18181818181818182,-0.011363636363636364,-0.14204545454545456,-0.005681818181818182,-0.09659090909090909,0.0,-0.05113636363636364,-0.07954545454545454,0.10795454545454546,-0.03409090909090909,0.10227272727272728,0.011363636363636364,0.09659090909090909,0.05113636363636364,0.09090909090909091,0.09090909090909091,0.09090909090909091,-0.3409090909090909,-0.06818181818181818,-0.2897727272727273,-0.11363636363636363,-0.2215909090909091,-0.125,-0.1534090909090909,-0.10227272727272728,-0.21022727272727273,-0.07954545454545454,-0.2784090909090909,-0.0625,0.11363636363636363,-0.13068181818181818,0.18181818181818182,-0.16477272727272727,0.24431818181818182,-0.1590909090909091,0.30113636363636365,-0.13068181818181818,0.25,-0.11363636363636363,0.18181818181818182,-0.11363636363636363,-0.19318181818181818,0.3409090909090909,-0.11363636363636363,0.23863636363636365,-0.03409090909090909,0.18181818181818182,0.017045454545454544,0.1875,0.06818181818181818,0.17045454545454544,0.1534090909090909,0.21022727272727273,0.23295454545454544,0.29545454545454547,0.16477272727272727,0.3409090909090909,0.09659090909090909,0.36363636363636365,0.03977272727272727,0.375,-0.017045454545454544,0.375,-0.10227272727272728,0.36363636363636365,-0.14772727272727273,0.32954545454545453,-0.028409090909090908,0.2556818181818182,0.022727272727272728,0.25,0.07386363636363637,0.24431818181818182,0.19886363636363635,0.29545454545454547,0.08522727272727272,0.29545454545454547,0.028409090909090908,0.30113636363636365,-0.022727272727272728,0.3068181818181818,4
037.jpg,-0.5055555555555555,0.06111111111111111,-0.4888888888888889,0.17777777777777778,-0.4666666666666667,0.28888888888888886,-0.43333333333333335,0.39444444444444443,-0.3888888888888889,0.5,-0.32222222222222224,0.5777777777777777,-0.2111111111111111,0.6333333333333333,-0.08888888888888889,0.6666666666666666,0.06111111111111111,0.6722222222222223,0.20555555555555555,0.65,0.31666666666666665,0.6,0.40555555555555556,0.5277777777777778,0.45555555555555555,0.4222222222222222,0.48333333333333334,0.3111111111111111,0.49444444444444446,0.2,0.4888888888888889,0.08333333333333333,0.4777777777777778,-0.022222222222222223,-0.4222222222222222,-0.17222222222222222,-0.37777777777777777,-0.25,-0.3055555555555556,-0.3055555555555556,-0.2111111111111111,-0.31666666666666665,-0.12222222222222222,-0.29444444444444445,0.06666666666666667,-0.3111111111111111,0.15555555555555556,-0.34444444444444444,0.25,-0.34444444444444444,0.3333333333333333,-0.3055555555555556,0.3888888888888889,-0.23333333333333334,-0.011111111111111112,-0.18333333333333332,-0.005555555555555556,-0.1388888888888889,0.0,-0.09444444444444444,0.005555555555555556,-0.05,-0.07777777777777778,0.1,-0.03333333333333333,0.1,0.011111111111111112,0.09444444444444444,0.05555555555555555,0.09444444444444444,0.09444444444444444,0.09444444444444444,-0.3277777777777778,-0.07777777777777778,-0.2777777777777778,-0.12222222222222222,-0.2111111111111111,-0.13333333333333333,-0.1388888888888889,-0.10555555555555556,-0.20555555555555555,-0.08333333333333333,-0.26666666666666666,-0.07222222222222222,0.11666666666666667,-0.12222222222222222,0.18888888888888888,-0.16111111111111112,0.25,-0.15555555555555556,0.3055555555555556,-0.12222222222222222,0.25555555555555554,-0.10555555555555556,0.18888888888888888,-0.10555555555555556,-0.18333333333333332,0.34444444444444444,-0.1111111111111111,0.23333333333333334,-0.027777777777777776,0.17777777777777778,0.022222222222222223,0.18333333333333332,0.07222222222222222,0.17222222222222222,0.15555555555555556,0.21666666666666667,0.22777777777777777,0.32222222222222224,0.16666666666666666,0.37777777777777777,0.08888888888888889,0.40555555555555556,0.03888888888888889,0.4111111111111111,-0.016666666666666666,0.40555555555555556,-0.1,0.3888888888888889,-0.14444444444444443,0.3333333333333333,-0.022222222222222223,0.25,0.027777777777777776,0.24444444444444444,0.07777777777777778,0.24444444444444444,0.18888888888888888,0.31666666666666665,0.08333333333333333,0.32222222222222224,0.027777777777777776,0.32222222222222224,-0.022222222222222223,0.3277777777777778,4
